tree
version=v4
num_class=1
num_tree_per_iteration=1
label_index=0
max_feature_idx=4
objective=regression
feature_names=solar_rad t_mean month doy dow
feature_infos=[0.33000000000000002:29.41] [-2.5:28.300000000000001] [1:12] [1:366] [0:6]
tree_sizes=2557 2708 2723 2710 2721 2724 2688 2714 2710 2710 2710 2733 2724 2725 2737 2721 2733 2744 2737 2740 2736 2733 2726 2747 2706 2746 2724 2752 2756 2747 2772 2723 2758 2750 2767 2724 2750 2747 2743 2753 2753 2770 2750 2773 2753 2775 2781 2780 2776 2771 2760 2749 2752 2776 2758 2788 2757 2790 2803 2801 2782 2760 2798 2753 2779 2773 2795 2775 2784 2794 2766 2802 2805 2813 2818 2806 2780 2801 2806 2817 2790 2806 2821 2781 2779 2793 2808 2792 2774 2817 2801 2814 2808 2806 2824 2809 2781 2808 2790 2810 2802 2810 2810 2810 2809 2806 2803 2845 2820 2815 2808 2792 2827 2826 2806 2818 2785 2812 2831 2831 2814 2823 2828 2808 2835 2821 2837 2844 2815 2846 2826 2855 2833 2835 2850 2844 2846 2829 2849 2840 2853 2810 2826 2822 2835 2827 2831 2801 2832 2813 2803 2840 2822 2841 2846 2839 2842 2840 2852 2860 2849 2841 2855 2858 2860 2855 2806 2855 2841 2880 2853 2857 2872 2889 2876 2876 2885 2862 2867 2844 2872 2848 2885 2838 2870 2890 2845 2863 2854 2866 2868 2839 2863 2869 2866 2864 2852 2868 2866 2863 2868 2865 2867 2886 2833 2857 2839 2892 2829 2900 2855 2878 2888 2860 2878 2883 2855 2877 2886 2875 2878 2883 2874 2863 2868 2871 2856 2860 2884 2837 2876 2843 2863 2872 2845 2838 2864 2854 2878 2863 2870 2886 2873 2873 2840 2878 2868 2854 2873 2879 2881 2866 2898 2848 2836 2866 2868 2850 2868 2873 2884 2878 2854 2874 2880 2866 2889 2863 2882 2887 2881 2872 2881 2861 2868 2879 2894 2872 2876 2864 2891 2878 2839 2868 2893 2885 2883 2882 2853 2878 2842 2880 2887 2880 2890 2843 2879 2860 2872 2888 2898 2880 2835 2831 2874 2882 2871 2878 2884 2877 2862 2886 2874 2855 2881 2875 2870 2835 2876 2889 2889 2870 2858 2892 2867 2897 2865 2883 2865 2896 2830 2892 2897 2888 2894 2836 2880 2870 2886 2895 2876 2876 2900 2891 2868 2893 2872 2872 2897 2858 2887 2855 2888 2871 2855 2892 2884 2841 2852 2836 2880 2864 2855 2873 2861 2872 2866 2882 2871 2883 2876 2871 2887 2847 2890 2890 2878 2877 2899 2871 2879 2863 2870 2868 2848 2853 2856 2868 2859 2870 2887 2890 2882 2889 2884 2886 2865 2840 2863 2864 2889 2861 2894 2845 2864 2884 2877 2886 2867 2880 2842 2879 2880 2876 2879 2866 2878 2823 2890 2893 2895 2863 2881 2884 2887 2894 2850 2879 2833 2900 2876 2875 2876 2878 2894 2871 2895 2873 2881 2898 2873 2866 2876 2896 2892 2877 2882 2896 2883 2881 2877 2883 2896 2892 2877 2883 2874 2870 2881 2885 2878 2864 2885 2891 2879 2865 2898 2884 2879 2891 2882 2851 2877 2887 2889 2855 2887 2880 2890 2884 2882 2885 2869 2864 2883 2898 2886 2868 2860 2883 2886 2844 2888 2892 2892 2891 2859 2889 2894 2897

Tree=0
num_leaves=31
num_cat=0
split_feature=0 0 0 0 0 0 3 0 0 3 1 1 0 3 1 0 1 1 3 0 0 3 3 4 1 1 0 1 0 3
split_gain=1281.24 186.777 80.0638 34.7244 27.0009 17.9376 10.897 7.0329 5.52412 5.24597 5.22365 5.07605 4.9004 3.47158 2.60406 2.11209 2.11003 1.98095 1.8421 1.81461 1.51339 1.18421 1.13558 1.13014 1.11154 0.99426 0.83374 0.773321 0.708084 0.699532
threshold=10.065000000000003 18.940000000000001 3.9450000000000007 24.820000000000004 15.145000000000001 6.3750000000000009 118.50000000000001 21.320000000000004 1.9600000000000002 170.50000000000003 21.700000000000006 14.850000000000003 12.755000000000001 149.50000000000003 16.750000000000004 16.405000000000005 17.450000000000003 19.750000000000004 258.50000000000006 14.305000000000001 3.2450000000000006 92.500000000000014 112.50000000000001 1.5000000000000002 13.750000000000002 8.7500000000000018 4.9200000000000008 10.750000000000002 7.4200000000000008 178.50000000000003
decision_type=2 2 2 2 2 2 2 2 2 2 2 2 2 2 2 2 2 2 2 2 2 2 2 2 2 2 2 2 2 2
left_child=2 4 8 6 11 26 -3 -8 -1 15 16 12 23 -9 -11 -6 -5 29 21 -13 -10 25 -17 -2 -20 28 -4 -25 -7 -15
right_child=1 3 5 10 9 18 7 13 20 14 -12 19 -14 17 -16 22 -18 -19 24 -21 -22 -23 -24 27 -26 -27 -28 -29 -30 -31
leaf_value=1.7781966987246307 1.8394768523629652 1.8850240305414587 1.7960780054356447 1.8935894285467976 1.8498967645181508 1.8093721454177683 1.8587858774156187 1.8803161152491223 1.7845407769342487 1.8543362281223923 1.9060520437708288 1.8268499986554014 1.8452335217424607 1.8676571511123228 1.8415866687561266 1.8651148904791266 1.8809656772853631 1.874723801317167 1.8107408042207693 1.8368179209498154 1.7903008678085515 1.8179380472232161 1.8562416838876032 1.8345499975616149 1.8021495487868382 1.8064029728513376 1.8002210991809966 1.8272699477043166 1.8164860157955849 1.8600839789417696
leaf_weight=111 21 30 90 26 25 20 78 26 106 21 20 65 58 21 46 25 22 22 33 22 67 41 27 29 23 23 85 24 34 23
leaf_count=111 21 30 90 26 25 20 78 26 106 21 20 65 58 21 46 25 22 22 33 22 67 41 27 29 23 23 85 24 34 23
internal_value=1.8254 1.85566 1.79525 1.87465 1.84163 1.80487 1.86835 1.86541 1.78342 1.85172 1.89317 1.835 1.8387 1.87103 1.84558 1.85706 1.8878 1.86737 1.81169 1.82937 1.78677 1.81382 1.86051 1.83359 1.80721 1.81163 1.79809 1.83125 1.81385 1.8637
internal_weight=1264 631 633 268 363 349 200 170 284 144 68 219 132 92 67 77 48 66 174 87 173 118 52 74 56 77 175 53 54 44
internal_count=1264 631 633 268 363 349 200 170 284 144 68 219 132 92 67 77 48 66 174 87 173 118 52 74 56 77 175 53 54 44
is_linear=0
shrinkage=1


Tree=1
num_leaves=31
num_cat=0
split_feature=0 0 0 0 0 0 2 2 0 1 1 1 0 0 2 0 0 0 0 0 1 4 1 0 1 2 0 0 0 1
split_gain=1205.52 175.739 75.332 32.8005 25.4052 16.8775 9.47986 5.97237 5.19764 4.77605 4.71113 4.66672 4.61078 4.52082 2.45703 1.86275 1.70737 1.62041 1.42878 1.40614 1.28429 1.06335 0.805878 0.784466 0.727617 0.707105 0.670393 0.64759 0.42632 0.40214
threshold=10.065000000000003 18.940000000000001 3.9450000000000007 23.300000000000001 15.145000000000001 6.3750000000000009 5.5000000000000009 4.5000000000000009 1.9600000000000002 14.850000000000003 19.650000000000002 16.750000000000004 12.755000000000001 25.725000000000005 6.5000000000000009 20.600000000000005 14.305000000000001 7.8900000000000015 3.1950000000000007 16.405000000000005 12.250000000000002 1.5000000000000002 11.65 4.9200000000000008 10.750000000000002 8.5000000000000018 14.105000000000002 12.005000000000001 1.6100000000000003 5.6500000000000012
decision_type=2 2 2 2 2 2 2 2 2 2 2 2 2 2 2 2 2 2 2 2 2 2 2 2 2 2 2 2 2 2
left_child=2 4 8 7 9 23 -5 -3 28 12 14 19 21 -8 15 -9 27 25 -10 -6 -21 -2 -19 -4 -23 -7 -14 -11 -1 -25
right_child=1 3 5 6 11 17 13 10 18 16 -12 -13 26 -15 -16 -17 -18 22 -20 20 -22 24 -24 29 -26 -27 -28 -29 -30 -31
leaf_value=-0.047213704603058945 0.01365093265394015 0.052029442446572434 -0.028445948928594589 0.07264261630865243 0.024285523627186192 -0.014021296702558176 0.04564789502851424 0.030854099178314207 -0.039775097417359302 -0.002039317235217563 0.047090682483488508 0.018008168260661921 0.016327643366530538 0.061488291200469516 0.027810724199964446 0.041243941252369708 0.011071768671443516 -0.0082632619451138787 -0.03424414391318957 0.036796834978408043 0.028176787274224416 0.0088718832022478353 -0.01398947639327899 -0.020935269201343708 0.0018102349853143095 -0.019676002931288059 0.022813066000548689 0.0040077938743539755 -0.043361495558808485 -0.025646533888010751
leaf_weight=70 21 28 90 39 32 48 31 25 101 28 31 49 32 34 39 41 22 55 72 28 35 29 37 22 24 34 26 37 41 63
leaf_count=70 21 28 90 39 32 48 31 25 101 28 31 49 32 34 39 41 22 55 72 28 35 29 37 22 24 34 26 37 41 63
internal_value=-1.23181e-10 0.0293442 -0.0292515 0.04777 0.0157406 -0.0199156 0.0609495 0.0394122 -0.0407241 0.00930498 0.0368146 0.025528 0.0129017 0.0539336 0.0337807 0.0373084 0.00384789 -0.0132994 -0.0374732 0.0294067 0.0320079 0.00793784 -0.0105662 -0.026494 0.00567416 -0.0163659 0.0192349 0.00140288 -0.0457908 -0.0244271
internal_weight=1264 631 633 268 363 349 104 164 284 219 136 144 132 65 105 66 87 174 173 95 63 74 92 175 53 82 58 65 111 85
internal_count=1264 631 633 268 363 349 104 164 284 219 136 144 132 65 105 66 87 174 173 95 63 74 92 175 53 82 58 65 111 85
is_linear=0
shrinkage=0.03


Tree=2
num_leaves=31
num_cat=0
split_feature=0 0 0 0 0 0 3 0 1 0 3 1 0 3 1 1 3 3 0 1 0 0 3 1 3 1 0 0 0 0
split_gain=1134.27 165.353 70.8799 30.9368 23.9037 15.8801 9.78338 6.30496 4.93557 4.89046 4.72648 4.52343 4.5309 3.07818 1.91195 1.77808 1.68827 1.65218 1.56537 1.41802 1.41597 1.3445 1.12273 1.05241 0.935233 0.923228 0.822508 0.738104 0.638089 0.616745
threshold=10.065000000000003 18.940000000000001 3.9450000000000007 24.820000000000004 15.145000000000001 6.3750000000000009 118.50000000000001 21.320000000000004 21.700000000000006 1.9600000000000002 190.50000000000003 15.450000000000001 12.755000000000001 149.50000000000003 17.450000000000003 19.750000000000004 100.50000000000001 258.50000000000006 14.305000000000001 17.050000000000004 18.225000000000005 3.2450000000000006 92.500000000000014 13.750000000000002 134.50000000000003 8.7500000000000018 10.790000000000001 4.9200000000000008 7.4200000000000008 20.600000000000005
decision_type=2 2 2 2 2 2 2 2 2 2 2 2 2 2 2 2 2 2 2 2 2 2 2 2 2 2 2 2 2 2
left_child=2 4 9 6 11 27 -3 29 14 -1 16 12 26 -9 -5 -15 -6 22 -13 -12 24 -11 25 -19 -18 28 -2 -4 -7 -8
right_child=1 3 5 8 10 17 7 13 -10 21 19 18 -14 15 -16 -17 20 23 -20 -21 -22 -23 -24 -25 -26 -27 -28 -29 -30 -31
leaf_value=-0.044417091994672211 0.0026890380988302438 0.056188359081745146 -0.027592570273826517 0.064107832816930915 0.036722221273396694 -0.015129993975162506 0.029606557888740843 0.051668951442608461 0.076338380277156823 -0.038451634482392728 0.024616327224565405 0.00074516325803666275 0.018318041013854165 0.035999922142787411 0.052091214114969427 0.046445459425449372 0.019707163735141007 -0.013710478022694587 0.010304321237064349 0.014947011000834978 0.033494929969310756 -0.033022447682138696 -0.0068763183075480341 -0.022070112757222808 0.028577428649179636 -0.018055320523031378 0.0094450940651983149 -0.023694333489107731 -0.0083768779592698107 0.035456832851404725
leaf_weight=111 23 30 90 26 21 20 55 26 20 106 21 58 62 44 22 22 23 33 21 39 20 67 41 23 20 23 55 85 34 23
leaf_count=111 23 30 90 26 21 20 55 26 20 106 21 58 62 44 22 22 23 33 21 39 20 67 41 23 20 23 55 85 34 23
internal_value=3.19794e-11 0.0284639 -0.0283739 0.0463369 0.0152684 -0.0193181 0.0403935 0.0376062 0.0638173 -0.0395024 0.0247622 0.00902583 0.0122646 0.042926 0.0586002 0.0394818 0.0293557 -0.0129004 0.00328621 0.0183313 0.0269002 -0.036349 -0.0108866 -0.0171439 0.0238329 -0.0130219 0.00745292 -0.0256991 -0.010878 0.0313316
internal_weight=1264 631 633 268 363 349 200 170 68 284 144 219 140 92 48 66 84 174 79 60 63 173 118 56 43 77 78 175 54 78
internal_count=1264 631 633 268 363 349 200 170 68 284 144 219 140 92 48 66 84 174 79 60 63 173 118 56 43 77 78 175 54 78
is_linear=0
shrinkage=0.03


Tree=3
num_leaves=31
num_cat=0
split_feature=0 0 0 0 0 0 3 3 1 0 1 3 0 1 0 1 3 3 0 3 0 0 3 3 1 0 1 0 0 4
split_gain=1067.24 155.58 66.6909 29.3051 22.491 14.9416 9.17638 6.54014 4.66993 4.62446 4.48172 4.45665 4.42786 4.25609 4.26313 2.2488 2.23679 2.12735 1.87078 1.55453 1.52773 1.47286 1.05638 0.997699 0.990215 0.986295 0.868666 0.838655 0.773897 0.807036
threshold=10.065000000000003 18.940000000000001 3.9450000000000007 23.300000000000001 15.145000000000001 6.3750000000000009 153.50000000000003 118.50000000000001 15.65 2.3750000000000004 19.650000000000002 170.50000000000003 25.725000000000005 15.450000000000001 12.755000000000001 16.750000000000004 178.50000000000003 206.50000000000003 16.405000000000005 258.50000000000006 20.600000000000005 14.305000000000001 92.500000000000014 112.50000000000001 13.750000000000002 3.7350000000000008 8.7500000000000018 1.6100000000000003 10.790000000000001 2.5000000000000004
decision_type=2 2 2 2 2 2 2 2 2 2 2 2 2 2 2 2 2 2 2 2 2 2 2 2 2 2 2 2 2 2
left_child=2 4 9 7 13 -4 8 -3 -5 27 16 18 -8 14 28 -13 20 -18 -6 22 -9 -15 26 -20 -21 -11 -7 -1 -2 -30
right_child=1 3 5 6 11 19 12 10 -10 25 -12 15 -14 21 -16 -17 17 -19 23 24 -22 -23 -24 -25 -26 -27 -28 -29 29 -31
leaf_value=-0.044464780415807446 0.002608366799743279 0.050849018990993498 -0.024928166536122027 0.058425732851028443 0.022198370765894652 -0.010551691108072797 0.041958756744861603 0.028917239420115946 0.078926796734333032 -0.035794052042744377 0.044490697278130438 0.026495914634849342 0.057771534393815431 0.00072280850454137235 0.017768500313451965 0.014647909271854744 0.01936431335019214 0.033035570159554481 0.036503192853927606 -0.013299163410609417 0.038405477335410457 0.0099951913992741281 -0.006670028447945852 0.02818611595055295 -0.021408009358641244 -0.029735665532850449 -0.017513660922160616 -0.039868880338864786 0.013448188897708187 0.0060808570159133525
leaf_weight=70 23 26 175 20 25 54 30 24 20 110 31 21 34 58 62 46 21 20 25 33 42 21 41 27 23 31 23 73 23 32
leaf_count=70 23 26 175 20 25 54 30 24 20 110 31 21 34 58 62 46 21 20 25 33 42 21 41 27 23 31 23 73 23 32
internal_value=4.27854e-11 0.0276099 -0.0275227 0.0449468 0.0148103 -0.0187386 0.0574043 0.0370469 0.0686763 -0.0383173 0.0344465 0.0240193 0.0503593 0.00875506 0.0118967 0.0183615 0.0315365 0.0260332 0.0289424 -0.0125134 0.0349552 0.00318762 -0.01056 0.0321847 -0.0166296 -0.0344621 -0.0126312 -0.0421186 0.00722934 0.00916174
internal_weight=1264 631 633 268 363 349 104 164 40 284 138 144 64 219 140 67 107 41 77 174 66 79 118 52 56 141 77 143 78 55
internal_count=1264 631 633 268 363 349 104 164 40 284 138 144 64 219 140 67 107 41 77 174 66 79 118 52 56 141 77 143 78 55
is_linear=0
shrinkage=0.03


Tree=4
num_leaves=31
num_cat=0
split_feature=0 0 0 0 0 0 3 3 0 3 0 0 0 3 3 0 3 0 0 4 3 0 3 0 0 3 0 3 3 3
split_gain=1004.16 146.385 62.7495 27.5732 21.1618 14.0585 8.63406 6.15362 4.35116 4.2018 4.16618 3.67713 3.22464 1.68785 1.5593 1.54959 1.52137 1.46456 1.29342 1.20078 1.12122 0.928005 0.893802 0.81999 0.789091 0.741604 0.763549 0.75303 1.16721 1.18504
threshold=10.065000000000003 18.940000000000001 3.9450000000000007 23.300000000000001 15.145000000000001 6.3750000000000009 153.50000000000003 118.50000000000001 2.3750000000000004 190.50000000000003 25.725000000000005 11.955000000000002 20.600000000000005 136.50000000000003 100.50000000000001 14.205000000000002 178.50000000000003 7.8900000000000015 18.225000000000005 3.5000000000000004 242.50000000000003 3.7350000000000008 134.50000000000003 21.720000000000002 1.6100000000000003 320.50000000000006 5.5600000000000014 290.50000000000006 76.500000000000014 26.500000000000004
decision_type=2 2 2 2 2 2 2 2 2 2 2 2 2 2 2 2 2 2 2 2 2 2 2 2 2 2 2 2 2 2
left_child=2 4 8 7 11 25 -5 -3 24 14 -8 16 -9 -13 -6 -15 -2 -7 22 23 -11 -10 -16 -14 -1 26 27 28 29 -4
right_child=1 3 5 6 9 17 10 12 21 20 -12 13 19 15 18 -17 -18 -19 -20 -21 -22 -23 -24 -25 -26 -27 -28 -29 -30 -31
leaf_value=-0.043130837227616993 0.007380308804900519 0.049323548170236438 -0.022391133877364071 0.06661597721278667 0.034709378810865534 -0.015053335621657712 0.040699993550777434 0.027779589688405392 -0.034720230403271587 0.014114855608265649 0.056038390170125393 0.015425690139986967 0.038280216285160609 0.0048823645042086186 0.018305072982026181 0.013212363000053006 -0.00084826556535867541 -0.0095395627947848123 0.031572832837700841 0.041169551272650026 0.022625060657208616 -0.028843596125802683 0.026976632586680351 0.030238942015171046 -0.038672813479214502 -0.01889174282550812 -0.021077041942626239 -0.030576375390474614 -0.018382841326296331 -0.030115544251524479
leaf_weight=70 42 26 33 40 21 82 30 55 110 38 34 57 21 44 23 37 39 92 20 37 22 31 20 25 73 21 36 26 20 39
leaf_count=70 42 26 33 40 21 82 30 55 110 38 34 57 21 44 23 37 39 92 20 37 22 31 20 25 73 21 36 26 20 39
internal_value=7.37174e-11 0.0267816 -0.026697 0.0435984 0.014366 -0.0181764 0.0556822 0.0359355 -0.0371678 0.0232987 0.0488485 0.0084924 0.0334131 0.0114706 0.0276298 0.00868743 0.0034184 -0.012138 0.0252699 0.0371462 0.0172353 -0.0334282 0.0223384 0.03391 -0.0408551 -0.0241803 -0.0249015 -0.0260683 -0.0247942 -0.0265752
internal_weight=1264 631 633 268 363 349 104 164 284 144 64 219 138 138 84 81 81 174 63 83 60 141 43 46 143 175 154 118 92 72
internal_count=1264 631 633 268 363 349 104 164 284 144 64 219 138 138 84 81 81 174 63 83 60 141 43 46 143 175 154 118 92 72
is_linear=0
shrinkage=0.03


Tree=5
num_leaves=31
num_cat=0
split_feature=0 0 0 0 0 0 3 0 1 0 3 1 0 3 1 0 1 1 3 0 0 3 1 0 3 3 0 3 3 3
split_gain=944.818 137.734 59.041 25.9991 19.9111 13.2277 8.2856 5.37535 4.62878 4.10776 3.97125 3.89696 3.71871 2.61166 2.07706 1.73965 1.68396 1.58285 1.45055 1.34199 1.1597 0.992646 0.94371 0.923796 0.901841 0.697775 0.718423 0.708526 1.09823 1.11501
threshold=10.065000000000003 18.940000000000001 3.9450000000000007 24.820000000000004 15.145000000000001 6.3750000000000009 118.50000000000001 21.320000000000004 21.700000000000006 1.9600000000000002 170.50000000000003 14.850000000000003 12.755000000000001 149.50000000000003 16.750000000000004 16.405000000000005 17.450000000000003 19.750000000000004 258.50000000000006 14.305000000000001 3.1950000000000007 104.50000000000001 13.750000000000002 10.790000000000001 112.50000000000001 320.50000000000006 5.5600000000000014 290.50000000000006 76.500000000000014 26.500000000000004
decision_type=2 2 2 2 2 2 2 2 2 2 2 2 2 2 2 2 2 2 2 2 2 2 2 2 2 2 2 2 2 2
left_child=2 4 9 6 11 25 -3 -8 16 -1 15 12 23 -9 -12 -6 -5 -15 21 -13 -11 -7 -20 -2 -17 26 27 28 29 -4
right_child=1 3 5 8 10 18 7 13 -10 20 14 19 -14 17 -16 24 -18 -19 22 -21 -22 -23 -24 -25 -26 -27 -28 -29 -30 -31
leaf_value=-0.04055703791412147 0.0018753602846779606 0.051377553373575212 -0.021719399609348988 0.058431709775557887 0.020743665692210193 -0.011637457043398171 0.028483311215845436 0.047242080660966725 0.070440916210412971 -0.035236566385420241 0.025076579781515257 0.0011406230800426924 0.017174161833807312 0.032731196809221395 0.013689977313270388 0.034479430621862414 0.047154277942397377 0.042586625462228599 -0.01249871366826648 0.0097127321610142557 -0.030253567360341547 -0.0055619791111744497 -0.020414855313365871 0.0092088731049219715 0.026571987368580366 -0.018324990309774875 -0.020444730794988573 -0.029659084081649779 -0.01783135595731437 -0.029212077813079721
leaf_weight=111 22 30 33 26 25 84 78 26 20 101 21 65 58 44 46 25 22 22 33 22 72 34 23 52 27 21 36 26 20 39
leaf_count=111 22 30 33 26 25 84 78 26 20 101 21 65 58 44 46 25 22 22 33 22 72 34 23 52 27 21 36 26 20 39
internal_value=5.00107e-12 0.0259782 -0.0258961 0.0422904 0.013935 -0.0176311 0.036842 0.0342769 0.0583152 -0.0360528 0.0225998 0.00823763 0.0114865 0.0391888 0.0172589 0.027247 0.0532629 0.0360163 -0.0117739 0.00330828 -0.0331627 -0.0098869 -0.01575 0.00702864 0.0303736 -0.0234549 -0.0241544 -0.0252862 -0.0240504 -0.0257779
internal_weight=1264 631 633 268 363 349 200 170 68 284 144 219 132 92 67 77 48 66 174 87 173 118 56 74 52 175 154 118 92 72
internal_count=1264 631 633 268 363 349 200 170 68 284 144 219 132 92 67 77 48 66 174 87 173 118 56 74 52 175 154 118 92 72
is_linear=0
shrinkage=0.03


Tree=6
num_leaves=31
num_cat=0
split_feature=1 3 3 3 1 3 3 3 3 3 1 1 1 1 1 3 1 3 1 3 1 3 1 3 3 1 1 2 3 3
split_gain=349.178 134.1 92.0852 184.88 39.6659 37.9592 24.4254 21.5707 14.3517 14.2432 12.8028 12.4995 7.02776 4.22948 3.42362 3.32511 2.95681 2.95406 2.7649 2.88725 2.49218 5.66086 2.2796 1.8838 1.59274 1.78622 1.34453 1.20662 1.55595 2.17777
threshold=12.850000000000003 248.50000000000003 301.50000000000006 72.500000000000014 22.500000000000004 272.50000000000006 178.50000000000003 52.500000000000007 88.500000000000014 273.50000000000006 20.300000000000001 14.250000000000002 13.550000000000002 8.4500000000000011 6.7500000000000009 337.50000000000006 15.65 283.50000000000006 15.750000000000002 190.50000000000003 15.65 167.50000000000003 10.250000000000002 147.50000000000003 108.50000000000001 10.750000000000002 9.8500000000000032 5.5000000000000009 128.50000000000003 118.50000000000001
decision_type=2 2 2 2 2 2 2 2 2 2 2 2 2 2 2 2 2 2 2 2 2 2 2 2 2 2 2 2 2 2
left_child=2 4 3 7 6 8 11 14 22 16 18 12 -2 -10 -1 26 -3 -11 -8 -20 -13 23 -5 -22 25 -15 -4 28 29 -26
right_child=1 9 15 5 -6 -7 10 -9 13 17 -12 20 -14 24 -16 -17 -18 -19 19 -21 21 -23 -24 -25 27 -27 -28 -29 -30 -31
leaf_value=-0.025767913047546664 0.029129148588368767 0.0077305441932833709 -0.025621961605090358 0.0073499461981867036 0.06323006508350372 -0.013999509460272942 0.0052125732921477815 -0.010809002915251767 0.008729143150267191 -0.014731390327215193 0.037410116577520962 0.032044308089784208 0.0086487558921799056 0.022625159339513628 -0.033550701051950453 -0.036253554714577536 -0.0058317267092374654 -0.029327054914946738 0.025955893562308378 0.0139408022469087 0.053449248219174995 0.029569866615864967 -0.004955775531940162 0.041733940124511718 0.029987138403313501 0.011196351458318531 -0.033134041875600817 0.018425116590689867 0.032735420858860012 0.016154819726943968
leaf_weight=117 38 23 65 42 25 47 27 80 24 24 24 49 25 32 90 84 39 26 21 126 21 27 20 30 21 20 32 20 25 20
leaf_count=117 38 23 65 42 25 47 27 80 24 24 24 49 25 32 90 84 39 26 21 126 21 27 20 30 21 20 32 20 25 20
internal_value=-4.68609e-12 0.0187074 -0.0132901 -0.00725874 0.0266031 0.010512 0.0242431 -0.0240388 0.015655 -0.010408 0.0168697 0.031927 0.021002 0.0203528 -0.0291517 -0.0318841 -0.000800562 -0.0223211 0.0140365 0.0156572 0.0373465 0.0406774 0.00338036 0.0465579 0.0223742 0.0182295 -0.0281002 0.0248804 0.0268365 0.0232397
internal_weight=1264 525 739 558 413 271 388 287 224 112 198 190 63 162 207 181 62 50 174 147 127 78 62 51 138 52 97 86 66 41
internal_count=1264 525 739 558 413 271 388 287 224 112 198 190 63 162 207 181 62 50 174 147 127 78 62 51 138 52 97 86 66 41
is_linear=0
shrinkage=0.03


Tree=7
num_leaves=31
num_cat=0
split_feature=0 0 0 0 0 0 3 3 1 1 0 1 0 3 0 1 3 0 0 3 0 3 0 3 0 0 3 1 0 0
split_gain=845.517 124.466 52.4185 23.588 18.0794 11.485 7.81355 5.48516 3.97885 3.86266 3.782 3.77125 3.62699 3.51759 3.38827 1.98322 1.84851 1.62333 1.2853 1.22912 1.21377 1.18248 1.02856 0.908376 0.867646 0.831795 0.707768 0.726676 0.83047 0.697187
threshold=10.065000000000003 18.940000000000001 3.9450000000000007 23.300000000000001 15.145000000000001 6.3750000000000009 153.50000000000003 118.50000000000001 15.65 19.650000000000002 2.3750000000000004 14.850000000000003 27.655000000000005 170.50000000000003 12.755000000000001 16.750000000000004 162.50000000000003 16.405000000000005 8.4350000000000005 258.50000000000006 13.475000000000003 206.50000000000003 21.320000000000004 112.50000000000001 10.790000000000001 3.7350000000000008 320.50000000000006 1.8500000000000003 5.5600000000000014 1.6100000000000003
decision_type=2 2 2 2 2 2 2 2 2 2 2 2 2 2 2 2 2 2 2 2 2 2 2 2 2 2 2 2 2 2
left_child=2 4 10 7 11 26 8 -3 -5 16 29 14 -8 17 24 -15 22 -6 19 -7 -13 -18 -9 -19 -2 -12 27 -4 -29 -1
right_child=1 3 5 6 13 18 12 9 -10 -11 25 20 -14 15 -16 -17 21 23 -20 -21 -22 -23 -24 -25 -26 -27 -28 28 -30 -31
leaf_value=-0.039644391851765763 0.0016443450918251818 0.045634298003636872 -0.017506790041923521 0.052197899401187894 0.019474860942363736 -0.010873287435340351 0.039766546460085136 0.028505876655690369 0.071121329963207247 0.039937576036299431 -0.031804361709139563 -0.00049683881194695183 0.054976950117519921 0.02399575365441186 0.016322835629227862 0.012869344063649844 0.020600014716825064 0.032897954320907592 -0.0077865350715094995 -0.01747009921675691 0.0066018622824013592 0.029793079465627668 0.037050418811185024 0.024961916085125671 0.0087514942579078846 -0.02624068659159445 -0.016969930808991195 -0.025041388195699475 -0.019665081950170651 -0.035454009885657327
leaf_weight=70 22 26 20 20 25 73 43 32 20 31 110 46 21 21 58 46 34 25 62 39 41 20 21 27 52 31 21 99 35 73
leaf_count=70 22 26 20 20 25 73 43 32 20 31 110 46 21 21 58 46 34 25 62 39 41 20 21 27 52 31 21 99 35 73
internal_value=-1.54895e-11 0.0245752 -0.0244975 0.0400818 0.0131267 -0.0167098 0.0512583 0.0329943 0.0616596 0.0306129 -0.0340676 0.00769771 0.0447575 0.0213833 0.0108938 0.0163567 0.0279113 0.025757 -0.011252 -0.0131704 0.00284853 0.0240049 0.0318914 0.0287773 0.00663856 -0.0305811 -0.0221365 -0.022841 -0.0236371 -0.0375052
internal_weight=1264 631 633 268 363 349 104 164 40 138 284 219 64 144 132 67 107 77 174 112 87 54 53 52 74 141 175 154 134 143
internal_count=1264 631 633 268 363 349 104 164 40 138 284 219 64 144 132 67 107 77 174 112 87 54 53 52 74 141 175 154 134 143
is_linear=0
shrinkage=0.03


Tree=8
num_leaves=31
num_cat=0
split_feature=0 0 0 0 0 0 2 0 1 0 1 0 1 2 1 4 0 4 2 0 1 0 1 1 0 4 1 0 2 0
split_gain=795.547 117.11 49.3205 22.2463 17.0109 10.8063 6.06663 4.46598 3.96852 3.56672 3.5582 3.30563 3.14777 2.29498 1.54913 1.4089 1.20934 1.16763 1.12485 0.895694 0.856955 0.76046 1.52883 0.739036 1.39662 0.63384 0.629998 0.617499 0.692012 0.607994
threshold=10.065000000000003 18.940000000000001 3.9450000000000007 24.820000000000004 15.145000000000001 6.3750000000000009 4.5000000000000009 21.320000000000004 21.700000000000006 2.1600000000000006 15.450000000000001 12.755000000000001 15.050000000000002 5.5000000000000009 17.450000000000003 1.5000000000000002 8.4350000000000005 3.5000000000000004 8.5000000000000018 3.7350000000000008 18.550000000000004 16.305000000000003 11.15 12.050000000000002 11.245000000000003 3.5000000000000004 1.8500000000000003 4.8400000000000007 2.5000000000000004 20.600000000000005
decision_type=2 2 2 2 2 2 2 2 2 2 2 2 2 2 2 2 2 2 2 2 2 2 2 2 2 2 2 2 2 2
left_child=2 4 9 6 10 26 -3 29 14 -1 11 23 21 -9 -5 -12 18 -17 25 -11 -15 -6 -23 24 -2 -7 -4 28 -28 -8
right_child=1 3 5 8 12 16 7 13 -10 19 15 -13 -14 20 -16 17 -18 -19 -20 -21 -22 22 -24 -25 -26 -27 27 -29 -30 -31
leaf_value=-0.03678359302479451 0.0036333201320043629 0.045811268845573065 -0.016957392618060112 0.05398201573353547 0.020297834474061218 -0.0078800657006482099 0.024555714925581756 0.043204762701477321 0.064930207103490831 -0.03114572801760265 -0.003875190191294836 0.015509845706964691 0.016244258096828584 0.029650940697859313 0.043165497536009005 0.010536250023703489 -0.0075529391736622086 0.0015882911777922084 -0.016583742022752587 -0.025453466551919136 0.03667085871614259 0.033568597219884394 0.022995255799905863 0.0019775787343271076 0.013388824738562106 -0.013680261977016925 -0.028111567978675551 -0.020358486021102604 -0.021988362859651122 0.03045668637887998
leaf_weight=127 28 32 24 26 21 39 55 28 20 126 23 62 71 34 22 21 62 35 43 31 29 20 32 25 25 30 26 79 46 22
leaf_count=127 28 32 24 26 21 39 55 28 20 126 23 62 71 34 22 21 62 35 43 31 29 20 32 25 25 30 26 79 46 22
internal_value=-3.83549e-11 0.0238379 -0.0237626 0.0388794 0.0127329 -0.0162085 0.0338395 0.0315591 0.0537026 -0.0330455 0.00746678 0.0103393 0.0207418 0.0360585 0.0490244 0.00237623 -0.0109144 0.00494378 -0.0127753 -0.0300218 0.0328823 0.0251161 0.0270619 0.0062294 0.00823497 -0.0104019 -0.0214724 -0.02219 -0.0241995 0.0262417
internal_weight=1264 631 633 268 363 349 200 168 68 284 219 140 144 91 48 79 174 56 112 157 63 73 52 78 53 69 175 151 72 77
internal_count=1264 631 633 268 363 349 200 168 68 284 219 140 144 91 48 79 174 56 112 157 63 73 52 78 53 69 175 151 72 77
is_linear=0
shrinkage=0.03


Tree=9
num_leaves=31
num_cat=0
split_feature=0 0 0 0 0 0 3 3 3 0 1 1 0 1 1 3 3 0 0 1 4 0 4 0 0 1 0 0 1 1
split_gain=748.531 110.189 46.4257 21.0819 16.0588 8.86537 7.18675 5.95944 4.84408 4.43835 3.70019 3.58245 3.24236 2.7482 2.11896 1.69719 1.94392 1.68935 1.50761 1.19068 1.16314 1.05673 0.859999 1.04726 0.806171 0.754032 0.694265 0.690421 0.829387 0.527868
threshold=10.065000000000003 18.940000000000001 4.205000000000001 23.300000000000001 14.205000000000002 6.6450000000000005 153.50000000000003 96.500000000000014 118.50000000000001 2.5250000000000004 15.65 19.650000000000002 27.655000000000005 14.450000000000001 13.65 178.50000000000003 206.50000000000003 15.145000000000001 10.975000000000003 14.350000000000003 1.5000000000000002 3.7350000000000008 2.5000000000000004 12.755000000000001 1.6100000000000003 17.650000000000002 8.2050000000000018 6.0700000000000012 1.8500000000000003 10.850000000000003
decision_type=2 2 2 2 2 2 2 2 2 2 2 2 2 2 2 2 2 2 2 2 2 2 2 2 2 2 2 2 2 2
left_child=2 4 9 8 13 27 10 -6 -3 24 -5 15 -8 18 -9 19 -17 -16 -2 -10 -7 -11 -20 -24 -1 -19 -22 28 -4 -28
right_child=1 3 5 6 7 20 12 14 11 21 -12 -13 -14 -15 17 16 -18 25 22 -21 26 -23 23 -25 -26 -27 29 -29 -30 -31
leaf_value=-0.037351552426815031 0.0027927650050260126 0.042890930703053103 -0.015545885170047933 0.049130098700523379 0.033721278145909306 -0.0064496564334079335 0.037325576737869612 0.021246952498331664 0.025583436952249423 -0.029596678527428748 0.067378866970539089 0.037754716411713629 0.051706864918981278 0.00053576492441577775 0.0085185309420065837 0.015004216778491224 0.028072770595550536 0.018737945247112826 0.014913505669350603 0.033702235221862789 -0.014268799557265909 -0.024266827043432457 0.0040474519729614264 0.012917706980167523 -0.033048373500952556 0.012970265552319367 -0.0065253333933651446 -0.015871713425964114 -0.021894850324427423 -0.012575029903650283
leaf_weight=70 30 26 22 20 20 52 43 56 37 94 20 31 21 62 34 21 20 51 28 29 55 52 25 23 89 34 27 30 117 25
leaf_count=70 30 26 22 20 20 52 43 56 37 94 20 31 21 62 34 21 20 51 28 29 55 52 25 23 89 34 27 30 117 25
internal_value=-1.14665e-12 0.0231228 -0.0230497 0.037713 0.0123509 -0.0152152 0.0482791 0.0182077 0.0310125 -0.031475 0.0582545 0.0287746 0.0420444 0.00555281 0.0164348 0.0261729 0.0213791 0.0141702 0.00848731 0.0291508 -0.0101304 -0.0276984 0.0107352 0.00829778 -0.0349429 0.0164309 -0.0119191 -0.0199992 -0.02089 -0.00943384
internal_weight=1264 631 633 268 363 328 104 195 164 305 40 138 64 168 175 107 41 119 106 66 159 146 76 48 159 85 107 169 139 52
internal_count=1264 631 633 268 363 328 104 195 164 305 40 138 64 168 175 107 41 119 106 66 159 146 76 48 159 85 107 169 139 52
is_linear=0
shrinkage=0.03


Tree=10
num_leaves=31
num_cat=0
split_feature=0 0 0 0 0 0 3 3 3 0 1 1 0 1 1 3 0 0 3 0 0 0 3 0 1 3 0 1 3 2
split_gain=704.292 103.677 43.6819 19.836 15.1098 8.34143 6.76201 5.60724 4.55779 4.17605 3.48151 3.37073 3.07479 2.58578 1.99373 1.62025 1.58951 1.41851 1.06773 0.994282 0.879064 0.856196 0.804307 0.758526 0.709469 0.688666 0.649617 0.78037 0.634985 1.77064
threshold=10.065000000000003 18.940000000000001 4.205000000000001 23.300000000000001 14.205000000000002 6.6450000000000005 153.50000000000003 96.500000000000014 118.50000000000001 2.5250000000000004 15.65 19.650000000000002 25.725000000000005 14.450000000000001 13.65 162.50000000000003 15.145000000000001 10.975000000000003 206.50000000000003 3.7350000000000008 21.320000000000004 8.4350000000000005 258.50000000000006 1.6100000000000003 17.650000000000002 112.50000000000001 6.0700000000000012 1.8500000000000003 94.500000000000014 4.5000000000000009
decision_type=2 2 2 2 2 2 2 2 2 2 2 2 2 2 2 2 2 2 2 2 2 2 2 2 2 2 2 2 2 2
left_child=2 4 9 8 13 26 10 -6 -3 23 -5 15 -8 17 -9 20 -16 -2 -17 -11 -10 22 25 -1 -18 -7 27 -4 -19 -30
right_child=1 3 5 6 7 21 12 14 11 19 -12 -13 -14 -15 16 18 24 28 -20 -21 -22 -23 -24 -25 -26 -27 -28 -29 29 -31
leaf_value=-0.036231005634580343 0.0027089821416884661 0.041604203306711642 -0.015079508843747052 0.047656195878982538 0.032709639877080914 -0.011813528766202659 0.033782783240079876 0.020609543792504285 0.025984098891494795 -0.028708778435879562 0.06535750061273575 0.036622074544429777 0.046959858256227831 0.00051969199458272355 0.0082629749515806053 0.018494949361090276 0.018175806785550187 0.01338103329297155 0.027230587631464003 -0.023538822474387974 0.033883327841758723 -0.0070728511055330595 -0.015668937707319856 -0.032056922443797077 0.012581157645429757 -0.0052569938504270141 -0.015395561970770359 -0.021238004710429755 0.0014911367436870931 0.013963650699172702
leaf_weight=70 30 26 22 20 20 46 30 56 32 94 20 31 34 62 34 34 51 35 20 52 21 62 30 89 34 21 30 117 20 21
leaf_count=70 30 26 22 20 20 46 30 56 32 94 20 31 34 62 34 34 51 35 20 52 21 62 30 89 34 21 30 117 20 21
internal_value=-8.3167e-12 0.0224291 -0.0223582 0.0365816 0.0119804 -0.0147587 0.0468307 0.0176615 0.0300822 -0.0305308 0.0565068 0.0279113 0.0407831 0.00538623 0.0159417 0.0253877 0.0137451 0.00823269 0.0217304 -0.0268674 0.029114 -0.00982644 -0.0115865 -0.0338946 0.0159379 -0.0097585 -0.0193992 -0.0202633 0.0104131 0.0078795
internal_weight=1264 631 633 268 363 328 104 195 164 305 40 138 64 168 175 107 119 106 54 146 53 159 97 159 85 67 169 139 76 41
internal_count=1264 631 633 268 363 328 104 195 164 305 40 138 64 168 175 107 119 106 54 146 53 159 97 159 85 67 169 139 76 41
is_linear=0
shrinkage=0.03


Tree=11
num_leaves=31
num_cat=0
split_feature=0 0 0 0 0 0 3 0 3 0 3 0 3 3 0 3 3 0 0 0 3 3 0 3 3 4 3 4 0 3
split_gain=662.669 97.5497 41.1091 18.7247 14.2253 9.00148 6.47107 3.88542 3.46692 3.01546 2.89592 2.61266 1.96978 1.42542 1.27374 1.24671 1.15875 1.10363 1.04744 1.02743 1.01548 1.00304 0.888444 0.862982 0.663597 0.653073 0.637575 0.559843 0.533138 0.5811
threshold=10.065000000000003 18.940000000000001 3.9450000000000007 24.820000000000004 15.145000000000001 6.3750000000000009 118.50000000000001 21.320000000000004 153.50000000000003 1.9600000000000002 190.50000000000003 11.955000000000002 161.50000000000003 94.500000000000014 27.655000000000005 100.50000000000001 178.50000000000003 18.225000000000005 14.205000000000002 8.4350000000000005 258.50000000000006 242.50000000000003 3.1950000000000007 134.50000000000003 320.50000000000006 3.5000000000000004 208.50000000000003 3.5000000000000004 5.5600000000000014 290.50000000000006
decision_type=2 2 2 2 2 2 2 2 2 2 2 2 2 2 2 2 2 2 2 2 2 2 2 2 2 2 2 2 2 2
left_child=2 4 9 6 11 24 -3 -8 -5 -1 15 16 -9 -13 -10 -6 -2 23 -15 20 25 -12 -11 -17 28 -7 -14 -20 29 -4
right_child=1 3 5 8 10 19 7 12 14 22 21 13 26 18 -16 17 -18 -19 27 -21 -22 -23 -24 -25 -26 -27 -28 -29 -30 -31
leaf_value=-0.034021736560641107 0.0059859683264845177 0.04370603919029236 -0.020133045745466874 0.057430969344245061 0.028870701034154209 -0.0071484978257545396 0.023667801921255886 0.038121521376274725 0.03816826629638672 -0.029501531956219434 0.010959627034240646 0.015960781815228982 0.026630592547795352 0.0054643876251066099 0.048746864029339379 0.013759190352714579 -0.0011953104745883207 0.026252418816089629 0.014146055411547422 -0.0068606655731151293 -0.015582447228236838 0.019008823761885816 -0.025140066963310042 0.022279931142926215 -0.014592356491567834 -0.01288910849200141 0.033279021339757096 0.0076149990622486384 -0.017081521681199471 -0.025212384485281431
leaf_weight=111 42 30 92 27 21 42 78 37 20 101 38 24 34 66 21 23 39 20 27 62 39 22 72 20 21 31 21 21 36 26
leaf_count=111 42 30 92 27 21 42 78 37 20 101 38 24 34 66 21 23 39 20 27 62 39 22 72 20 21 31 21 21 36 26
internal_value=-5.61529e-11 0.0217562 -0.0216875 0.0354841 0.011621 -0.0147909 0.0308603 0.0285934 0.0490836 -0.0301625 0.0189448 0.0068053 0.0327695 0.0093157 0.0435866 0.0225404 0.00252832 0.0204303 0.00791674 -0.00995906 -0.0116742 0.013911 -0.0276864 0.0177223 -0.0195951 -0.00958629 0.0291691 0.0112887 -0.0202773 -0.0212522
internal_weight=1264 631 633 268 363 349 200 170 68 284 144 219 92 138 41 84 81 63 114 174 112 60 173 43 175 73 55 48 154 118
internal_count=1264 631 633 268 363 349 200 170 68 284 144 219 92 138 41 84 81 63 114 174 112 60 173 43 175 73 55 48 154 118
is_linear=0
shrinkage=0.03


Tree=12
num_leaves=31
num_cat=0
split_feature=0 0 0 0 0 0 3 0 3 0 3 0 0 3 0 0 0 0 3 3 0 4 3 3 0 3 0 0 4 4
split_gain=623.612 82.9158 46.6296 17.7784 11.0652 7.5691 6.0466 5.9416 3.98844 2.76112 2.72477 2.29729 1.9858 1.78852 1.57201 1.30257 1.23014 1.22715 1.12356 1.61856 1.04649 1.0423 0.950502 0.943759 0.893493 0.759664 0.752034 0.621111 0.578648 0.531398
threshold=10.690000000000003 18.940000000000001 4.9200000000000008 23.300000000000001 15.145000000000001 3.1950000000000007 154.50000000000003 7.8900000000000015 118.50000000000001 25.725000000000005 190.50000000000003 20.600000000000005 9.7150000000000016 164.50000000000003 14.205000000000002 6.0700000000000012 1.8750000000000002 16.405000000000005 124.50000000000001 94.500000000000014 25.260000000000002 3.5000000000000004 114.50000000000001 242.50000000000003 21.720000000000002 258.50000000000006 3.7350000000000008 11.955000000000002 3.5000000000000004 3.5000000000000004
decision_type=2 2 2 2 2 2 2 2 2 2 2 2 2 2 2 2 2 2 2 2 2 2 2 2 2 2 2 2 2 2
left_child=2 4 5 8 13 16 20 15 -3 -8 17 -10 25 18 27 -4 -1 -6 19 29 -5 24 -19 -12 -13 -9 -7 -15 -17 -2
right_child=1 3 7 6 10 26 9 12 11 -11 23 21 -14 14 -16 28 -18 22 -20 -21 -22 -23 -24 -25 -26 -27 -28 -29 -30 -31
leaf_value=-0.03335366630192959 0.015479233605868142 0.039044896220931637 -0.01780845867077421 0.047944816768169397 0.016448447148387248 -0.025810635507833666 0.031415421829141421 -0.0066783197382465007 0.021480837961150839 0.04410372105511752 0.010630838106337345 0.030933521134512768 0.00010894309197153364 -0.0015503840645154318 0.010048015251959442 -0.010413996075364676 -0.028773207806907921 0.028552539577850929 0.016464539069150175 0.0033767074340533823 0.057426545376127416 0.033135180135031007 0.020830176786985247 0.018438558937473728 0.022539575743675232 -0.013195382358971983 -0.021109390899169543 0.0043384788818657391 -0.015090362089020867 0.0087929205503314723
leaf_weight=99 23 26 70 20 26 41 29 60 55 33 38 21 35 27 32 55 113 26 21 31 22 37 32 22 25 22 121 40 42 20
leaf_count=99 23 26 70 20 26 41 29 60 55 33 38 21 35 27 32 55 113 26 21 31 22 37 32 22 25 22 121 40 42 20
internal_value=2.46793e-11 0.0219574 -0.0202222 0.0344196 0.0120762 -0.0271814 0.0441226 -0.0110575 0.0282665 0.0381689 0.0183765 0.0262358 -0.00587337 0.00739964 0.00457793 -0.0146896 -0.0309122 0.0218642 0.0103401 0.00860214 0.0529114 0.0293867 0.0242919 0.0134937 0.0263716 -0.0084268 -0.0222992 0.00196536 -0.0124388 0.0123693
internal_weight=1264 606 658 268 338 374 104 284 164 62 144 138 117 194 99 167 212 84 95 74 42 83 58 60 46 82 162 67 97 43
internal_count=1264 606 658 268 338 374 104 284 164 62 144 138 117 194 99 167 212 84 95 74 42 83 58 60 46 82 162 67 97 43
is_linear=0
shrinkage=0.03


Tree=13
num_leaves=31
num_cat=0
split_feature=0 0 0 0 0 0 0 2 1 2 1 0 0 1 2 0 0 0 0 1 2 2 1 2 4 0 1 1 0 1
split_gain=586.756 78.0155 43.8738 16.7277 10.4112 7.12176 5.61876 5.42978 3.65421 2.81032 3.01366 2.65006 2.46303 2.39103 1.5555 1.53509 1.15744 1.08728 1.01987 0.894618 0.792642 0.942337 0.789436 0.78767 0.718187 0.659462 1.29466 0.562022 0.616334 0.464528
threshold=10.690000000000003 18.940000000000001 4.9200000000000008 23.300000000000001 15.145000000000001 3.1950000000000007 6.8850000000000007 5.5000000000000009 14.850000000000003 4.5000000000000009 19.650000000000002 9.7150000000000016 27.655000000000005 15.050000000000002 6.5000000000000009 13.995000000000003 1.8750000000000002 12.005000000000001 20.600000000000005 8.6500000000000004 4.5000000000000009 3.5000000000000004 2.3500000000000001 2.5000000000000004 1.5000000000000002 16.305000000000003 11.15 5.6500000000000012 5.995000000000001 17.650000000000002
decision_type=2 2 2 2 2 2 2 2 2 2 2 2 2 2 2 2 2 2 2 2 2 2 2 2 2 2 2 2 2 2
left_child=2 4 5 9 8 16 27 -5 15 -3 14 19 -9 25 18 20 -1 -10 -11 -8 21 -2 -7 -24 -21 -6 -27 -4 -29 -15
right_child=1 3 6 7 13 22 11 12 17 10 -12 -13 -14 29 -16 -17 -18 -19 -20 24 -22 -23 23 -25 -26 26 -28 28 -30 -31
leaf_value=-0.032353056271870927 0.0097996382425362995 0.036073530710169249 -0.012144350411503442 0.051648445198169121 0.017150685787200925 -0.016347305510531769 -0.005829863542334196 0.033454770127480681 -0.0035995926069361823 0.021241188872605558 0.033855484560612707 0.00010567474365234374 0.045942313585962562 0.016231511413824517 0.018459988030103538 0.016727851271363239 -0.027910011500383899 0.0043491870080420783 0.028929000296970691 -0.0064197514972487548 0.013139274877309799 0.0021668551303446293 -0.025216383798313993 -0.020623094708259616 -0.012600567962508647 0.029437272997107355 0.019707315769046545 -0.019527155330235309 -0.014476725488554599 0.011373976802330134
leaf_weight=99 37 28 28 39 21 22 47 44 21 25 31 35 21 37 39 28 113 59 41 23 25 24 56 84 64 20 32 44 43 34
leaf_count=99 37 28 28 39 21 22 47 44 21 25 31 35 21 37 39 28 113 59 41 23 25 24 56 84 64 20 32 44 43 34
internal_value=2.34636e-11 0.0212987 -0.0196155 0.033387 0.0117139 -0.026366 -0.0107258 0.0427989 0.00717765 0.0274185 0.0256366 -0.00724494 0.0374892 0.0178252 0.0232101 0.0106268 -0.0299848 0.00226263 0.026017 -0.00916488 0.00864038 0.00679658 -0.0216302 -0.0224604 -0.0109666 0.0216376 0.0234496 -0.0158412 -0.017031 0.0139054
internal_weight=1264 606 658 268 338 374 284 104 194 164 136 169 65 144 105 114 212 80 66 134 86 61 162 140 87 73 52 115 87 71
internal_count=1264 606 658 268 338 374 284 104 194 164 136 169 65 144 105 114 212 80 66 134 86 61 162 140 87 73 52 115 87 71
is_linear=0
shrinkage=0.03


Tree=14
num_leaves=31
num_cat=0
split_feature=0 0 0 0 0 0 0 2 1 1 0 0 1 1 2 0 1 0 0 0 1 1 1 2 2 2 4 0 1 0
split_gain=552.079 73.4048 41.2937 15.7543 9.79594 6.42726 5.56319 4.33582 3.67441 3.43825 3.34101 2.49344 2.25546 1.59767 1.62972 1.44437 1.17259 1.09223 1.02302 0.911222 0.841746 0.798383 0.774705 0.951621 0.745797 0.886645 0.675743 0.625634 0.553884 0.589707
threshold=10.690000000000003 18.940000000000001 4.8400000000000007 24.820000000000004 15.145000000000001 3.1950000000000007 6.8850000000000007 4.5000000000000009 21.700000000000006 14.850000000000003 20.600000000000005 9.7150000000000016 16.750000000000004 19.650000000000002 6.5000000000000009 13.995000000000003 17.450000000000003 1.6100000000000003 12.005000000000001 16.405000000000005 8.6500000000000004 12.250000000000002 2.3500000000000001 2.5000000000000004 4.5000000000000009 3.5000000000000004 1.5000000000000002 22.530000000000005 5.6500000000000012 6.0700000000000012
decision_type=2 2 2 2 2 2 2 2 2 2 2 2 2 2 2 2 2 2 2 2 2 2 2 2 2 2 2 2 2 2
left_child=2 4 5 7 9 17 28 -3 16 15 -9 20 19 14 27 24 -5 -1 -11 -6 -8 -21 -7 -24 25 -2 -22 -12 -4 -30
right_child=1 3 6 8 12 22 11 10 -10 18 13 -13 -14 -15 -16 -17 -18 -19 -20 21 26 -23 23 -25 -26 -27 -28 -29 29 -31
leaf_value=-0.032152221884046275 0.0095056490569904034 0.038265135744586586 -0.011780019652630602 0.044671385414325269 0.01586431821109727 -0.015856886533173648 -0.0056549675687354922 0.020152314712335778 0.05566321527957916 -0.0034916048816272189 0.02677307568490505 0.00010250443645886012 0.012062594704710099 0.035101320117712019 0.020620324896275997 0.016226015706031049 0.035260786210948768 -0.027573414306405562 0.0042187114904380114 0.025856696651982407 -0.006227158943758063 0.019060215283717426 -0.025012731684578786 -0.019871340068402115 0.012745096463081427 0.0021018495503813029 -0.012222551056547673 0.033008355333336764 -0.018613761682063339 -0.013735730399034524
leaf_weight=70 37 32 28 26 32 22 47 55 20 21 30 35 49 30 25 28 22 142 59 28 23 35 54 81 25 24 64 28 54 38
leaf_count=70 37 32 28 26 32 22 47 55 20 21 30 35 49 30 25 28 22 142 59 28 23 35 54 81 25 24 64 28 54 38
internal_value=1.08442e-11 0.0206597 -0.0190271 0.0323854 0.0113625 -0.025678 -0.010535 0.0281442 0.0448597 0.00696232 0.0262164 -0.0070276 0.0172904 0.0291679 0.0270233 0.010308 0.0403582 -0.0290853 0.00219475 0.0199869 -0.00888994 0.0220809 -0.0210772 -0.0219279 0.00838117 0.00659268 -0.0106376 0.0297832 -0.0154745 -0.0165989
internal_weight=1264 606 658 268 338 369 289 200 68 194 168 169 144 113 83 114 48 212 80 95 134 63 157 135 86 61 87 58 120 92
internal_count=1264 606 658 268 338 369 289 200 68 194 168 169 144 113 83 114 48 212 80 95 134 63 157 135 86 61 87 58 120 92
is_linear=0
shrinkage=0.03


Tree=15
num_leaves=31
num_cat=0
split_feature=1 3 3 3 1 3 3 3 1 3 3 1 1 1 1 1 3 1 3 3 3 1 1 3 1 1 4 4 1 1
split_gain=200.974 80.6153 53.3649 108.257 26.1884 21.8698 13.4755 13.2223 8.60082 8.24872 8.03436 8.00442 5.5819 3.42139 2.46244 2.28786 2.04905 1.86678 1.9505 1.68372 1.52351 4.27575 1.25183 1.13772 1.33215 1.09279 0.934448 0.899848 0.799841 0.770751
threshold=12.850000000000003 248.50000000000003 301.50000000000006 72.500000000000014 22.500000000000004 272.50000000000006 178.50000000000003 52.500000000000007 20.300000000000001 273.50000000000006 88.500000000000014 14.250000000000002 13.550000000000002 8.4500000000000011 15.65 6.7500000000000009 337.50000000000006 15.750000000000002 190.50000000000003 282.50000000000006 167.50000000000003 16.150000000000002 7.5500000000000007 108.50000000000001 10.750000000000002 9.7500000000000018 4.5000000000000009 4.5000000000000009 14.950000000000001 9.3500000000000032
decision_type=2 2 2 2 2 2 2 2 2 2 2 2 2 2 2 2 2 2 2 2 2 2 2 2 2 2 2 2 2 2
left_child=2 4 3 7 6 10 11 15 17 14 22 12 -2 -12 -3 -1 25 -8 -19 -11 21 28 -5 24 -15 -4 -25 -20 -13 -9
right_child=1 9 16 5 -6 -7 8 29 -10 19 13 20 -14 23 -16 -17 -18 18 27 -21 -22 -23 -24 26 -26 -27 -28 -29 -30 -31
leaf_value=-0.019568434596443789 0.022604579335372698 0.0067147622796018486 -0.018980617418783367 0.0090043429993093005 0.050075377857685087 -0.010497967871302302 0.0033474114868375987 -0.0097871398049856305 0.029755660183727741 -0.010978522518915788 0.0050714576197788122 0.02872989480383694 0.0043521500833332543 0.017637022726703436 -0.0056618975131557539 -0.025930634816487629 -0.027667578692947115 0.020394376198029411 0.0089466088396691519 -0.022132569836645289 0.022532669946551322 0.037326737848478696 -0.00011472960135766438 0.021295592091337311 0.0077672139722853905 -0.025701524425636637 0.014128440211273052 0.014606870323718924 0.021382155781611799 -0.003192394333468242
leaf_weight=117 38 23 64 20 25 47 27 58 24 21 24 24 25 32 39 90 84 21 91 29 30 43 42 64 20 33 22 35 30 22
leaf_count=117 38 23 64 20 25 47 27 58 24 21 24 24 25 32 39 90 84 21 91 29 30 43 42 64 20 33 22 35 30 22
internal_value=3.01418e-11 0.0141925 -0.0100827 -0.00549122 0.0203144 0.0081072 0.0183968 -0.0183315 0.0129201 -0.00838186 0.012011 0.0241042 0.0153616 0.0155258 -0.00107056 -0.0223346 -0.0242375 0.010598 0.0119297 -0.0174479 0.028441 0.0302684 0.00282691 0.017344 0.0138409 -0.0212671 0.0194621 0.0105189 0.0246478 -0.00797358
internal_weight=1264 525 739 558 413 271 388 287 198 112 224 190 63 162 62 207 181 174 147 50 127 97 62 138 52 97 86 126 54 80
internal_count=1264 525 739 558 413 271 388 287 198 112 224 190 63 162 62 207 181 174 147 50 127 97 62 138 52 97 86 126 54 80
is_linear=0
shrinkage=0.03


Tree=16
num_leaves=31
num_cat=0
split_feature=0 0 0 0 0 0 2 0 1 1 0 0 1 0 1 2 0 4 4 1 1 2 2 2 4 0 1 1 1 0
split_gain=494.424 66.2671 36.5478 14.281 8.91543 5.82849 5.02899 4.76429 3.28376 2.98886 2.96245 2.21483 2.09578 1.30458 1.29961 1.37457 1.01232 0.940623 1.02989 0.883987 0.738155 0.865268 0.664605 0.919249 0.601914 0.559909 1.20576 0.557459 0.553048 0.525136
threshold=10.690000000000003 18.940000000000001 4.8400000000000007 25.055000000000003 15.145000000000001 3.1950000000000007 4.5000000000000009 6.8850000000000007 14.850000000000003 21.150000000000002 20.600000000000005 9.7150000000000016 15.050000000000002 13.995000000000003 19.650000000000002 6.5000000000000009 1.8750000000000002 1.5000000000000002 3.5000000000000004 8.7500000000000018 2.3500000000000001 2.5000000000000004 4.5000000000000009 3.5000000000000004 1.5000000000000002 16.305000000000003 11.15 17.350000000000005 5.6500000000000012 5.995000000000001
decision_type=2 2 2 2 2 2 2 2 2 2 2 2 2 2 2 2 2 2 2 2 2 2 2 2 2 2 2 2 2 2
left_child=2 4 5 6 8 16 -3 28 13 27 -8 19 25 22 15 -12 -1 -10 -19 -9 -7 -22 23 -2 -21 -6 -27 -5 -4 -30
right_child=1 3 7 9 12 20 10 11 17 -11 14 -13 -14 -15 -16 -17 -18 18 -20 24 21 -23 -24 -25 -26 26 -28 -29 29 -31
leaf_value=-0.029722712003823482 0.0092359298835130946 0.037580497969280584 -0.010896374617836305 0.041859349283305078 0.015807690088238034 -0.014786288941448384 0.019052605526818131 -0.0052648506482364608 -0.0034212889556180346 0.052425454769815721 0.028017023283988234 -5.1210966493402209e-05 0.012702969764064157 0.015413801707327365 0.032647539982572193 0.019644259499944746 -0.025567523372911773 0.0091703463771513529 0.00085233995892308853 -0.0061929558043408647 -0.023653899464342331 -0.018751326996695111 0.012077760095894336 0.0016972340480424463 -0.011863224020316487 0.027390166494995354 0.018000198775698664 0.034939029358327392 -0.017834882359115442 -0.013292131320854951
leaf_weight=99 37 33 28 22 21 22 55 48 22 21 60 35 71 28 32 25 113 21 37 23 54 81 25 24 63 20 32 20 49 43
leaf_count=99 37 33 28 22 21 22 55 48 22 21 60 35 71 28 32 25 113 21 37 23 54 81 25 24 63 20 32 20 49 43
internal_value=-5.52604e-13 0.0195512 -0.0180061 0.0306922 0.0107175 -0.0242633 0.0268532 -0.0100169 0.00651979 0.0431845 0.024795 -0.00677116 0.0163728 0.00978942 0.0274944 0.0255544 -0.0275079 0.00186057 0.00386403 -0.00852637 -0.019882 -0.0207124 0.00795822 0.00626989 -0.0103468 0.0199421 0.0216117 0.038564 -0.0145881 -0.0157116
internal_weight=1264 606 658 268 338 369 205 289 194 63 172 169 144 114 117 85 212 80 58 134 157 135 86 61 86 73 52 42 120 92
internal_count=1264 606 658 268 338 369 205 289 194 63 172 169 144 114 117 85 212 80 58 134 157 135 86 61 86 73 52 42 120 92
is_linear=0
shrinkage=0.03


Tree=17
num_leaves=31
num_cat=0
split_feature=0 0 0 0 0 0 2 0 1 2 1 0 1 0 0 2 0 0 0 0 0 1 1 2 1 2 2 4 2 0
split_gain=465.203 62.3507 34.3878 13.5858 8.38853 5.48403 5.02889 4.51188 3.09873 2.29734 2.48498 2.04918 2.00327 1.45565 1.28757 1.19763 1.01098 0.955405 0.855484 0.808479 0.797287 0.728462 0.69453 0.814131 0.685104 0.504766 0.864921 0.394731 0.351931 0.332946
threshold=10.690000000000003 18.940000000000001 4.8400000000000007 23.300000000000001 15.145000000000001 3.1950000000000007 5.5000000000000009 7.8900000000000015 15.050000000000002 4.5000000000000009 19.650000000000002 27.655000000000005 16.750000000000004 9.7150000000000016 13.995000000000003 6.5000000000000009 6.3750000000000009 1.6100000000000003 14.305000000000001 16.405000000000005 20.600000000000005 11.350000000000003 2.3500000000000001 2.5000000000000004 12.250000000000002 4.5000000000000009 3.5000000000000004 3.5000000000000004 6.5000000000000009 24.820000000000004
decision_type=2 2 2 2 2 2 2 2 2 2 2 2 2 2 2 2 2 2 2 2 2 2 2 2 2 2 2 2 2 2
left_child=2 4 5 9 8 17 -5 16 14 -3 15 29 19 21 25 20 -4 -1 -10 -6 -11 -9 -7 -24 -21 26 -2 28 -18 -8
right_child=1 3 7 6 12 22 11 13 18 10 -12 -13 -14 -15 -16 -17 27 -19 -20 24 -22 -23 23 -25 -26 -27 -28 -29 -30 -31
leaf_value=-0.029551097350461141 0.0089588517146940161 0.032217920470450599 -0.015003404154131809 0.046770116182473988 0.014539653528481722 -0.01434270011430437 0.026970066026501031 -0.0049176453214951179 -0.00034941339171068231 0.018818390867114065 0.030244742083934049 0.040853899759905679 0.010954716115885851 -4.9674779176712035e-05 0.014882249779485423 0.016410076913352195 -0.0063811626409490899 -0.025268672295439408 0.0066502953507006166 0.023892977655466111 0.02561572371005285 -0.010634390067841325 -0.022944282607899772 -0.018188787186863245 0.017597091584865533 0.011008542554659976 0.0016463171620853243 -0.012871551765676805 -0.011559366746140377 0.032194759334836683
leaf_weight=70 37 28 90 39 32 22 23 47 55 25 31 21 49 35 29 39 27 142 22 28 41 35 54 81 35 27 24 34 21 21
leaf_count=70 37 28 90 39 32 22 23 47 55 25 31 21 49 35 29 39 27 142 22 28 41 35 54 81 35 27 24 34 21 21
internal_value=-4.68332e-11 0.0189647 -0.017466 0.0297715 0.010396 -0.0235354 0.0382535 -0.00971643 0.00632419 0.0243926 0.0227815 0.0331436 0.0158816 -0.00517155 0.00940004 0.0205781 -0.012808 -0.0266827 0.0016505 0.0184228 0.023041 -0.00735772 -0.0192855 -0.020091 0.0203953 0.00759341 0.00608179 -0.0103984 -0.00864663 0.0294637
internal_weight=1264 606 658 268 338 369 104 289 194 164 136 65 144 117 117 105 172 212 77 95 66 82 157 135 63 88 61 82 48 44
internal_count=1264 606 658 268 338 369 104 289 194 164 136 65 144 117 117 105 172 212 77 95 66 82 157 135 63 88 61 82 48 44
is_linear=0
shrinkage=0.03


Tree=18
num_leaves=31
num_cat=0
split_feature=0 0 0 0 0 0 3 0 3 3 0 0 3 0 4 0 0 0 3 0 3 3 3 3 0 3 0 4 0 3
split_gain=437.71 58.6658 32.3555 12.7829 7.89277 5.16029 5.01452 4.24523 3.02913 2.2208 2.05663 1.64743 1.3815 1.36962 1.31176 1.29442 0.964568 0.951227 0.923271 0.937919 0.8804 0.867296 0.820803 1.46862 0.818037 0.5831 0.520716 0.498239 0.477777 0.40729
threshold=10.690000000000003 18.940000000000001 4.8400000000000007 23.300000000000001 15.145000000000001 3.2450000000000006 154.50000000000003 7.8900000000000015 118.50000000000001 100.50000000000001 27.655000000000005 21.320000000000004 164.50000000000003 9.7150000000000016 3.5000000000000004 14.205000000000002 1.8750000000000002 6.3750000000000009 190.50000000000003 18.225000000000005 242.50000000000003 134.50000000000003 124.50000000000001 94.500000000000014 25.260000000000002 258.50000000000006 3.7350000000000008 3.5000000000000004 11.955000000000002 323.50000000000006
decision_type=2 2 2 2 2 2 2 2 2 2 2 2 2 2 2 2 2 2 2 2 2 2 2 2 2 2 2 2 2 2
left_child=2 4 5 8 12 16 24 17 -3 -6 -8 -10 22 25 -13 28 -1 -4 19 21 -20 -11 23 27 -5 -9 -7 -2 -14 -28
right_child=1 3 7 6 9 26 10 13 11 18 -12 14 15 -15 -16 -17 -18 -19 20 -21 -22 -23 -24 -25 -26 -27 29 -29 -30 -31
leaf_value=-0.027982131369186172 0.013833089768886565 0.033053965264788043 -0.014553301945328712 0.040718462124466899 0.024421657238687788 -0.021742343582833806 0.027913615703582764 -0.0056051184856332837 0.019016260567049567 0.0099328489917451922 0.039602041706442832 0.021479061436839402 -0.0017996792246898015 -4.8184403351375037e-05 0.030370472973611735 0.0086182099208235736 -0.023966452878410534 -0.010086472236165187 0.0084373454993290475 0.021769544254057107 0.015978428213433787 0.018474863994866607 0.013953439635889872 0.0022557979437612717 0.049101587412032216 -0.011314812624319033 -0.018520155797064626 0.0073587476802058523 0.0033651904666330665 -0.01413179337978363
leaf_weight=99 23 26 90 20 21 36 42 60 78 23 20 32 27 35 28 32 118 82 38 20 22 20 21 31 22 22 92 20 40 24
leaf_count=99 23 26 90 20 21 36 42 60 78 23 20 32 27 35 28 32 118 82 38 20 22 20 21 31 22 22 92 20 40 24
internal_value=-8.73529e-12 0.0183957 -0.016942 0.0288783 0.0100841 -0.0228293 0.0371059 -0.00942494 0.0236608 0.0154052 0.0316841 0.0218911 0.00613447 -0.00501641 0.0256284 0.00365454 -0.0257985 -0.0124238 0.0138658 0.0164023 0.0112024 0.0139059 0.00871882 0.00723332 0.0451096 -0.00713699 -0.0185904 0.0108218 0.00128383 -0.0176122
internal_weight=1264 606 658 268 338 369 104 289 164 144 62 138 194 117 60 99 217 172 123 63 60 43 95 74 42 82 152 43 67 116
internal_count=1264 606 658 268 338 369 104 289 164 144 62 138 194 117 60 99 217 172 123 63 60 43 95 74 42 82 152 43 67 116
is_linear=0
shrinkage=0.03


Tree=19
num_leaves=31
num_cat=0
split_feature=0 0 0 0 0 3 0 0 3 0 3 3 3 0 0 0 3 0 0 3 3 0 3 0 2 3 0 3 0 3
split_gain=411.841 55.1986 30.4433 12.0518 7.4263 5.54306 4.85896 4.00856 2.69493 2.4599 2.08955 1.35795 1.29985 1.27422 1.21792 0.896385 0.868706 0.882488 0.857927 0.828368 0.816039 0.785892 0.603859 0.554791 0.55411 0.504197 0.44954 0.419938 0.394932 0.383219
threshold=10.690000000000003 18.940000000000001 4.8400000000000007 25.055000000000003 15.145000000000001 118.50000000000001 3.1950000000000007 8.4350000000000005 153.50000000000003 21.320000000000004 100.50000000000001 161.50000000000003 164.50000000000003 6.6450000000000005 14.205000000000002 9.7150000000000016 190.50000000000003 18.225000000000005 1.6100000000000003 242.50000000000003 134.50000000000003 13.995000000000003 208.50000000000003 3.7350000000000008 8.5000000000000018 90.500000000000014 11.955000000000002 94.500000000000014 19.520000000000003 323.50000000000006
decision_type=2 2 2 2 2 2 2 2 2 2 2 2 2 2 2 2 2 2 2 2 2 2 2 2 2 2 2 2 2 2
left_child=2 4 6 5 12 -3 18 13 -5 28 -6 -11 21 -4 26 -9 17 20 -1 -18 -12 27 -13 -8 25 -15 -14 -2 -7 -25
right_child=1 3 7 8 10 9 23 15 -10 11 16 22 14 24 -16 -17 19 -19 -20 -21 -22 -23 -24 29 -26 -27 -28 -29 -30 -31
leaf_value=-0.027825100587947026 0.0090838435734174432 0.036172505638472012 -0.013751044632068702 0.047397407703101635 0.023689007099185672 0.015144720501873803 -0.02114374816417694 -0.0062567502747361472 0.034620455801486968 0.029931816271004767 0.0096348634528239125 0.02030857793831577 -0.001745688807633188 -0.0092139390370409406 0.0083596635761205105 -4.6738906630447934e-05 0.0081842251075431704 0.021116457832977175 -0.023767015333746519 0.015499075065282258 0.017920617939904331 0.013427652550691909 0.026709838530847005 -0.017964551293337971 -0.012068408410996198 -0.0035207253800971167 0.0032642346604261547 0.004522385096300722 0.019826212941409641 -0.013707839539274574
leaf_weight=70 39 31 105 24 21 23 41 52 39 39 23 36 27 42 32 35 38 20 142 22 20 22 21 92 34 21 40 34 55 24
leaf_count=70 39 31 105 24 21 23 41 52 39 39 23 36 27 42 32 35 38 20 142 22 20 22 21 92 34 21 40 34 55 24
internal_value=-9.56213e-12 0.0178439 -0.0164337 0.028012 0.00978159 0.0244852 -0.0221444 -0.00914219 0.0394879 0.022403 0.014943 0.0256183 0.00595043 -0.0114609 0.0035449 -0.00375847 0.0134498 0.0159102 -0.0251069 0.0108663 0.0134887 0.00845726 0.0226669 -0.0181441 -0.00898192 -0.0073162 0.00124531 0.00695933 0.0184458 -0.0170839
internal_weight=1264 606 658 268 338 205 369 289 63 174 144 96 194 202 99 87 123 63 212 60 43 95 57 157 97 63 67 73 78 116
internal_count=1264 606 658 268 338 205 369 289 63 174 144 96 194 202 99 87 123 63 212 60 43 95 57 157 97 63 67 73 78 116
is_linear=0
shrinkage=0.03


Tree=20
num_leaves=31
num_cat=0
split_feature=0 0 0 0 0 0 3 0 1 1 3 1 3 0 0 0 3 3 1 0 0 3 1 0 1 3 1 3 1 0
split_gain=387.501 51.9364 28.6441 11.4798 6.98741 4.57179 4.47957 3.77281 2.93472 2.76735 2.62851 2.4258 1.96606 1.86066 1.72717 1.16945 1.11602 1.10268 0.897978 0.98316 0.817117 0.785917 0.775595 0.710941 0.644357 1.00228 0.52574 0.523508 0.554472 0.493728
threshold=10.690000000000003 18.940000000000001 4.8400000000000007 23.300000000000001 15.145000000000001 3.1950000000000007 154.50000000000003 6.8850000000000007 15.65 15.050000000000002 118.50000000000001 19.650000000000002 100.50000000000001 27.655000000000005 9.7150000000000016 12.755000000000001 162.50000000000003 206.50000000000003 17.650000000000002 18.225000000000005 1.8750000000000002 157.50000000000003 8.7500000000000018 14.305000000000001 2.3500000000000001 52.500000000000007 5.6500000000000012 273.50000000000006 8.1500000000000004 21.320000000000004
decision_type=2 2 2 2 2 2 2 2 2 2 2 2 2 2 2 2 2 2 2 2 2 2 2 2 2 2 2 2 2 2
left_child=2 4 5 10 9 20 8 26 -5 15 -3 16 -6 -8 22 -2 29 -18 19 21 -1 -14 -9 -11 -7 -26 -4 -27 -29 -12
right_child=1 3 7 6 12 24 13 14 -10 23 11 -13 18 -15 -16 -17 17 -19 -20 -21 -22 -23 -24 -25 25 27 -28 28 -30 -31
leaf_value=-0.026343576239817069 0.0056536155678974147 0.030977170614955515 -0.0093363012200487518 0.034972251680764288 0.02297833672591618 -0.012838845290243626 0.026257777118257112 -0.0044745152100222185 0.050850521385669707 -0.00046794886753725052 0.019184693942806915 0.027968231231695222 0.0096531945342362355 0.037375367715954781 -4.5336858502456117e-05 0.011652417014337193 0.012114462395034291 0.020991918258368967 0.0088990718367345199 0.020304542237094471 -0.022610433337698993 0.016103571610634818 -0.0092346733159298974 0.0059130779450589964 -0.022031249225139618 -0.012958032156770619 -0.014031179103413192 -0.013864391695708037 -0.019888736927373842 0.025104648885982375
leaf_weight=99 58 26 28 22 21 22 42 48 20 55 32 31 34 20 35 59 34 20 34 21 113 34 86 22 45 26 92 20 44 21
leaf_count=99 58 26 28 22 21 22 42 48 20 55 32 31 34 20 35 59 34 20 34 21 113 34 86 22 45 26 92 20 44 21
internal_value=5.37408e-12 0.0173086 -0.0159407 0.0271716 0.00948814 -0.0214801 0.0349686 -0.00886793 0.0425333 0.00577192 0.0222272 0.0205786 0.0144947 0.0298441 -0.00597956 0.00867865 0.0184377 0.0154024 0.0130463 0.0146306 -0.0243537 0.0128784 -0.00752954 0.0013552 -0.0175998 -0.0183756 -0.0129357 -0.0165478 -0.0180061 0.0215303
internal_weight=1264 606 658 268 338 369 104 289 42 194 164 138 144 62 169 117 107 54 123 89 212 68 134 77 157 135 120 90 64 53
internal_count=1264 606 658 268 338 369 104 289 42 194 164 138 144 62 169 117 107 54 123 89 212 68 134 77 157 135 120 90 64 53
is_linear=0
shrinkage=0.03


Tree=21
num_leaves=31
num_cat=0
split_feature=0 0 0 0 0 0 3 0 1 1 3 1 3 0 0 3 0 3 4 4 1 0 0 0 3 3 3 3 3 3
split_gain=364.6 48.8669 26.9512 10.8013 6.57445 4.30217 4.21483 3.58467 2.76128 2.60676 2.47317 2.28243 1.84987 1.77848 1.14813 1.05006 1.04571 1.03751 0.885163 0.977349 0.844907 0.925055 0.81441 0.781982 0.739469 0.708106 1.35637 0.678133 0.868572 0.609521
threshold=10.690000000000003 18.940000000000001 4.8400000000000007 23.300000000000001 15.145000000000001 3.2450000000000006 154.50000000000003 8.4350000000000005 15.65 14.850000000000003 118.50000000000001 19.650000000000002 100.50000000000001 25.725000000000005 6.3750000000000009 162.50000000000003 13.995000000000003 206.50000000000003 1.5000000000000002 3.5000000000000004 17.650000000000002 18.225000000000005 1.8750000000000002 9.7150000000000016 157.50000000000003 124.50000000000001 94.500000000000014 244.50000000000003 290.50000000000006 92.500000000000014
decision_type=2 2 2 2 2 2 2 2 2 2 2 2 2 2 2 2 2 2 2 2 2 2 2 2 2 2 2 2 2 2
left_child=2 4 5 10 9 22 8 14 -5 16 -3 15 -6 -8 -4 -12 25 -17 -11 -20 21 24 -1 -9 -14 26 -2 29 -29 -16
right_child=1 3 7 6 12 -7 13 23 -10 18 11 -13 20 -15 27 17 -18 -19 19 -21 -22 -23 -24 -25 -26 -27 -28 28 -30 -31
leaf_value=-0.025553268925710155 0.0085863462237354641 0.030047856072107183 -0.013317665344725052 0.033923083435405385 0.022288986912795475 -0.016965254651784945 0.023528664330470149 -0.0058441862376191868 0.049325006425380701 -0.0036762595566158947 0.020884426279731513 0.027129184325496037 0.0093635987389065756 0.033711899600245732 -0.0087257180891322852 0.0117510284099947 0.013547440731365766 0.020362160774879158 0.0085602221810924146 0.00045715412949337748 0.008632099891410153 0.019695406402294922 -0.02186337242439642 -4.3976537883281711e-05 0.015620464427834924 0.011247782080899923 -0.00059930526529965189 -0.015700140731793866 -0.0071518456783960576 -0.0025109168551862237
leaf_weight=99 39 26 90 22 21 152 29 52 20 22 53 31 34 33 49 34 28 20 21 37 34 21 118 35 34 24 23 23 20 20
leaf_count=99 39 26 90 22 21 152 29 52 20 22 53 31 34 33 49 34 28 20 21 37 34 21 118 35 34 24 23 23 20 20
internal_value=1.72625e-11 0.0167893 -0.0154625 0.0263565 0.0092035 -0.0208357 0.0339195 -0.00860189 0.0412573 0.00559876 0.0215604 0.0199613 0.0140599 0.0289488 -0.0107946 0.0178846 0.00851192 0.0149403 0.00144752 0.00339102 0.0126549 0.0141917 -0.0235468 -0.00351077 0.012492 0.00687244 0.00517877 -0.00876713 -0.0117242 -0.00692433
internal_weight=1264 606 658 268 338 369 104 289 42 194 164 138 144 62 202 107 114 54 80 58 123 89 217 87 68 86 62 112 43 69
internal_count=1264 606 658 268 338 369 104 289 42 194 164 138 144 62 202 107 114 54 80 58 123 89 217 87 68 86 62 112 43 69
is_linear=0
shrinkage=0.03


Tree=22
num_leaves=31
num_cat=0
split_feature=0 0 0 0 0 0 2 1 0 0 2 1 1 0 0 2 4 4 1 2 4 4 0 0 1 1 4 0 1 1
split_gain=343.052 45.9789 25.3654 10.163 6.1859 5.50548 3.75529 2.45789 2.12391 1.6662 1.59507 2.02922 1.58844 1.58093 1.05639 1.04632 0.785676 1.00149 0.68562 0.591267 0.53984 0.488977 0.479456 0.464683 1.00958 0.45595 0.586206 0.4679 0.45245 0.419294
threshold=10.690000000000003 18.940000000000001 4.205000000000001 23.300000000000001 15.145000000000001 6.6450000000000005 5.5000000000000009 15.050000000000002 2.5250000000000004 9.7150000000000016 4.5000000000000009 19.650000000000002 15.050000000000002 27.655000000000005 12.755000000000001 6.5000000000000009 1.5000000000000002 3.5000000000000004 14.350000000000003 8.5000000000000018 2.5000000000000004 1.5000000000000002 3.7350000000000008 16.305000000000003 11.15 6.0500000000000007 4.5000000000000009 6.0700000000000012 13.750000000000002 6.7500000000000009
decision_type=2 2 2 2 2 2 2 2 2 2 2 2 2 2 2 2 2 2 2 2 2 2 2 2 2 2 2 2 2 2
left_child=2 4 8 10 7 25 -5 14 -1 19 -3 15 23 -8 20 18 -9 -18 -12 21 -2 -7 29 -6 -25 -4 27 -27 -21 -10
right_child=1 3 5 6 12 9 13 16 22 -11 11 -13 -14 -15 -16 -17 17 -19 -20 28 -22 -23 -24 24 -26 26 -28 -29 -30 -31
leaf_value=-0.023734289194053074 0.0087399643287062647 0.027434042909049564 -0.011127496267106594 0.04026149267187485 0.012979012174265725 -0.003184392014906431 0.025253982101143761 -0.0036802433883505203 -0.017622107634177573 -4.265721993786948e-05 0.017004394309861316 0.026315308576449752 0.010443178755952649 0.035258550005299705 0.010996563796395973 0.013684155472482626 0.0083034156748492804 1.6471113976357241e-05 0.023131001481125433 -0.0072339222458406129 0.0028634096308173063 -0.0075672905180337174 -0.016411396690572684 0.023554003578610719 0.014961816278519108 -0.016745617669075726 -0.010417267817258834 -0.011550751356873662 -0.012946068601449952 -0.021688699811697007
leaf_weight=159 24 28 53 39 21 36 44 21 39 35 35 31 71 21 59 39 21 35 31 26 34 63 52 20 32 71 25 20 24 55
leaf_count=159 24 28 53 39 21 36 44 21 39 35 35 31 71 21 59 39 21 35 31 26 34 63 52 20 32 71 25 20 24 55
internal_value=1.37295e-11 0.0162856 -0.0149986 0.0255658 0.00892739 -0.00952352 0.032902 0.0054308 -0.0213354 -0.00593292 0.0209136 0.0195711 0.0136381 0.0284862 0.00817019 0.01758 0.00126835 0.00312408 0.019882 -0.00731654 0.00529509 -0.00597351 -0.0187228 0.0167454 0.0182665 -0.0134328 -0.0144861 -0.0156039 -0.00997575 -0.0200015
internal_weight=1264 606 658 268 338 353 104 194 305 184 164 136 144 65 117 105 77 56 66 149 58 99 146 73 52 169 116 91 50 94
internal_count=1264 606 658 268 338 353 104 194 305 184 164 136 144 65 117 105 77 56 66 149 58 99 146 73 52 169 116 91 50 94
is_linear=0
shrinkage=0.03


Tree=23
num_leaves=31
num_cat=0
split_feature=0 0 0 0 0 3 0 0 1 1 0 3 3 0 1 0 0 1 0 3 4 4 0 3 1 4 3 3 1 1
split_gain=322.778 43.2615 23.9236 9.65578 5.82032 4.6124 3.81656 3.20022 2.77294 2.31263 2.00963 1.68166 1.08397 1.03889 1.03391 0.996568 0.996131 0.774399 0.79736 1.0043 0.739242 0.9423 0.680125 0.61319 0.590381 0.560628 0.54567 1.2815 0.494127 0.407455
threshold=10.690000000000003 18.940000000000001 4.8400000000000007 25.055000000000003 15.145000000000001 118.50000000000001 3.7350000000000008 8.4350000000000005 21.150000000000002 15.050000000000002 21.320000000000004 100.50000000000001 161.50000000000003 1.8750000000000002 18.150000000000002 13.995000000000003 6.3750000000000009 16.750000000000004 18.090000000000003 157.50000000000003 1.5000000000000002 3.5000000000000004 9.7150000000000016 258.50000000000006 11.350000000000003 3.5000000000000004 124.50000000000001 94.500000000000014 5.9500000000000011 3.1500000000000008
decision_type=2 2 2 2 2 2 2 2 2 2 2 2 2 2 2 2 2 2 2 2 2 2 2 2 2 2 2 2 2 2
left_child=2 4 6 5 9 -3 13 16 -5 15 -7 -6 -12 -1 -14 26 -4 18 19 -13 -11 -22 24 25 -9 -18 27 -2 -15 -8
right_child=1 3 7 8 11 10 29 22 -10 20 12 17 14 28 -16 -17 23 -19 -20 -21 21 -23 -24 -25 -26 -27 -28 -29 -30 -31
leaf_value=-0.024074642197652294 0.0081180534124947502 0.032303137411513631 -0.012506804691161961 0.030620306790141123 0.021075000395732266 0.016165867164157906 -0.01171301728338003 -0.0026039021414030212 0.043971735132592067 -0.003569836110941001 0.026502683582500769 0.0085207444085972379 0.014516380079090596 -0.017823116005294851 0.022982495964781656 0.012748161863278725 -0.0043870228272862733 0.0089640730196058893 0.018773596845567227 0.016963937862643174 0.008054313154092857 1.5976886830425685e-05 -4.1377745568752285e-05 -0.011305140090676454 -0.0090400512775649193 -0.0097058325645423688 0.0099836566721877226 -0.00081047328269999962 -0.021384380628168581 -0.016037155009888032
leaf_weight=99 39 31 90 42 21 78 25 29 21 21 39 32 20 54 37 29 42 49 21 21 21 35 35 39 23 31 26 23 100 91
leaf_count=99 39 31 90 42 21 78 25 29 21 21 39 32 20 54 37 29 42 49 21 21 21 35 35 39 23 31 26 23 100 91
internal_value=-1.22098e-11 0.0157971 -0.0145487 0.0247988 0.00865957 0.021642 -0.0196111 -0.00808488 0.0350708 0.00526788 0.0197427 0.0132289 0.0226488 -0.021677 0.0200119 0.00792509 -0.0101567 0.0118894 0.0138264 0.0118662 0.0012303 0.00303035 -0.00327451 -0.00826818 -0.00545066 -0.0066457 0.00633566 0.00480586 -0.0201356 -0.0151052
internal_weight=1264 606 658 268 338 205 369 289 63 194 174 144 96 253 57 117 202 123 74 53 77 56 87 112 52 73 88 62 154 116
internal_count=1264 606 658 268 338 205 369 289 63 194 174 144 96 253 57 117 202 123 74 53 77 56 87 112 52 73 88 62 154 116
is_linear=0
shrinkage=0.03


Tree=24
num_leaves=31
num_cat=0
split_feature=0 0 0 0 0 0 3 3 0 1 3 1 1 0 3 1 3 0 1 0 1 0 0 0 1 1 0 1 1 3
split_gain=303.701 40.7048 22.5137 9.1049 5.47797 3.7549 3.70754 3.58765 2.9077 2.54325 2.0511 1.89532 1.88443 1.50333 1.07973 1.29828 0.991647 0.977489 0.954253 0.92254 0.896691 0.901419 0.695904 0.63993 0.555489 0.464925 0.383112 0.373338 0.367447 0.557454
threshold=10.690000000000003 18.940000000000001 4.9200000000000008 23.300000000000001 14.205000000000002 3.7350000000000008 154.50000000000003 96.500000000000014 8.4350000000000005 15.65 114.50000000000001 12.050000000000002 19.650000000000002 27.655000000000005 162.50000000000003 14.350000000000003 206.50000000000003 1.8750000000000002 13.65 13.590000000000002 15.65 6.535000000000001 15.145000000000001 9.7150000000000016 11.350000000000003 5.9500000000000011 11.860000000000001 17.650000000000002 3.1500000000000008 46.500000000000007
decision_type=2 2 2 2 2 2 2 2 2 2 2 2 2 2 2 2 2 2 2 2 2 2 2 2 2 2 2 2 2 2
left_child=2 4 5 10 11 17 9 -6 20 -5 -3 26 14 -8 15 -12 -16 -1 -9 -13 21 -4 -20 24 -10 -19 -2 -24 -7 -30
right_child=1 3 8 6 7 28 13 18 23 -11 12 19 -14 -15 16 -17 -18 25 22 -21 -22 -23 27 -25 -26 -27 -28 -29 29 -31
leaf_value=-0.023352402990514581 0.0052763590589165682 0.02840636562023844 -0.011234081988764364 0.03084196483039043 0.023707209720276293 -0.011361626842617987 0.023112973566624402 0.013524049479040384 -0.0025257850785193772 0.045623304918408394 0.016014701561070977 -0.00090598852724814026 0.024911695561210263 0.03310616686195135 0.010383222902960636 0.025353894901594946 0.018801868643844501 -0.017288422497610253 0.0051476498348432976 0.0063843266038955855 -0.015469813243147326 -0.0069272360447898834 0.011849342435324454 -4.0136192526136123e-05 -0.0087688496352537823 -0.020742849160730839 0.01006296308218118 0.0077909190821297035 -0.019517624274544093 -0.014161678891188835
leaf_weight=99 27 21 86 22 20 25 42 56 29 20 37 61 31 20 34 21 20 54 34 21 22 89 51 35 23 100 34 34 23 73
leaf_count=99 27 21 86 22 20 25 42 56 29 20 37 61 31 20 34 21 20 54 34 21 22 89 51 35 23 100 34 34 23 73
internal_value=1.85482e-11 0.0153231 -0.0141122 0.0240548 0.00839978 -0.0189479 0.0309986 0.0116704 -0.00774411 0.0378807 0.0196515 0.00393992 0.0183658 0.0263366 0.016554 0.0193961 0.0135012 -0.0210267 0.0102947 0.000961043 -0.00976138 -0.00904374 0.00877502 -0.00317628 -0.00528714 -0.0195316 0.0079443 0.010226 -0.0146012 -0.0154449
internal_weight=1264 606 658 268 338 374 104 195 284 42 164 143 143 62 112 58 54 253 175 82 197 175 119 87 52 154 61 85 121 96
internal_count=1264 606 658 268 338 374 104 195 284 42 164 143 143 62 112 58 54 253 175 82 197 175 119 87 52 154 61 85 121 96
is_linear=0
shrinkage=0.03


Tree=25
num_leaves=31
num_cat=0
split_feature=0 0 0 0 0 3 0 0 1 1 0 3 1 3 0 0 0 4 4 3 3 3 0 0 3 1 1 1 3 3
split_gain=285.753 38.2991 21.1859 8.60916 5.15647 4.17683 3.40764 2.85706 2.58101 2.0838 1.83458 1.50637 1.0903 1.0229 0.866 0.85783 0.842949 0.737902 0.817635 0.719673 0.653474 1.19032 0.649409 0.645488 0.570338 0.548782 0.542756 0.526393 0.895926 0.466768
threshold=10.690000000000003 18.940000000000001 4.8400000000000007 25.055000000000003 15.145000000000001 118.50000000000001 3.1950000000000007 7.8900000000000015 21.150000000000002 14.850000000000003 20.600000000000005 190.50000000000003 19.650000000000002 167.50000000000003 9.7150000000000016 16.405000000000005 13.995000000000003 1.5000000000000002 3.5000000000000004 242.50000000000003 124.50000000000001 94.500000000000014 1.6100000000000003 6.0700000000000012 114.50000000000001 5.6500000000000012 11.350000000000003 2.3500000000000001 52.500000000000007 273.50000000000006
decision_type=2 2 2 2 2 2 2 2 2 2 2 2 2 2 2 2 2 2 2 2 2 2 2 2 2 2 2 2 2 2
left_child=2 4 6 5 9 -3 22 23 -5 16 -7 15 13 -12 26 -6 20 -11 -19 -13 21 -2 -1 25 -17 -4 -9 -8 -29 -30
right_child=1 3 7 8 11 10 27 14 -10 17 12 19 -14 -15 -16 24 -18 18 -20 -21 -22 -23 -24 -25 -26 -27 -28 28 29 -31
leaf_value=-0.023298601921115603 0.007653166143080363 0.0304976462020028 -0.0080412415361830157 0.028738814818539789 0.010513889230071351 0.014013806915926661 -0.010799615648998456 -0.0035695155149206835 0.041619883041296685 -0.003434375783597881 0.021630648196373573 0.0063181934755687655 0.025374023179756476 0.015025822303723544 -3.8932206375258306e-05 0.020372091971624356 0.012081028077185953 0.0077463160668100623 0.00033484318079678589 0.013136261147870259 0.010291165858507156 -0.00095188147023968076 -0.019767947847574529 -0.0084502527640998061 0.014390181954295258 -0.013756625519858465 -0.0085040662618620054 -0.019260220249493917 -0.010686198856968145 -0.015452884914411697
leaf_weight=70 39 31 21 42 26 55 22 47 21 22 51 38 32 36 35 26 28 21 37 22 24 23 142 97 32 54 35 45 26 64
leaf_count=70 39 31 21 42 26 55 22 47 21 22 51 38 32 36 35 26 28 21 37 22 24 23 142 97 32 54 35 45 26 64
internal_value=1.57382e-11 0.0148634 -0.0136888 0.0233332 0.00814779 0.0203524 -0.0184528 -0.00760613 0.0330325 0.00495537 0.0185449 0.0124487 0.0206392 0.0188976 -0.00398951 0.0150419 0.00755997 0.00124382 0.00301831 0.00881815 0.006088 0.00446097 -0.0209337 -0.0100663 0.0170717 -0.0121563 -0.00567573 -0.0151027 -0.015804 -0.0140758
internal_weight=1264 606 658 268 338 205 369 289 63 194 174 144 119 87 117 84 114 80 58 60 86 62 212 172 58 75 82 157 135 90
internal_count=1264 606 658 268 338 205 369 289 63 194 174 144 119 87 117 84 114 80 58 60 86 62 212 172 58 75 82 157 135 90
is_linear=0
shrinkage=0.03


Tree=26
num_leaves=31
num_cat=0
split_feature=0 0 0 0 0 0 2 1 1 0 0 0 2 1 0 2 0 0 1 1 4 4 4 1 4 0 1 1 2 0
split_gain=268.865 36.0357 19.9437 8.16235 4.89141 4.35115 3.26417 2.32761 1.74016 1.70267 1.25725 1.18251 1.14574 1.71377 0.954194 1.13736 0.852599 0.658229 1.03494 0.637665 0.568598 0.495574 0.477551 0.457319 0.455599 0.434948 0.686668 0.402917 0.536164 0.366719
threshold=10.690000000000003 18.940000000000001 4.205000000000001 23.300000000000001 14.205000000000002 6.8850000000000007 5.5000000000000009 13.65 12.050000000000002 2.5250000000000004 27.655000000000005 9.7150000000000016 4.5000000000000009 19.650000000000002 19.685000000000006 6.5000000000000009 13.590000000000002 16.655000000000005 17.650000000000002 8.6500000000000004 3.5000000000000004 1.5000000000000002 2.5000000000000004 10.550000000000002 4.5000000000000009 16.305000000000003 11.15 6.7500000000000009 10.500000000000002 11.860000000000001
decision_type=2 2 2 2 2 2 2 2 2 2 2 2 2 2 2 2 2 2 2 2 2 2 2 2 2 2 2 2 2 2
left_child=2 4 9 12 8 22 -5 25 29 -1 -8 19 -3 14 -14 20 -10 24 -19 -7 -16 -21 23 -4 -9 -6 -27 28 -11 -2
right_child=1 3 5 6 7 11 10 17 16 27 -12 -13 13 -15 15 -17 -18 18 -20 21 -22 -23 -24 -25 -26 26 -28 -29 -30 -31
leaf_value=-0.021044928175660796 0.0049157612770795826 0.023990237939038449 -0.01170040757237178 0.036069198843951406 0.012630996106822482 -0.0034148463743560492 0.022208458548411726 0.0080990963721146378 -0.00096018404165496582 -0.01670591438455241 0.031130270063877103 -3.7764184176921841e-05 0.0099415059561248527 0.023524055566278197 0.016888415456051006 0.012046811918595007 0.0060483306227251885 0.01418847081336108 0.0062686507652203235 -0.0039746095361592971 0.023072372363961261 -0.0091089095854476904 -0.010260060240053435 -0.016440166980028151 0.0026182683610490387 0.021198520682752131 0.01343136366456747 -0.017930914651019026 -0.010834998467138836 0.0095988437130718543
leaf_weight=159 27 28 53 39 34 47 44 39 61 42 21 35 22 31 32 28 21 33 27 23 23 64 103 28 21 20 21 83 21 34
leaf_count=159 27 28 53 39 34 47 44 39 61 42 21 35 22 31 32 28 21 33 27 23 23 64 103 28 21 20 21 83 21 34
internal_value=-1.59924e-11 0.0144175 -0.0132782 0.0226332 0.00790336 -0.00842334 0.0292078 0.0109939 0.00368902 -0.018897 0.0250909 -0.00494796 0.018464 0.0173262 0.0154964 0.0169687 0.000834679 0.00840268 0.0106246 -0.00623048 0.0194744 -0.00775157 -0.0116154 -0.0133388 0.00618081 0.0151398 0.0172202 -0.0165579 -0.0147489 0.007526
internal_weight=1264 606 658 268 338 353 104 195 143 305 65 169 164 136 105 83 82 120 60 134 55 87 184 81 60 75 41 146 63 61
internal_count=1264 606 658 268 338 353 104 195 143 305 65 169 164 136 105 83 82 120 60 134 55 87 184 81 60 75 41 146 63 61
is_linear=0
shrinkage=0.03


Tree=27
num_leaves=31
num_cat=0
split_feature=0 0 0 0 0 3 0 3 0 3 0 3 0 0 3 3 0 3 0 3 3 3 4 0 4 4 3 3 3 3
split_gain=252.975 33.9126 18.8311 7.9886 4.88992 4.87214 3.15292 2.45699 2.44973 1.94605 1.09651 0.909473 1.11563 0.831712 0.799825 1.01209 0.738134 0.593663 0.590719 0.576448 0.550061 0.971096 0.593527 0.519791 0.469682 0.357273 0.327534 0.473462 0.577545 0.713998
threshold=10.690000000000003 20.600000000000005 4.9200000000000008 15.145000000000001 25.055000000000003 96.500000000000014 3.7350000000000008 137.50000000000003 8.4350000000000005 153.50000000000003 18.225000000000005 94.500000000000014 13.590000000000002 1.8750000000000002 125.50000000000001 190.50000000000003 6.0700000000000012 242.50000000000003 22.530000000000005 162.50000000000003 256.50000000000006 290.50000000000006 3.5000000000000004 9.7150000000000016 3.5000000000000004 5.5000000000000009 323.50000000000006 273.50000000000006 52.500000000000007 20.500000000000004
decision_type=2 2 2 2 2 2 2 2 2 2 2 2 2 2 2 2 2 2 2 2 2 2 2 2 2 2 2 2 2 2
left_child=2 3 6 11 7 -5 13 -3 16 -6 14 24 -13 -1 -7 -16 -4 -17 -9 -12 22 -22 -18 -10 -2 -15 27 28 29 -8
right_child=1 4 8 5 9 10 26 18 23 -11 19 12 -14 25 15 17 20 -19 -20 -21 21 -23 -24 -25 -26 -27 -28 -29 -30 -31
leaf_value=-0.021352551687847485 0.011432458569255212 0.027811050487416132 -0.011380887193871396 0.026098553353677625 0.037855569220264444 0.0041962812468409535 -0.01105821383609013 0.01602351405471563 -0.0047655232906198275 0.026998051555397418 0.01602992466826714 0.0011662202756162041 0.0063372597948514985 -0.017207250099056041 0.015775476427661486 0.0056116782203316689 -0.003886291115207875 0.012284360739402473 0.020697424651457453 0.011404317996930331 -0.014919975250959396 -0.0059970956712799232 -0.0090052343299612397 -3.6631190351077486e-05 0.0051464000618434503 -0.021191114000976084 -0.010181454806588589 -0.017305192713593615 -0.0091010108023881903 -0.018791837521961757
leaf_weight=99 23 35 70 23 24 22 22 45 52 39 49 81 70 130 24 30 47 20 53 48 21 23 36 35 20 24 24 29 25 21
leaf_count=99 23 35 70 23 24 22 22 45 52 39 49 81 70 130 24 30 47 20 53 48 21 23 36 35 20 24 24 29 25 21
internal_value=-5.52604e-13 0.013985 -0.0128798 0.00907818 0.0242493 0.0130468 -0.0173023 0.020988 -0.0070558 0.0311342 0.0114914 0.00465952 0.00356339 -0.0192072 0.00921841 0.0107115 -0.00890741 0.00828075 0.0185512 0.013741 -0.00754407 -0.0102557 -0.00610656 -0.0028631 0.00850871 -0.0178281 -0.0133193 -0.0140957 -0.012727 -0.0148351
internal_weight=1264 606 658 410 196 216 374 133 284 63 193 194 151 253 96 74 197 50 98 97 127 44 83 87 43 154 121 97 68 43
internal_count=1264 606 658 410 196 216 374 133 284 63 193 194 151 253 96 74 197 50 98 97 127 44 83 87 43 154 121 97 68 43
is_linear=0
shrinkage=0.03


Tree=28
num_leaves=31
num_cat=0
split_feature=0 0 0 0 0 0 3 0 3 3 0 3 3 0 3 3 3 3 3 3 3 0 3 3 0 4 0 3 3 4
split_gain=238.178 27.8024 22.7489 5.39739 4.95381 4.60093 4.5842 2.72109 2.31179 1.83104 1.0317 0.831918 0.93595 0.782558 0.752555 0.952274 0.716862 1.22924 0.566342 0.646394 0.558577 0.555807 0.54238 0.449534 0.599748 0.437949 0.400046 0.33738 0.50597 0.336158
threshold=11.560000000000002 20.600000000000005 6.0700000000000012 15.145000000000001 3.7350000000000008 25.055000000000003 96.500000000000014 9.7150000000000016 137.50000000000003 153.50000000000003 18.225000000000005 94.500000000000014 260.50000000000006 1.8750000000000002 125.50000000000001 190.50000000000003 256.50000000000006 290.50000000000006 316.50000000000006 301.50000000000006 242.50000000000003 22.530000000000005 162.50000000000003 136.50000000000003 14.205000000000002 1.5000000000000002 7.4200000000000008 112.50000000000001 252.50000000000003 5.5000000000000009
decision_type=2 2 2 2 2 2 2 2 2 2 2 2 2 2 2 2 2 2 2 2 2 2 2 2 2 2 2 2 2 2
left_child=2 3 4 11 13 8 -5 16 -3 -7 14 -2 23 -1 -8 -16 25 -18 19 -6 -17 -10 -12 -13 -25 -4 -27 -9 -29 -15
right_child=1 5 7 6 18 9 10 27 21 -11 22 12 -14 29 15 20 17 -19 -20 -21 -22 -23 -24 24 -26 26 -28 28 -30 -31
leaf_value=-0.02071197535052444 0.0096788405817642333 0.026976718962192534 -0.0026878437090937682 0.025315597412054951 -0.012296607715543358 0.036719902623444794 0.0040703929097137669 -0.0019431253835078207 0.015542808594803014 0.026188109916849778 0.015549026888186986 0.0059216498743210515 0.010214714912697672 -0.016691032449070078 0.01530221231863834 0.00544332796393428 -0.013219940786948428 -0.0045281479166199767 -0.0090056179750424153 -0.018084089253097773 0.011915829925099387 0.020076501709343164 0.01106218843953684 -0.00073017599777533458 0.0048113255674252283 -0.009165660014315959 -0.0047935780812986195 0.0056005901098251341 -0.0011475430950522423 -0.020555380545556542
leaf_weight=99 32 35 41 23 132 24 22 31 45 39 49 35 20 130 24 30 32 27 39 20 20 53 48 39 32 31 48 20 20 24
leaf_count=99 32 35 41 23 132 24 22 31 45 39 49 35 20 130 24 30 32 27 39 20 20 53 48 39 32 31 48 20 20 24
internal_value=4.74135e-12 0.0143695 -0.011802 0.00957306 -0.0158777 0.0235218 0.0126554 -0.00456361 0.0203584 0.0302002 0.0111467 0.00535924 0.0042622 -0.018631 0.00894186 0.0103901 -0.00653479 -0.00924234 -0.0122306 -0.0130581 0.00803233 0.0179947 0.0133287 0.00313909 0.0017674 -0.00520357 -0.00650921 0.000405973 0.00222652 -0.0172933
internal_weight=1264 570 694 374 444 196 216 250 133 63 193 158 126 253 96 74 179 59 191 152 50 98 97 106 71 120 79 71 40 154
internal_count=1264 570 694 374 444 196 216 250 133 63 193 158 126 253 96 74 179 59 191 152 50 98 97 106 71 120 79 71 40 154
is_linear=0
shrinkage=0.03


Tree=29
num_leaves=31
num_cat=0
split_feature=0 0 0 0 1 0 3 3 0 1 0 0 0 1 3 1 0 3 3 1 3 3 1 2 1 3 3 1 1 3
split_gain=224.102 26.1593 21.4045 5.0784 5.06077 4.66104 4.31327 3.90814 2.56027 1.66377 1.39391 0.970729 0.949942 0.888643 0.876094 0.90527 0.746182 0.708079 0.895995 0.741556 0.674495 1.1566 0.577305 0.512632 0.94774 0.478259 0.429982 0.688622 0.427494 1.22621
threshold=11.560000000000002 20.600000000000005 6.0700000000000012 15.145000000000001 22.500000000000004 3.7350000000000008 96.500000000000014 137.50000000000003 9.7150000000000016 13.450000000000001 23.300000000000001 18.225000000000005 13.045000000000002 16.050000000000004 167.50000000000003 18.850000000000005 1.6100000000000003 125.50000000000001 190.50000000000003 17.050000000000004 256.50000000000006 290.50000000000006 3.1500000000000008 6.5000000000000009 12.750000000000002 316.50000000000006 301.50000000000006 9.4500000000000011 15.050000000000002 112.50000000000001
decision_type=2 2 2 2 2 2 2 2 2 2 2 2 2 2 2 2 2 2 2 2 2 2 2 2 2 2 2 2 2 2
left_child=2 3 5 9 7 16 -5 10 20 12 -3 17 -2 -9 -15 -16 -1 -8 -19 -20 -4 -22 -7 24 -13 26 27 -24 29 -10
right_child=1 4 8 6 -6 22 11 13 28 -11 -12 23 -14 14 15 -17 -18 18 19 -21 21 -23 25 -25 -26 -27 -28 -29 -30 -31
leaf_value=-0.020706360576408248 0.0048168827449394892 0.023277463006544048 -0.0050474660759791731 0.024556129249217719 0.035721242316067221 -0.0086076318479787837 0.0039482809768312359 0.0145201920488706 -0.0018848316371440886 0.002381665709233561 0.033722000944873563 0.010462821200848198 0.011732751121028112 0.024581174957610738 0.014036968507404837 0.021370940926400097 -0.017064449252621804 0.014843146004714071 0.012265954017871991 0.0048082953523844478 -0.012823342494084499 -0.0043923033432414129 -0.015260155277699233 0.010269251323949832 0.018173955674283204 -0.0092335228159509848 -0.017541566401720044 -0.010352124851548447 -0.0033235022909939289 0.0076429580021649592
leaf_weight=70 33 23 120 23 24 39 22 39 31 86 23 26 39 26 28 33 183 24 20 30 32 27 50 39 32 29 20 53 20 20
leaf_count=70 33 23 120 23 24 39 22 39 31 86 23 26 39 26 28 33 183 24 20 30 32 27 50 39 32 29 20 53 20 20
internal_value=-7.15346e-12 0.0139384 -0.011448 0.00928587 0.0228162 -0.0154014 0.0122757 0.0210155 -0.0044267 0.00519847 0.0284997 0.0108123 0.00856298 0.0182831 0.01997 0.0180045 -0.0180721 0.0086736 0.0100784 0.00779136 -0.00633874 -0.00896507 -0.0118637 0.0129289 0.0147172 -0.0126992 -0.0135163 -0.0127347 0.000393793 0.00185156
internal_weight=1264 570 694 374 196 444 216 172 250 158 46 193 72 126 87 61 253 96 74 50 179 59 191 97 58 152 123 103 71 51
internal_count=1264 570 694 374 196 444 216 172 250 158 46 193 72 126 87 61 253 96 74 50 179 59 191 97 58 152 123 103 71 51
is_linear=0
shrinkage=0.03


Tree=30
num_leaves=31
num_cat=0
split_feature=0 0 0 0 0 0 3 0 3 3 0 3 3 0 3 3 3 3 3 0 3 3 3 3 3 4 3 0 0 4
split_gain=210.858 24.6133 20.1395 4.77827 4.38558 4.20629 4.05836 2.40896 2.06473 1.66511 0.913359 0.753395 0.871278 0.70808 0.666232 0.843041 0.634632 1.08824 0.510074 0.507194 0.504731 0.583945 0.489665 0.483704 0.496786 0.412066 0.392635 0.561412 0.376403 0.346278
threshold=11.560000000000002 20.600000000000005 6.0700000000000012 15.145000000000001 3.7350000000000008 25.055000000000003 96.500000000000014 9.7150000000000016 137.50000000000003 153.50000000000003 18.225000000000005 94.500000000000014 260.50000000000006 1.9600000000000002 125.50000000000001 190.50000000000003 256.50000000000006 290.50000000000006 242.50000000000003 22.530000000000005 316.50000000000006 290.50000000000006 162.50000000000003 76.500000000000014 26.500000000000004 1.5000000000000002 136.50000000000003 14.205000000000002 7.4200000000000008 5.5000000000000009
decision_type=2 2 2 2 2 2 2 2 2 2 2 2 2 2 2 2 2 2 2 2 2 2 2 2 2 2 2 2 2 2
left_child=2 3 4 11 13 8 -5 16 -3 -7 14 -2 26 -1 -8 -16 25 -18 -17 -10 21 23 -12 24 -6 -4 -13 -28 -27 -15
right_child=1 5 7 6 20 9 10 -9 19 -11 22 12 -14 29 15 18 17 -19 -20 -21 -22 -23 -24 -25 -26 28 27 -29 -30 -31
leaf_value=-0.019325014497782733 0.0091531980538275097 0.025361663784831762 -0.0024557844054226468 0.023819445348952126 -0.0097578266854523813 0.034734514579176902 0.0038298327446153213 0.00038197963642822182 0.01453092294683059 0.024691236913204191 0.014650643919974718 0.0055154182724654671 0.0097417051568627362 -0.015475431470466513 0.014397851289249957 0.0050835755094885823 -0.012438642231572884 -0.0042605342144250045 0.011268681743647903 0.018861814901443584 -0.0084632582733264339 -0.016038753962144256 0.010387420224287781 -0.0080589153021574014 -0.014253738741305741 -0.0087392661979632264 -0.00078346722401105432 0.0045780026220018045 -0.0044983468169812113 -0.019496491927167646
leaf_weight=111 32 35 41 23 37 24 22 71 45 39 49 35 20 119 24 30 32 27 20 53 39 30 48 30 55 31 39 32 48 23
leaf_count=111 32 35 41 23 37 24 22 71 45 39 49 35 20 119 24 30 32 27 20 53 39 30 48 30 55 31 39 32 48 23
internal_value=-1.10687e-11 0.0135202 -0.0111045 0.00900729 -0.0149393 0.0221317 0.0119075 -0.0042939 0.019107 0.0285172 0.0104879 0.00504251 0.00399853 -0.0175299 0.00841339 0.00977607 -0.00614858 -0.00869612 0.00755762 0.0168731 -0.0115078 -0.012289 0.012541 -0.0113669 -0.0124456 -0.00489604 0.00291491 0.00163297 -0.00616251 -0.0161267
internal_weight=1264 570 694 374 444 196 216 250 133 63 193 158 126 253 96 74 179 59 50 98 191 152 97 122 92 120 106 71 79 142
internal_count=1264 570 694 374 444 196 216 250 133 63 193 158 126 253 96 74 179 59 50 98 191 152 97 122 92 120 106 71 79 142
is_linear=0
shrinkage=0.03


Tree=31
num_leaves=31
num_cat=0
split_feature=0 0 0 1 0 0 2 0 1 2 0 1 1 0 0 0 1 2 1 1 0 1 1 4 1 4 1 1 0 1
split_gain=198.396 23.1586 18.9511 4.70977 4.49587 3.99667 2.84448 2.35108 1.49665 1.3782 1.01389 1.04675 1.47424 0.910085 0.89443 0.672801 0.583539 0.564061 0.546981 0.522313 0.669383 0.735325 0.492825 0.46638 0.443824 0.408917 0.405044 0.345558 1.06474 0.296404
threshold=11.560000000000002 20.600000000000005 5.995000000000001 22.500000000000004 15.145000000000001 3.7350000000000008 4.5000000000000009 9.7150000000000016 13.450000000000001 6.5000000000000009 16.405000000000005 10.15 14.450000000000001 25.725000000000005 13.045000000000002 1.6100000000000003 12.250000000000002 8.5000000000000018 3.1500000000000008 19.650000000000002 22.530000000000005 14.950000000000001 13.850000000000003 4.5000000000000009 16.550000000000004 1.5000000000000002 11.65 16.750000000000004 19.150000000000002 5.9500000000000011
decision_type=2 2 2 2 2 2 2 2 2 2 2 2 2 2 2 2 2 2 2 2 2 2 2 2 2 2 2 2 2 2
left_child=2 4 5 6 8 15 -3 17 14 10 -6 -12 16 19 -2 -1 -13 25 -7 20 21 -8 -19 -20 -22 -4 -9 -11 -29 -17
right_child=1 3 7 -5 9 18 13 26 -10 27 11 12 -14 -15 -16 29 -18 22 23 -21 24 -23 -24 -25 -26 -27 -28 28 -30 -31
leaf_value=-0.019505419205342017 0.004447312737730416 0.030366292835678904 -0.0022910223034425421 0.033917238684371118 0.0083477313515658569 -0.0080527927203533738 0.017346247997134922 0.0025426297211969219 0.0022196457249134085 0.011778089330345392 0.020948593712278772 0.013816858930885792 0.01937919275164604 0.022423672764687923 0.011158066211411587 -0.014318536873208358 0.0074561451867015821 -0.0062022316354829474 -0.012940598831147601 0.020850549826025962 0.015484287422150373 0.0093982222811742257 -0.011482140384614467 -0.0088458613741386211 0.021253758195380213 -0.0060533126361238272 -0.0019932459240012308 0.0050898002055676092 0.01324231262385313 -0.016890476018917269
leaf_weight=70 33 20 39 24 26 39 20 37 86 25 21 25 25 37 39 60 27 41 115 25 24 22 26 32 24 78 34 46 21 123
leaf_count=70 33 20 39 24 26 39 20 37 86 25 21 25 25 37 39 60 27 41 115 25 24 22 26 32 24 78 34 46 21 123
internal_value=-8.70007e-12 0.0131146 -0.0107714 0.0214677 0.00873707 -0.0145497 0.0197306 -0.00426678 0.00489124 0.0115502 0.0136143 0.0150116 0.0133924 0.0183312 0.0080823 -0.017004 0.0105142 -0.00605617 -0.0112113 0.0170145 0.0159489 0.013183 -0.00825115 -0.0120492 0.018369 -0.00479922 0.00037052 0.00876817 0.00764507 -0.0160472
internal_weight=1264 570 694 196 374 439 172 255 158 216 124 98 77 152 72 253 52 184 186 115 90 42 67 147 48 117 71 92 67 183
internal_count=1264 570 694 196 374 439 172 255 158 216 124 98 77 152 72 253 52 184 186 115 90 42 67 147 48 117 71 92 67 183
is_linear=0
shrinkage=0.03


Tree=32
num_leaves=31
num_cat=0
split_feature=1 3 3 3 1 3 3 3 1 3 3 1 1 3 1 1 3 1 1 1 1 4 1 3 1 4 3 3 2 1
split_gain=71.3589 31.0122 19.1431 39.0479 12.4909 8.02388 5.25753 4.32612 4.92018 3.13389 2.90026 2.85003 3.94855 2.09278 2.29794 1.4354 1.23914 1.60873 1.18936 1.09185 1.01971 0.89753 0.885947 0.860758 0.802427 0.79178 0.780883 0.660511 0.615965 0.539115
threshold=12.850000000000003 248.50000000000003 302.50000000000006 72.500000000000014 22.500000000000004 272.50000000000006 52.500000000000007 190.50000000000003 20.300000000000001 124.50000000000001 281.50000000000006 14.250000000000002 13.550000000000002 167.50000000000003 16.150000000000002 16.450000000000003 88.500000000000014 8.4500000000000011 11.950000000000001 6.7500000000000009 5.6500000000000012 3.5000000000000004 18.050000000000004 268.50000000000006 14.950000000000001 4.5000000000000009 232.50000000000003 224.50000000000003 11.500000000000002 7.5500000000000007
decision_type=2 2 2 2 2 2 2 2 2 2 2 2 2 2 2 2 2 2 2 2 2 2 2 2 2 2 2 2 2 2
left_child=2 4 3 6 7 9 19 11 22 16 15 12 -2 14 24 23 29 -18 -11 -1 28 -15 26 -3 -13 27 -9 -24 -4 -5
right_child=1 10 20 5 -6 -7 -8 8 -10 18 -12 13 -14 21 -16 -17 17 -19 -20 -21 -22 -23 25 -25 -26 -27 -28 -29 -30 -31
leaf_value=-0.011617661148267917 0.014294129060245513 0.0053431900014931505 -0.0068056520500353402 0.005886136896908283 0.032807652430236339 -0.0061523126876361816 -0.0044728813158581033 0.00088112536221742626 0.020837926513382364 0.017466037571313792 -0.013348075538392989 0.018538508005440234 -0.00097898775190114959 0.014510883719970781 0.023744747222639445 -0.0068061972541832612 0.00034013736061751844 0.009170995915461921 0.0086995711555489554 -0.016012813104937476 -0.015782479766310878 0.0071116042546927926 0.0091053254894264361 -0.0031481246889701908 0.011178901363164186 0.012495166808366775 0.0071385787653603719 0.0018343556079674851 -0.014162073221057652 -9.822666911142213e-05
leaf_weight=117 39 22 21 20 25 49 80 50 21 30 31 24 25 36 43 38 24 82 26 90 138 25 23 21 30 22 28 22 20 42
leaf_count=117 39 22 21 20 25 49 80 50 21 30 31 24 25 36 43 38 24 82 26 90 138 25 23 21 30 22 28 22 20 42
internal_value=-8.61372e-13 0.00845696 -0.00600799 -0.00327815 0.012254 0.00484428 -0.0110044 0.0109296 0.00726629 0.00724979 -0.00554452 0.0136689 0.00832807 0.0158323 0.0185703 -0.00255797 0.00520108 0.00717156 0.0133959 -0.0135286 -0.0145483 0.0114784 0.00530075 0.00119627 0.0144498 0.00783093 0.00312739 0.00555063 -0.0103942 0.00183221
internal_weight=1264 525 739 560 413 273 287 388 166 224 112 222 64 158 97 81 168 106 56 207 179 61 145 43 54 67 78 45 41 62
internal_count=1264 525 739 560 413 273 287 388 166 224 112 222 64 158 97 81 168 106 56 207 179 61 145 43 54 67 78 45 41 62
is_linear=0
shrinkage=0.03


Tree=33
num_leaves=31
num_cat=0
split_feature=1 3 3 3 1 3 3 3 1 3 3 1 1 3 1 1 3 3 1 3 1 1 1 4 1 1 3 4 3 2
split_gain=67.1415 29.1794 18.0118 36.7402 11.7527 7.54967 4.94681 4.07045 4.6294 2.94868 2.74677 2.68159 3.71519 1.9691 2.16213 1.86769 1.16591 1.56433 1.67423 1.49364 1.11907 1.03032 0.959443 0.844486 0.833587 0.755003 0.747081 0.744986 0.621475 0.579562
threshold=12.850000000000003 248.50000000000003 302.50000000000006 72.500000000000014 22.500000000000004 272.50000000000006 52.500000000000007 190.50000000000003 20.300000000000001 124.50000000000001 273.50000000000006 14.250000000000002 13.550000000000002 167.50000000000003 16.150000000000002 16.450000000000003 88.500000000000014 114.50000000000001 8.7500000000000018 106.50000000000001 11.950000000000001 1.8500000000000003 5.6500000000000012 3.5000000000000004 18.050000000000004 14.950000000000001 216.50000000000003 4.5000000000000009 224.50000000000003 11.500000000000002
decision_type=2 2 2 2 2 2 2 2 2 2 2 2 2 2 2 2 2 2 2 2 2 2 2 2 2 2 2 2 2 2
left_child=2 4 3 6 7 9 21 11 24 16 15 12 -2 14 25 -3 -5 18 -18 -20 -11 -1 29 -15 26 -13 -9 28 -26 -4
right_child=1 10 22 5 -6 -7 -8 8 -10 20 -12 13 -14 23 -16 -17 17 -19 19 -21 -22 -23 -24 -25 27 -27 -28 -29 -30 -31
leaf_value=-0.0080796485120851191 0.013865305279883054 0.0043952195140822175 -0.0066014824169022693 0.001777246769878172 0.031823423442989586 -0.0059677434378132528 -0.0043386949702871784 -0.00030641711755272219 0.020212788749735668 0.016942056218162176 -0.010609777457127347 0.01798235282069072 -0.00094961813986301413 0.014075557229419548 0.023032404623579146 -0.0060402783666822042 0.0017862660243459371 -0.00060088355094194406 0.0080927416138610857 0.018016253963112829 0.0084385837344094546 -0.014011010474271394 -0.015309005383498279 0.00689825613386929 0.0088321657203461797 0.010843534258659929 0.005614467322064394 0.012120311903682622 0.0017793248475275255 -0.013737210961058736
leaf_weight=31 39 29 21 62 25 49 80 34 21 30 50 24 25 36 43 33 23 20 43 20 26 176 138 25 23 30 44 22 22 20
leaf_count=31 39 29 21 62 25 49 80 34 21 30 50 24 25 36 43 33 23 20 43 20 26 176 138 25 23 30 44 22 22 20
internal_value=-1.53603e-11 0.00820325 -0.00582775 -0.0031798 0.0118864 0.00469895 -0.0106742 0.0106017 0.00704831 0.00703229 -0.00537818 0.0132588 0.00807823 0.0153573 0.0180132 -0.00115916 0.00504505 0.00695641 0.00871392 0.0112431 0.012994 -0.0131227 -0.0141118 0.011134 0.00514173 0.0140163 0.00303357 0.007596 0.00538411 -0.0100823
internal_weight=1264 525 739 560 413 273 287 388 166 224 112 222 64 158 97 62 168 106 86 63 56 207 179 61 145 54 78 67 45 41
internal_count=1264 525 739 560 413 273 287 388 166 224 112 222 64 158 97 62 168 106 86 63 56 207 179 61 145 54 78 67 45 41
is_linear=0
shrinkage=0.03


Tree=34
num_leaves=31
num_cat=0
split_feature=0 0 0 0 3 0 0 0 3 3 0 3 3 3 3 0 3 4 0 0 3 0 2 3 3 3 0 3 3 3
split_gain=169.326 19.88 15.7959 3.98003 3.83304 3.5517 2.91001 2.08397 1.90221 1.56316 0.787231 0.787043 0.925863 0.604113 0.651163 0.540738 0.490439 0.470639 0.445468 0.443459 0.401024 0.390518 0.362232 0.648955 0.416103 0.338071 0.517329 0.336089 0.496946 0.484752
threshold=11.560000000000002 20.600000000000005 4.8400000000000007 15.145000000000001 96.500000000000014 25.055000000000003 8.4350000000000005 3.1950000000000007 137.50000000000003 153.50000000000003 18.225000000000005 94.500000000000014 260.50000000000006 125.50000000000001 190.50000000000003 9.7150000000000016 242.50000000000003 3.5000000000000004 6.3750000000000009 1.2900000000000003 162.50000000000003 22.725000000000005 8.5000000000000018 290.50000000000006 92.500000000000014 136.50000000000003 14.205000000000002 323.50000000000006 12.500000000000002 50.500000000000007
decision_type=2 2 2 2 2 2 2 2 2 2 2 2 2 2 2 2 2 2 2 2 2 2 2 2 2 2 2 2 2 2
left_child=2 3 7 11 -5 8 18 19 -3 -7 13 -2 25 -6 -15 -8 -16 21 -4 -1 -12 -10 24 -24 -20 -13 -27 28 -9 -30
right_child=1 5 6 4 10 9 15 27 17 -11 20 12 -14 14 16 -17 -18 -19 22 -21 -22 -23 23 -25 -26 26 -28 -29 29 -31
leaf_value=-0.018485741747750178 0.0086429165473964533 0.023079127920525414 -0.008915123317759328 0.022283377705708794 0.0030365919745103881 0.031746672605513594 -0.0038147688902189169 -0.0081232177635787856 0.0106861549538785 0.022015714401809071 0.01314243976863063 0.0046704050378341758 0.0092947409972548474 0.012760742037789895 0.0043231664691120381 0.00021181268276463091 0.010388057827949524 0.017234682144216175 -0.0062221760082305693 -0.015336612173580103 0.009284337025601417 0.015802615049108862 -0.011678568339380233 -0.0042895974204875528 -0.0010872612954117356 -0.0012518158067877474 0.00389485707237327 -0.0089873138267014697 -0.01576187141239643 -0.011512283033950896
leaf_weight=54 32 35 90 23 22 24 52 21 29 39 49 35 20 24 30 71 20 44 49 158 48 25 23 20 20 39 32 35 40 61
leaf_count=54 32 35 90 23 22 24 52 21 29 39 49 35 20 24 30 71 20 44 49 158 48 25 23 20 20 39 32 35 40 61
internal_value=-7.82073e-12 0.0121158 -0.00995101 0.00805992 0.0107068 0.0198551 -0.00512837 -0.0141986 0.0170756 0.0257227 0.00932719 0.00444144 0.00337439 0.00740124 0.00869884 -0.00149048 0.00674912 0.0149315 -0.00734352 -0.0161387 0.0112333 0.0130549 -0.00608063 -0.00824184 -0.00473379 0.00225735 0.00106781 -0.0115788 -0.0123222 -0.0131953
internal_weight=1264 570 694 374 216 196 325 369 133 63 193 158 126 96 74 123 50 98 202 212 97 54 112 43 69 106 71 157 122 101
internal_count=1264 570 694 374 216 196 325 369 133 63 193 158 126 96 74 123 50 98 202 212 97 54 112 43 69 106 71 157 122 101
is_linear=0
shrinkage=0.03


Tree=35
num_leaves=31
num_cat=0
split_feature=0 0 0 0 1 3 3 0 0 1 0 1 1 0 0 3 1 3 3 1 1 0 0 1 0 0 1 1 3 3
split_gain=159.319 18.7051 14.8623 3.74481 3.70572 3.60651 3.20922 2.73803 1.96081 1.4303 1.23462 0.808035 0.746031 0.740706 0.645215 0.607452 0.683874 0.56841 0.612679 0.623922 0.521312 0.508781 0.43064 0.427308 0.425587 0.417251 0.394838 0.385078 0.636418 0.377324
threshold=11.560000000000002 20.600000000000005 4.8400000000000007 15.145000000000001 22.500000000000004 96.500000000000014 137.50000000000003 8.4350000000000005 3.1950000000000007 11.450000000000001 23.300000000000001 16.050000000000004 15.65 18.225000000000005 13.590000000000002 167.50000000000003 18.850000000000005 125.50000000000001 190.50000000000003 17.050000000000004 15.15 9.7150000000000016 12.480000000000002 11.350000000000003 6.535000000000001 1.2900000000000003 11.65 2.3500000000000001 54.500000000000007 162.50000000000003
decision_type=2 2 2 2 2 2 2 2 2 2 2 2 2 2 2 2 2 2 2 2 2 2 2 2 2 2 2 2 2 2
left_child=2 3 8 9 6 -5 10 12 25 -2 -3 -8 24 17 22 -13 -17 -7 -19 -20 -16 23 -11 -9 -4 -1 -23 -10 -29 -15
right_child=1 4 7 5 -6 13 11 21 27 14 -12 15 -14 29 20 16 -18 18 19 -21 -22 26 -24 -25 -26 -27 -28 28 -30 -31
