tree
version=v4
num_class=1
num_tree_per_iteration=1
label_index=0
max_feature_idx=11
objective=regression
feature_names=ws_mean ws_max ws_min ws_std gust_mean gust_max gust_min gust_std t_mean month doy dow
feature_infos=[16.139999999999997:71.780000000000001] [22.100000000000001:101.09999999999999] [4.7999999999999998:55.200000000000003] [3.0011664399029923:21.757228683819086] [23.100000000000001:106.2] [30.199999999999999:141.09999999999999] [11.5:87.799999999999997] [1.2020815280171324:30.392844552624553] [1.1800000000000002:17.82] [1:12] [1:365] [0:6]
tree_sizes=1377 1435 1445 1515 1434 1533 1375 1439 1453 1443 1368 1278 1357 1446 1448 1458 1463 1379 1379 1466 1464 1447 1367 1380 1464 1470 1547 1469 1374 1466 1299 1462 1553 1468 1291 1388 1549 1466 1468 1385 1471 1387 1384 1468 1373 1468 1391 1467 1222 1293 1301 1475 1390 1473 1389 1309 1471 1390 1471 1471 1471 1475 1390 1560 1399 1470 1570 1564 1399 1652 1562 1489 1568 1559 1400 1563 1482 1565 1485 1565 1488 1487 1489 1403 1400 1563 1488 1566 1324 1575 1489 1573 1486 1561 1485 1634 1490 1581 1490 1409 1414 1402 1404 1410 1497 1581 1494 1499 1327 1478 1573 1570 1493 1502 1412 1413 1421 1330 1497 1325 1395 1412 1493 1412 1584 1494 1411 1503 1583 1501 1502 1500 1492 1415 1500 1499 1340 1418 1503 1507 1498 1505 1424 1416 1409 1485 1427 1424 1426 1586 1427 1497 1592 1409 1492 1499 1514 1426 1583 1506 1343 1501 1582 1587 1591 1577 1343 1514 1595 1500 1599 1582 1421 1427 1422 1601 1432 1339 1429 1515 1511 1431 1491 1423 1605 1405 1430 1511 1513 1507 1514 1418 1496 1509 1424 1431 1335 1421 1522 1574 1570 1417 1417 1507 1517 1521 1514 1506 1500 1591 1404 1434 1514 1520 1601 1435 1509 1593 1602 1521 1612 1418 1513 1512 1517 1571 1515 1519 1518 1614 1500 1598 1508 1510 1595 1432 1516 1590 1435 1617 1511 1503 1434 1527 1494 1431 1516 1585 1510 1433 1596 1431 1605 1518 1597 1431 1438 1506 1608 1443 1601 1440 1525 1580 1688 1423 1512 1525 1507 1517 1599 1522 1435 1437 1437 1428 1527 1515 1606 1426 1516 1512 1432 1584 1349 1430 1504 1515 1589 1695 1598 1518 1513 1519 1428 1517 1523 1440 1427 1434 1526 1516 1522 1345 1659 1587 1523 1346 1348 1444 1617 1519 1505 1530 1517 1513 1345 1511 1692 1347 1444 1444 1431 1353 1521 1531 1437 1524 1518 1438 1433 1603 1600 1346 1616 1611 1443 1518 1526 1522 1510 1601 1521 1438 1520 1522 1596 1434 1439 1434 1506 1505 1438 1597 1345 1439 1523 1604 1452 1528 1347 1530 1445 1443 1357 1341 1440 1504 1596 1617 1531 1440 1435 1525 1697 1609 1445 1415 1525 1357 1519 1444 1521 1527 1522 1362 1527 1433 1697 1522 1349 1523 1618 1440 1525 1537 1341 1437 1522 1357 1535 1525 1523 1537 1613 1531 1357 1444 1427 1523 1444 1351 1597 1523 1522 1530 1523 1449 1530 1442 1618 1515 1592 1524 1596 1523 1442 1522 1526 1604 1525 1437 1615 1523 1521 1614 1600 1615 1606 1606 1439 1617 1530 1617 1532 1525 1523 1444 1609 1614 1531 1614 1597 1443 1439 1530 1357 1527 1602 1533 1615 1438 1535 1524 1527 1604 1623 1430 1535 1610 1526 1614 1625 1613 1614 1614 1614 1616 1443 1617 1441 1441 1528 1518 1530 1523 1612 1360 1532 1607 1444 1613 1355 1438 1441 1599 1613 1439 1532 1526

Tree=0
num_leaves=16
num_cat=0
split_feature=0 0 0 0 0 0 2 8 7 6 7 0 3 8 8
split_gain=4138.08 679.944 543.273 110.207 101.257 47.4101 23.7764 18.5459 15.9899 12.4822 12.4249 11.3034 7.45786 5.42067 5.3018
threshold=34.360000000000007 26.540000000000003 39.770000000000003 30.820000000000004 46.490000000000002 21.780000000000005 16.800000000000001 10.880000000000001 15.543762827400384 36.550000000000004 13.248447456733659 23.370000000000005 9.261074253376405 12.750000000000002 6.3400000000000007
decision_type=2 2 2 2 2 2 2 2 2 2 2 2 2 2 2
left_child=1 5 7 6 10 -1 -3 14 -6 -5 12 -7 -4 -8 -2
right_child=2 3 4 9 8 11 13 -9 -10 -11 -12 -13 -14 -15 -16
leaf_value=8.1033985683947432 8.3268539194749565 8.2411597179845746 8.4059997901945938 8.2621646972357325 8.479467234801783 8.1351115856200078 8.2147512521669555 8.3049924594474156 8.4448371605561938 8.2896064038512431 8.389195379805102 8.1615469361863049 8.4292468254180992 8.1933960894971722 8.3484363434232396
leaf_weight=27 21 26 27 35 28 24 23 26 21 26 21 37 23 20 20
leaf_count=27 21 26 27 35 28 24 23 26 21 26 21 37 23 20 20
internal_value=8.28971 8.20089 8.39325 8.24448 8.43145 8.1365 8.21851 8.32481 8.46463 8.27386 8.40856 8.15115 8.41669 8.20482 8.33738
internal_weight=405 218 187 130 120 88 69 67 49 61 71 61 50 43 41
internal_count=405 218 187 130 120 88 69 67 49 61 71 61 50 43 41
is_linear=0
shrinkage=1


Tree=1
num_leaves=16
num_cat=0
split_feature=4 4 4 4 4 4 8 2 7 7 1 4 4 3 1
split_gain=3817.89 601.555 584.491 82.2258 66.9998 52.8806 29.4659 23.3602 16.7836 15.3107 23.0731 15.0445 14.4899 7.7054 0.666136
threshold=48.70000000000001 37.400000000000013 56.940000000000005 41.910000000000004 68.340000000000018 31.530000000000005 10.650000000000002 16.800000000000001 15.543762827400384 13.117010975520532 53.650000000000013 46.110000000000007 35.43 10.048455757559235 41.45000000000001
decision_type=2 2 2 2 2 2 2 2 2 2 2 2 2 2 2
left_child=1 5 6 7 9 -1 13 -3 -6 10 -4 14 -7 -2 -5
right_child=2 3 4 11 8 12 -8 -9 -10 -11 -12 -13 -14 -15 -16
leaf_value=-0.17601213780316438 0.034503454134101046 -0.048183840759422461 0.11224223969969899 -0.028850883476436138 0.18267225637435913 -0.14005414047756712 0.007406338326632976 -0.088087431307761893 0.14629222869873046 0.097471849411725986 0.15271171382495335 -0.0034089465969457076 -0.10930964571508495 0.059716461740434171 -0.036593767024576666
leaf_weight=33 24 23 32 20 25 37 30 31 21 20 21 26 22 20 20
leaf_count=33 24 23 32 20 25 37 30 31 21 20 21 26 22 20 20
internal_value=-3.34931e-10 -0.0878853 0.0965372 -0.0436372 0.137707 -0.1456 0.0303325 -0.0710915 0.166064 0.119837 0.128277 -0.0211746 -0.12859 0.0459639 -0.0327223
internal_weight=405 212 193 120 119 92 74 54 46 73 53 66 59 44 40
internal_count=405 212 193 120 119 92 74 54 46 73 53 66 59 44 40
is_linear=0
shrinkage=0.03


Tree=2
num_leaves=16
num_cat=0
split_feature=0 0 0 0 0 0 2 8 7 8 7 0 1 8 8
split_gain=3666.66 602.314 480.923 97.7632 90.336 42.2034 21.4479 16.0645 14.1062 11.47 10.939 10.0712 8.03418 5.13476 4.98572
threshold=34.360000000000007 26.540000000000003 39.770000000000003 30.820000000000004 46.490000000000002 21.780000000000005 16.800000000000001 10.880000000000001 15.543762827400384 9.6700000000000035 13.248447456733659 23.370000000000005 52.900000000000006 12.750000000000002 6.3400000000000007
decision_type=2 2 2 2 2 2 2 2 2 2 2 2 2 2 2
left_child=1 5 7 6 10 -1 -3 14 -6 -5 12 -7 -4 -8 -2
right_child=2 3 4 9 8 11 13 -9 -10 -11 -12 -13 -14 -15 -16
leaf_value=-0.17543911457061767 0.034564885111259561 -0.045526893689082221 0.10875927670725753 -0.0016824132986366749 0.17868326016834804 -0.14552497416734697 -0.070375517101391505 0.014629363168317538 0.14615693211555481 -0.027703598603125539 0.093617402911186226 -0.1205721291013666 0.13298554902726953 -0.091159868180751794 0.055494081823155281
leaf_weight=27 21 26 28 30 28 24 23 26 21 31 21 37 22 20 20
leaf_count=27 21 26 28 30 28 24 23 26 21 31 21 37 22 20 20
internal_value=2.8188e-10 -0.0836029 0.0974623 -0.0425755 0.133411 -0.144212 -0.0670367 0.0330762 0.164743 -0.0149063 0.111787 -0.13039 0.119419 -0.0800427 0.0447742
internal_weight=405 218 187 130 120 88 69 67 49 61 71 61 50 43 41
internal_count=405 218 187 130 120 88 69 67 49 61 71 61 50 43 41
is_linear=0
shrinkage=0.03


Tree=3
num_leaves=17
num_cat=0
split_feature=0 0 0 0 0 0 2 8 8 7 7 1 0 4 8 3
split_gain=3449.96 566.718 453.023 92.1326 79.5733 39.7092 19.9036 18.3475 17.2827 14.5414 13.2725 10.9348 9.47598 9.17161 5.58413 4.21508
threshold=34.360000000000007 26.540000000000003 39.900000000000006 30.600000000000005 46.490000000000002 21.780000000000005 16.800000000000001 10.880000000000001 12.9 13.248447456733659 15.543762827400384 52.900000000000006 23.370000000000005 46.110000000000007 12.540000000000001 10.048455757559235
decision_type=2 2 2 2 2 2 2 2 2 2 2 2 2 2 2 2
left_child=1 5 7 6 9 -1 -3 15 13 11 -6 -4 -7 -5 -8 -2
right_child=2 3 4 8 10 12 14 -9 -10 -11 -12 -13 -14 -15 -16 -17
leaf_value=-0.17017594231499567 0.037500882642343636 -0.045070369434356689 0.10598106858786195 -0.018228303660517153 0.1733227617400033 -0.1411592248082161 -0.068227987928049905 0.014190482247907381 -0.038774370035156609 0.088162087216973301 0.1417722259249006 0.13484497615269253 -0.11695496480207185 0.0091935459311519342 -0.090377601921558373 0.05614878748403862
leaf_weight=27 24 25 27 23 28 24 21 26 20 20 21 21 37 21 20 20
leaf_count=27 24 25 27 23 28 24 21 26 20 20 21 21 37 21 20 20
internal_value=4.0347e-10 -0.0810949 0.0945384 -0.0412983 0.130656 -0.139885 -0.0661682 0.0341707 -0.0156512 0.109654 0.159801 0.118609 -0.126478 -0.0051406 -0.0790327 0.0459772
internal_weight=405 218 187 130 117 88 66 70 64 68 49 48 61 44 41 44
internal_count=405 218 187 130 117 88 66 70 64 68 49 48 61 44 41 44
is_linear=0
shrinkage=0.03


Tree=4
num_leaves=16
num_cat=0
split_feature=0 0 0 0 0 0 8 8 8 7 11 7 0 3 8
split_gain=3246.07 533.224 426.458 86.6876 79.8231 37.3624 17.7402 16.2613 14.1403 12.4881 9.82118 9.59584 8.91595 6.25479 4.74849
threshold=34.360000000000007 26.540000000000003 39.770000000000003 30.600000000000005 46.490000000000002 21.780000000000005 10.700000000000001 12.9 10.880000000000001 15.543762827400384 3.5000000000000004 13.248447456733659 23.370000000000005 9.261074253376405 6.3400000000000007
decision_type=2 2 2 2 2 2 2 2 2 2 2 2 2 2 2
left_child=1 5 8 6 11 -1 -3 10 14 -6 -5 13 -7 -4 -2
right_child=2 3 4 7 9 12 -8 -9 -10 -11 -12 -13 -14 -15 -16
leaf_value=-0.165070661438836 0.032083234206906383 -0.048629594540054145 0.10258213434782293 0.0091871025819670066 0.16812307987894329 -0.1369244474172592 -0.079736649068919085 -0.037611138571053741 0.013764768205583096 0.13751905747822352 -0.019159870361062613 0.088209751248359683 -0.11344631499535328 0.12387169438859691 0.052508429445326327
leaf_weight=27 21 33 27 22 28 24 33 20 26 21 22 21 37 23 20
leaf_count=27 21 33 27 22 28 24 33 20 26 21 22 21 37 23 20
internal_value=8.52954e-10 -0.078662 0.0917022 -0.0400593 0.125554 -0.135689 -0.0641831 -0.0151816 0.0310716 0.155007 -0.00498638 0.105228 -0.122684 0.112375 0.0420467
internal_weight=405 218 187 130 120 88 66 64 67 49 44 71 61 50 41
internal_count=405 218 187 130 120 88 66 64 67 49 44 71 61 50 41
is_linear=0
shrinkage=0.03


Tree=5
num_leaves=17
num_cat=0
split_feature=0 0 0 0 0 0 2 4 9 7 7 9 6 1 0 10
split_gain=3054.22 501.711 401.391 81.5643 70.3733 35.1543 18.2859 17.2685 22.932 13.0075 11.75 10.8812 15.9129 10.0933 8.38902 4.97996
threshold=34.360000000000007 26.540000000000003 39.900000000000006 30.600000000000005 46.490000000000002 21.780000000000005 16.800000000000001 54.540000000000013 6.5000000000000009 13.248447456733659 15.543762827400384 8.5000000000000018 35.100000000000001 52.900000000000006 23.370000000000005 139.50000000000003
decision_type=2 2 2 2 2 2 2 2 2 2 2 2 2 2 2 2
left_child=1 5 7 6 9 -1 -3 8 -2 13 -6 12 -5 -4 -7 -8
right_child=2 3 4 11 10 14 15 -9 -10 -11 -12 -13 -14 -15 -16 -17
leaf_value=-0.16011854463153416 0.04071278351758207 -0.042035398864746089 0.099534929676188363 -0.040305158327455105 0.16307938405445643 -0.1328167140483856 -0.063874622136354448 0.055687339928001157 -0.00021677138791842892 0.082870929747819899 0.1333934802668435 0.0036214675018563865 -0.0041850324613707411 0.12726595435823712 -0.11004292625833202 -0.08479171599660601
leaf_weight=27 28 25 27 23 28 24 20 20 22 20 21 20 21 21 37 21
leaf_count=27 28 25 27 23 28 24 20 20 22 20 21 20 21 21 37 21
internal_value=-4.78631e-10 -0.0763021 0.0889512 -0.0388575 0.122948 -0.131618 -0.0622576 0.0321277 0.0227038 0.103198 0.150357 -0.0147262 -0.023066 0.111667 -0.119003 -0.0745883
internal_weight=405 218 187 130 117 88 66 70 50 68 49 64 44 48 61 41
internal_count=405 218 187 130 117 88 66 70 50 68 49 64 44 48 61 41
is_linear=0
shrinkage=0.03


Tree=6
num_leaves=15
num_cat=0
split_feature=1 6 6 6 5 5 1 6 9 7 8 10 1 3
split_gain=2612.55 382.191 353.689 114.007 103.881 91.258 44.5589 40.3037 26.3226 21.2427 20.3938 14.0731 8.57979 5.67651
threshold=44.350000000000001 28.600000000000005 48.050000000000004 36.550000000000004 44.100000000000001 75.40000000000002 53.650000000000013 33.300000000000004 2.5000000000000004 8.9815067132692779 8.5300000000000029 52.500000000000007 30.450000000000006 6.947048084779361
decision_type=2 2 2 2 2 2 2 2 2 2 2 2 2 2
left_child=1 4 5 9 12 7 -4 -2 -9 13 -6 -8 -1 -3
right_child=2 3 6 -5 10 -7 11 8 -10 -11 -12 -13 -14 -15
leaf_value=-0.15232835702598094 -0.0099974748641252515 -0.075780264149819102 0.093799844466977644 0.0092552761058952351 -0.060629160404205323 0.088294909417629241 0.15868465522061223 0.067247325874865052 0.024727387595063956 -0.03249368959106505 -0.099874958808605488 0.12847597398928234 -0.12830675809279732 -0.054854143112897873
leaf_weight=32 20 28 27 37 22 30 23 20 38 24 26 35 23 20
leaf_count=32 20 28 27 37 22 30 23 20 38 24 26 35 23 20
internal_value=1.97682e-10 -0.0727004 0.0798574 -0.0335443 -0.114137 0.0438286 0.125635 0.0267261 0.0393894 -0.0555386 -0.0818873 0.140455 -0.142283 -0.067061
internal_weight=405 212 193 109 103 108 85 78 58 72 48 58 55 48
internal_count=405 212 193 109 103 108 85 78 58 72 48 58 55 48
is_linear=0
shrinkage=0.03


Tree=7
num_leaves=16
num_cat=0
split_feature=4 4 4 4 4 4 1 7 2 4 4 5 1 8 8
split_gain=2656.19 550.859 310.45 55.2549 36.5127 28.7443 18.7154 19.3637 17.8459 12.5272 10.5176 9.46455 11.1562 7.20688 4.72602
threshold=46.440000000000005 56.300000000000018 37.400000000000013 73.480000000000004 31.530000000000005 41.910000000000004 42.350000000000001 9.1617073115691259 16.800000000000001 59.050000000000004 35.43 81.550000000000026 53.750000000000007 8.0900000000000016 9.6700000000000035
decision_type=2 2 2 2 2 2 2 2 2 2 2 2 2 2 2
left_child=2 6 4 9 -1 8 -2 -8 -4 -3 -6 12 -11 -9 -7
right_child=1 3 5 -5 10 14 7 13 -10 11 -12 -13 -14 -15 -16
leaf_value=-0.14688406467437745 -0.0099171779989264894 0.084037347965770295 -0.039239037581112073 0.14747609484580254 -0.11724587907662262 -0.015721710725181765 0.043548827417767964 0.021766975599154827 -0.074116350104731901 0.099015059754252441 -0.091052345281297506 0.091553756705086142 0.12881787946591008 -0.002394088371656835 -0.035661682279213618
leaf_weight=33 20 27 23 31 37 20 26 25 31 20 22 21 26 20 23
leaf_count=33 20 27 23 31 37 20 26 25 31 20 22 21 26 20 23
internal_value=-4.46555e-11 0.0718666 -0.0821332 0.112744 -0.121613 -0.0446882 0.0157167 0.0229375 -0.0592612 0.101289 -0.107479 0.108242 0.11586 0.0110287 -0.0263873
internal_weight=405 216 189 125 92 97 91 71 54 94 59 67 46 45 43
internal_count=405 216 189 125 92 97 91 71 54 94 59 67 46 45 43
is_linear=0
shrinkage=0.03


Tree=8
num_leaves=16
num_cat=0
split_feature=0 0 0 0 0 0 2 8 7 11 8 2 0 8 8
split_gain=2553.63 419.809 336.308 67.9165 64.5538 29.7696 16.8521 11.8596 10.3553 9.95843 8.62316 12.2921 7.94417 4.62539 4.27145
threshold=34.360000000000007 26.540000000000003 39.770000000000003 30.820000000000004 46.490000000000002 21.540000000000003 16.800000000000001 10.880000000000001 15.543762827400384 2.5000000000000004 9.5300000000000029 25.550000000000004 23.370000000000005 6.3400000000000007 12.750000000000002
decision_type=2 2 2 2 2 2 2 2 2 2 2 2 2 2 2
left_child=1 5 7 6 10 -1 -3 13 -6 -5 11 -4 -7 -2 -8
right_child=2 3 4 9 8 12 14 -9 -10 -11 -12 -13 -14 -15 -16
leaf_value=-0.14886311918497086 0.027710967317190287 -0.036838873338240846 0.10200173833153464 0.0025951186334714289 0.14982735284737178 -0.12205710490544637 -0.058616850969746059 0.011643531273763913 0.12195892947060721 -0.022217640363787476 0.10774883877893444 0.071254760786890969 -0.10065518373573148 0.047869684271514411 -0.077573606640100476
leaf_weight=24 21 26 22 24 28 27 23 26 21 37 24 25 37 20 20
leaf_count=24 21 26 22 24 28 27 23 26 21 37 24 25 37 20 20
internal_value=-3.57499e-10 -0.0697694 0.0813355 -0.0355172 0.111397 -0.120369 -0.0559054 0.0274934 0.137884 -0.0124552 0.093118 0.085647 -0.109684 0.0375445 -0.0674339
internal_weight=405 218 187 130 120 88 69 67 49 61 71 47 64 41 43
internal_count=405 218 187 130 120 88 69 67 49 61 71 47 64 41 43
is_linear=0
shrinkage=0.03


Tree=9
num_leaves=16
num_cat=0
split_feature=0 0 0 0 0 0 8 8 7 7 5 9 7 3 10
split_gain=2402.71 395.482 316.432 75.7643 60.7387 21.3086 20.2654 15.0493 11.7617 9.74332 8.52858 8.16509 6.83927 5.60142 3.66595
threshold=34.360000000000007 26.010000000000002 39.770000000000003 30.300000000000001 46.490000000000002 21.540000000000003 9.1800000000000015 12.9 9.2380974565388296 15.543762827400384 77.950000000000003 3.5000000000000004 8.7034474545469251 9.261074253376405 178.50000000000003
decision_type=2 2 2 2 2 2 2 2 2 2 2 2 2 2 2
left_child=1 5 8 6 10 -1 -3 11 -2 -6 13 -5 -7 -4 -8
right_child=2 3 4 7 9 12 14 -9 -10 -11 -12 -13 -14 -15 -16
leaf_value=-0.14439722567796706 0.041503070866955177 -0.039767423942685128 0.088135526014698873 -0.017623027740469709 0.14533253456865039 -0.12002564976292272 -0.063022337883710866 -0.035071543417870991 0.016018158104270697 0.11830016314983367 0.074807147830724716 0.0076794940110994497 -0.098936008858680716 0.10852825251492587 -0.080968911051750178
leaf_weight=24 28 30 27 22 28 31 20 21 39 21 22 24 25 22 21
leaf_count=24 28 30 27 22 28 31 20 21 39 21 22 24 25 22 21
internal_value=4.48415e-13 -0.0676764 0.0788954 -0.036911 0.108055 -0.120747 -0.0585045 -0.0140284 0.0266686 0.133747 0.0903245 -0.00442171 -0.110611 0.0972914 -0.0722145
internal_weight=405 218 187 138 120 80 71 67 67 49 71 46 56 49 41
internal_count=405 218 187 138 120 80 71 67 67 49 71 46 56 49 41
is_linear=0
shrinkage=0.03


Tree=10
num_leaves=15
num_cat=0
split_feature=0 0 0 0 0 4 0 10 2 4 6 0 3 8
split_gain=2261 383.831 282.72 64.1823 43.3494 27.7244 26.301 16.7549 15.5025 14.7666 10.5256 7.24134 4.39005 3.7588
threshold=34.63000000000001 26.540000000000003 40.680000000000014 30.820000000000004 46.490000000000002 54.720000000000006 21.540000000000003 184.50000000000003 16.800000000000001 64.510000000000034 36.550000000000004 23.370000000000005 14.240730540858101 12.750000000000002
decision_type=2 2 2 2 2 2 2 2 2 2 2 2 2 2
left_child=1 6 5 8 9 7 -1 -2 -3 -4 -5 -8 -6 -10
right_child=2 3 4 10 12 -7 11 -9 13 -11 -12 -13 -14 -15
leaf_value=-0.14006530821323396 0.03506608705068457 -0.034302277014805718 0.10271504906839446 -0.02160895193616549 0.13719198568113919 0.058481326472873865 -0.11505238268110486 -0.00011982824121202741 -0.055375620104048562 0.071368783797536584 0.0029157836663736294 -0.094619107669269717 0.11892191809415817 -0.073158468782901762
leaf_weight=24 29 26 38 36 29 26 27 21 23 21 28 37 20 20
leaf_count=24 29 26 38 36 29 26 27 21 23 21 28 37 20 20
internal_value=2.45248e-11 -0.064678 0.0776839 -0.0325184 0.108879 0.0333541 -0.113283 0.020288 -0.0525894 0.0915579 -0.0108794 -0.103239 0.129735 -0.0636467
internal_weight=405 221 184 133 108 76 88 50 69 59 64 64 49 43
internal_count=405 221 184 133 108 76 88 50 69 59 64 64 49 43
is_linear=0
shrinkage=0.03


Tree=11
num_leaves=14
num_cat=0
split_feature=4 4 4 4 4 4 8 11 5 1 3 4 8
split_gain=2087.25 432.727 243.294 44.354 28.7396 22.565 15.9237 19.1045 10.6843 22.0542 9.22801 8.34 4.09502
threshold=46.440000000000005 56.300000000000018 37.400000000000013 73.480000000000004 31.530000000000005 41.910000000000004 10.650000000000002 3.5000000000000004 83.700000000000017 53.650000000000013 7.8681174848524913 35.43 9.6700000000000035
decision_type=2 2 2 2 2 2 2 2 2 2 2 2 2
left_child=2 6 4 8 -1 10 7 -2 9 -3 -4 -6 -7
right_child=1 3 5 -5 11 12 -8 -9 -10 -11 -12 -13 -14
leaf_value=-0.13017783880233763 0.03858853913166306 0.079273844820839406 -0.065440869170885818 0.13105492461112236 -0.10391515349415509 -0.013516160848550498 -0.00088030296641303913 0.0014302807222120462 0.070816791611058361 0.11228057256766727 -0.040620596823947773 -0.080590340926904563 -0.03207729764606642
leaf_weight=33 33 38 26 31 37 20 38 20 21 35 28 22 23
leaf_count=33 33 38 26 31 37 20 38 20 21 35 28 22 23
internal_value=2.23224e-10 0.0637067 -0.0728077 0.0999367 -0.107758 -0.0396592 0.0139404 0.0245666 0.0896742 0.095099 -0.0525711 -0.0952178 -0.0234442
internal_weight=405 216 189 125 92 97 91 53 94 73 54 59 43
internal_count=405 216 189 125 92 97 91 53 94 73 54 59 43
is_linear=0
shrinkage=0.03


Tree=12
num_leaves=15
num_cat=0
split_feature=4 4 4 4 4 4 1 7 2 5 1 4 8 8
split_gain=1963.9 407.153 228.916 41.7326 27.0411 21.2314 15.283 16.9271 14.0997 10.0529 20.7975 7.84711 6.069 3.853
threshold=46.440000000000005 56.300000000000018 37.400000000000013 73.480000000000004 31.530000000000005 41.910000000000004 42.350000000000001 9.1617073115691259 16.800000000000001 83.700000000000017 53.300000000000004 35.43 8.0900000000000016 9.6700000000000035
decision_type=2 2 2 2 2 2 2 2 2 2 2 2 2 2
left_child=2 6 4 9 -1 8 -2 -8 -4 10 -3 -6 -9 -7
right_child=1 3 5 -5 11 13 7 12 -10 -11 -12 -13 -14 -15
leaf_value=-0.12627250346270474 -0.009642128331586718 0.076012397129088638 -0.033196979229864865 0.1271232746877978 -0.10079769942984991 -0.013110676956363022 0.039318261599311455 0.018767163383960724 -0.064198180571679142 0.068692286823477056 0.10804089246569452 -0.078172629861669105 -0.0034046355461468921 -0.031114979127179018
leaf_weight=33 20 36 23 31 37 20 26 25 31 21 37 22 20 23
leaf_count=33 20 36 23 31 37 20 26 25 31 21 37 22 20 23
internal_value=-1.58204e-10 0.0617955 -0.0706235 0.0969386 -0.104525 -0.0384694 0.0135222 0.0200473 -0.050994 0.086984 0.092246 -0.0923612 0.00891303 -0.0227409
internal_weight=405 216 189 125 92 97 91 71 54 94 73 59 45 43
internal_count=405 216 189 125 92 97 91 71 54 94 73 59 45 43
is_linear=0
shrinkage=0.03


Tree=13
num_leaves=16
num_cat=0
split_feature=0 0 0 0 0 4 1 8 9 4 8 7 9 10 10
split_gain=1888.95 310.9 248.9 58.9746 37.5262 23.8876 17.9695 17.2098 15.312 14.0089 13.4057 8.65036 7.92038 6.05139 3.57509
threshold=34.360000000000007 26.010000000000002 40.680000000000014 30.300000000000001 46.490000000000002 54.720000000000006 30.450000000000006 9.1800000000000015 6.5000000000000009 64.510000000000034 12.9 15.543762827400384 3.5000000000000004 190.50000000000003 178.50000000000003
decision_type=2 2 2 2 2 2 2 2 2 2 2 2 2 2 2
left_child=1 6 5 7 9 8 -1 -3 -2 -4 12 -6 -5 -8 -9
right_child=2 3 4 10 11 -7 13 14 -10 -11 -12 -13 -14 -15 -16
leaf_value=-0.12402863719246605 0.032050535798072814 -0.034512852877378465 0.094306795769616175 -0.016474928312342273 0.12987610216651646 0.053038790455231292 -0.085048412212729449 -0.055336341932415961 -0.00048443283723748249 0.063775292209216516 -0.032400720000400077 0.10440499867711747 0.0084455418132711197 -0.10662171006202698 -0.073059139677456447
leaf_weight=33 30 30 38 22 28 26 25 20 23 21 21 21 24 22 21
leaf_count=33 30 30 38 22 28 26 25 20 23 21 21 21 24 22 21
internal_value=6.77796e-11 -0.0600062 0.0699538 -0.0327284 0.0995553 0.0294859 -0.10706 -0.0517796 0.0179316 0.0834397 -0.0125399 0.11896 -0.00347294 -0.0951466 -0.0644139
internal_weight=405 218 187 138 108 79 80 71 53 59 67 49 46 47 41
internal_count=405 218 187 138 108 79 80 71 53 59 67 49 46 47 41
is_linear=0
shrinkage=0.03


Tree=14
num_leaves=16
num_cat=0
split_feature=0 0 0 0 0 4 1 8 7 4 8 7 10 10 10
split_gain=1777.31 292.526 234.19 55.4892 35.3084 22.4758 16.9075 16.1927 14.5037 13.181 12.6134 8.13912 7.45229 5.69376 3.36381
threshold=34.360000000000007 26.010000000000002 40.680000000000014 30.300000000000001 46.490000000000002 54.720000000000006 30.450000000000006 9.1800000000000015 9.2380974565388296 64.510000000000034 12.9 15.543762827400384 88.500000000000014 190.50000000000003 178.50000000000003
decision_type=2 2 2 2 2 2 2 2 2 2 2 2 2 2 2
left_child=1 6 5 7 9 8 -1 -3 -2 -4 12 -6 -5 -8 -9
right_child=2 3 4 10 11 -7 13 14 -10 -11 -12 -13 -14 -15 -16
leaf_value=-0.12030777671120384 0.035316990704640096 -0.033477468326687812 0.09147759111304031 -0.015980680390176447 0.12597981831857136 0.051447626266341938 -0.082496960699558253 -0.053676251985132692 0.003652403054758906 0.061862033264977592 -0.031428698125694474 0.10127284969602313 0.0081921749899629501 -0.10342305942015213 -0.070867364832333149
leaf_weight=33 23 30 38 22 28 26 25 20 30 21 21 21 24 22 21
leaf_count=33 23 30 38 22 28 26 25 20 30 21 21 21 24 22 21
internal_value=-1.44389e-10 -0.058206 0.0678552 -0.0317466 0.0965687 0.0286013 -0.103849 -0.0502263 0.0173936 0.0809365 -0.0121637 0.115391 -0.00336876 -0.0922922 -0.0624815
internal_weight=405 218 187 138 108 79 80 71 53 59 67 49 46 47 41
internal_count=405 218 187 138 108 79 80 71 53 59 67 49 46 47 41
is_linear=0
shrinkage=0.03


Tree=15
num_leaves=16
num_cat=0
split_feature=0 0 0 0 0 4 7 2 9 10 7 7 7 5 5
split_gain=1673.42 311.832 208.913 50.1958 29.5506 14.0402 10.7444 27.2499 10.5044 9.69587 7.6581 6.36035 5.68562 4.07255 2.13138
threshold=33.310000000000009 38.900000000000013 25.640000000000001 46.490000000000002 29.610000000000003 29.450000000000006 10.200220049202825 23.650000000000002 4.5000000000000009 100.50000000000001 15.543762827400384 8.9358253787804873 8.7034474545469251 47.70000000000001 56.000000000000007
decision_type=2 2 2 2 2 2 2 2 2 2 2 2 2 2 2
left_child=2 8 5 6 9 -1 -3 -8 -2 -4 -5 -10 -7 -11 -6
right_child=1 3 4 10 14 12 7 -9 11 13 -12 -13 -14 -15 -16
leaf_value=-0.12289138759885516 0.026817698482085359 0.084608339043824282 -0.034759321703829553 0.12220042296818324 -0.014450056126713752 -0.101531788281032 0.087093662470579147 0.037570992395281791 0.017758225335606507 -0.068713498456137515 0.098234662881919316 -0.0037684336751699445 -0.081786636326994219 -0.050792843198776243 -0.026966306939721105
leaf_weight=21 33 38 22 28 25 35 20 20 21 21 21 30 21 25 24
leaf_count=21 33 38 22 28 25 35 20 20 21 21 21 30 21 25 24
internal_value=7.22982e-11 0.058473 -0.0635969 0.0881335 -0.0383415 -0.101972 0.0731847 0.0623323 0.0136292 -0.0511398 0.111929 0.00509548 -0.0941274 -0.058974 -0.0205805
internal_weight=405 211 194 127 117 77 78 40 84 68 49 51 56 46 49
internal_count=405 211 194 127 117 77 78 40 84 68 49 51 56 46 49
is_linear=0
shrinkage=0.03


Tree=16
num_leaves=16
num_cat=0
split_feature=0 0 0 0 0 0 4 2 9 4 6 2 11 10 10
split_gain=1575.51 268.573 197.521 38.1896 31.046 23.1425 18.4593 14.2136 13.6488 12.086 9.14917 7.16819 7.00832 2.77205 1.02477
threshold=34.63000000000001 26.910000000000004 40.680000000000014 30.820000000000004 46.490000000000002 23.370000000000005 54.720000000000006 16.800000000000001 6.5000000000000009 64.510000000000034 36.550000000000004 12.450000000000001 3.5000000000000004 52.500000000000007 163.50000000000003
decision_type=2 2 2 2 2 2 2 2 2 2 2 2 2 2 2
left_child=1 5 6 7 9 11 8 -3 -2 -4 -5 -1 -7 -6 -9
right_child=2 3 4 10 13 12 -8 14 -10 -11 -12 -13 -14 -15 -16
leaf_value=-0.11629321319716318 0.030470679710651264 -0.023327380140190538 0.086357141842354865 -0.019219635950867085 0.11716376821696758 -0.089208350837230679 0.048297371864318844 -0.048122681424021714 -0.0012866869568824767 0.057998390325478141 0.0036453900486230848 -0.093690097487491103 -0.06492640595073286 0.10264579934292825 -0.057726311311125753
leaf_weight=28 29 23 38 36 20 20 26 20 21 21 28 23 23 29 20
leaf_count=28 29 23 38 36 20 20 26 20 21 21 28 23 23 29 20
internal_value=-1.23521e-10 -0.0539905 0.0648473 -0.0255382 0.0909217 -0.0924315 0.0277942 -0.0421192 0.0171326 0.0762633 -0.00921619 -0.1061 -0.0762203 0.108572 -0.0529245
internal_weight=405 221 184 127 108 94 76 63 50 59 64 51 43 49 40
internal_count=405 221 184 127 108 94 76 63 50 59 64 51 43 49 40
is_linear=0
shrinkage=0.03


Tree=17
num_leaves=15
num_cat=0
split_feature=0 0 0 0 0 8 1 8 7 2 8 7 8 10
split_gain=1482.91 276.092 185.357 44.3256 26.2548 15.2073 12.9464 12.0825 9.96281 25.3072 9.94736 7.17019 5.65082 4.00376
threshold=33.310000000000009 38.900000000000013 25.640000000000001 46.490000000000002 29.610000000000003 10.650000000000002 30.450000000000006 10.700000000000001 10.200220049202825 23.650000000000002 5.580000000000001 15.543762827400384 9.6700000000000035 190.50000000000003
decision_type=2 2 2 2 2 2 2 2 2 2 2 2 2 2
left_child=2 5 6 8 7 10 -1 -4 -3 -10 -2 -5 -6 -8
right_child=1 3 4 11 12 -7 13 -9 9 -11 -12 -13 -14 -15
leaf_value=-0.1102188929644498 0.007743639444932341 0.07990593126141711 -0.035496282056521847 0.11525282199893679 -0.0075733675322096263 -0.001890954275925954 -0.077100219875574111 -0.060787863161633995 0.082317750871181483 0.034593081504106525 0.035445040059941153 0.092063070088624951 -0.028160045998437064 -0.095274666130542751
leaf_weight=33 20 38 34 28 21 36 24 34 20 20 28 21 28 20
leaf_count=33 20 38 34 28 21 36 24 34 20 20 28 21 28 20
internal_value=1.70156e-10 0.0550441 -0.0598676 0.0829531 -0.0360785 0.0128483 -0.0960146 -0.0481421 0.0689057 0.0584554 0.0239028 0.105314 -0.0193372 -0.0853613
internal_weight=405 211 194 127 117 84 77 68 78 40 48 49 49 44
internal_count=405 211 194 127 117 84 77 68 78 40 48 49 49 44
is_linear=0
shrinkage=0.03


Tree=18
num_leaves=15
num_cat=0
split_feature=4 4 4 4 4 4 8 11 5 1 3 8 1 8
split_gain=1366.69 283.803 158.984 30.1631 19.8781 14.4742 12.1051 16.5109 10.0875 17.613 7.38928 6.95071 6.3518 3.02608
threshold=46.440000000000005 56.300000000000018 37.400000000000013 73.480000000000004 29.910000000000007 41.910000000000004 10.650000000000002 3.5000000000000004 83.700000000000017 53.650000000000013 7.8681174848524913 13.780000000000003 31.650000000000002 9.6700000000000035
decision_type=2 2 2 2 2 2 2 2 2 2 2 2 2 2
left_child=2 6 4 8 -1 10 7 -2 9 -3 -4 12 -6 -7
right_child=1 3 5 -5 11 13 -8 -9 -10 -11 -12 -13 -14 -15
leaf_value=-0.1106402912735939 0.03354791841046377 0.063557013590869155 -0.053976260847770248 0.10655294588015925 -0.084743306509086055 -0.0105975994435139 -0.0016744222982149376 -0.00099611301999539149 0.054105021527835299 0.093053690429244718 -0.031766012236475946 -0.093232003961290624 -0.062560199590829701 -0.02655333332069542
leaf_weight=24 33 38 26 31 21 20 38 20 21 35 28 21 26 23
leaf_count=24 33 38 26 31 21 20 38 20 21 35 28 21 26 23
internal_value=-5.93977e-11 0.0515506 -0.0589149 0.0808911 -0.0871675 -0.0321187 0.0112476 0.0205124 0.0724282 0.0776993 -0.0424598 -0.078883 -0.0724718 -0.0191321
internal_weight=405 216 189 125 92 97 91 53 94 73 54 68 47 43
internal_count=405 216 189 125 92 97 91 53 94 73 54 68 47 43
is_linear=0
shrinkage=0.03


Tree=19
num_leaves=16
num_cat=0
split_feature=0 0 0 0 0 0 4 7 2 4 11 7 2 11 3
split_gain=1316.35 217.157 173.572 29.2054 26.1735 19.6591 15.8159 13.2702 12.9521 11.1353 9.08443 6.63619 6.41664 6.23345 1.76781
threshold=34.360000000000007 26.910000000000004 40.680000000000014 30.820000000000004 46.490000000000002 23.370000000000005 54.720000000000006 9.2380974565388296 16.800000000000001 64.510000000000034 2.5000000000000004 15.543762827400384 12.450000000000001 3.5000000000000004 6.5597256000316735
decision_type=2 2 2 2 2 2 2 2 2 2 2 2 2 2 2
left_child=1 5 6 8 9 12 7 -2 -3 -4 -5 -6 -1 -7 -10
right_child=2 3 4 10 11 13 -8 -9 14 -11 -12 -13 -14 -15 -16
leaf_value=-0.10672392393861498 0.032345153290940371 -0.020410625400507577 0.07934567627153899 0.0051480756513774392 0.10888293851699148 -0.08178958404064178 0.043767428260583142 0.0020569370910525323 -0.042357066303491592 0.052125156644199568 -0.018550845498873574 0.086573429565344528 -0.085338532043539958 -0.058889302222625069 -0.054970661460421975
leaf_weight=28 23 23 38 24 28 20 26 30 20 21 37 21 23 23 20
leaf_count=28 23 23 38 24 28 20 26 30 20 21 37 21 23 23 20
internal_value=-2.12686e-10 -0.0500923 0.0583964 -0.0240228 0.083116 -0.0844819 0.0246025 0.0152009 -0.0383492 0.069657 -0.00922668 0.0993217 -0.0970795 -0.0695406 -0.0486639
internal_weight=405 218 187 124 108 94 79 53 63 59 61 49 51 43 40
internal_count=405 218 187 124 108 94 79 53 63 59 61 49 51 43 40
is_linear=0
shrinkage=0.03


Tree=20
num_leaves=16
num_cat=0
split_feature=4 4 4 4 4 4 8 11 2 5 3 4 8 7 8
split_gain=1211.02 251.231 140.714 26.9592 17.891 12.8465 11.3195 15.1514 10.2534 9.60831 10.4949 15.2562 6.42614 5.22343 2.83332
threshold=46.440000000000005 56.300000000000018 37.400000000000013 73.480000000000004 29.910000000000007 41.910000000000004 10.650000000000002 3.5000000000000004 16.800000000000001 83.700000000000017 8.0607647797950488 62.110000000000014 13.780000000000003 7.7385303805158419 9.6700000000000035
decision_type=2 2 2 2 2 2 2 2 2 2 2 2 2 2 2
left_child=2 6 4 9 -1 8 7 -2 -4 10 -3 -12 13 -6 -7
right_child=1 3 5 -5 12 14 -8 -9 -10 -11 11 -13 -14 -15 -16
leaf_value=-0.10430648654699325 0.032052591405808926 0.056503525156041852 -0.024814227320172862 0.10039212758442567 -0.077395703244209288 -0.0097557580545544632 -0.0018895817704890903 -0.001038717795163393 -0.051250994281332576 0.050247931001441822 0.06506849408722841 0.098237876363637039 -0.087975234644753583 -0.057352512627840038 -0.025194948759415872
leaf_weight=24 33 23 23 31 25 20 38 20 31 21 26 24 21 22 23
leaf_count=24 33 23 23 31 25 20 38 20 31 21 26 24 21 22 23
internal_value=4.86745e-11 0.0485259 -0.0554582 0.0761315 -0.0820379 -0.0302485 0.0106061 0.0195653 -0.0399909 0.0681306 0.0732749 0.0809898 -0.0741783 -0.0680138 -0.0180139
internal_weight=405 216 189 125 92 97 91 53 54 94 73 50 68 47 43
internal_count=405 216 189 125 92 97 91 53 54 94 73 50 68 47 43
is_linear=0
shrinkage=0.03


Tree=21
num_leaves=16
num_cat=0
split_feature=4 4 4 4 4 4 1 2 5 5 1 4 8 8 10
split_gain=1139.45 236.384 132.397 25.3659 16.8336 12.0872 11.0184 9.64747 9.08367 9.04046 15.5101 6.2161 3.86815 2.66587 1.14564
threshold=46.440000000000005 56.300000000000018 37.400000000000013 73.480000000000004 29.910000000000007 41.910000000000004 42.350000000000001 16.800000000000001 64.600000000000009 83.700000000000017 53.650000000000013 35.43 7.6900000000000004 9.6700000000000035 139.50000000000003
decision_type=2 2 2 2 2 2 2 2 2 2 2 2 2 2 2
left_child=2 6 4 9 -1 7 -2 -4 12 10 -3 14 -8 -7 -6
right_child=1 3 5 -5 11 13 8 -9 -10 -11 -12 -13 -14 -15 -16
leaf_value=-0.10117729216814041 -0.009380678610876202 0.057805538177490234 -0.024069800644141177 0.0973803637188769 -0.073692904487252242 -0.0094630854763090612 0.034604125692509112 -0.049713465160419863 0.0036392852760130357 0.048740493077784774 0.085485382427062301 -0.058837238983674482 0.01594577870517969 -0.024439100223067015 -0.083170681324872098
leaf_weight=24 20 38 23 31 24 20 20 31 31 21 35 22 20 23 22
leaf_count=24 20 38 23 31 24 20 20 31 31 21 35 22 20 23 22
internal_value=2.20758e-11 0.0470701 -0.0537944 0.0738475 -0.0795767 -0.0293411 0.0102879 -0.0387912 0.0158284 0.0660867 0.0710767 -0.071953 0.025275 -0.0174735 -0.0782258
internal_weight=405 216 189 125 92 97 91 54 71 94 73 68 40 43 46
internal_count=405 216 189 125 92 97 91 54 71 94 73 68 40 43 46
is_linear=0
shrinkage=0.03


Tree=22
num_leaves=15
num_cat=0
split_feature=0 0 0 0 0 8 4 10 11 0 10 8 5 3
split_gain=1100.77 181.764 144.98 33.3469 22.6129 14.7997 12.7899 11.8629 10.7844 10.66 10.1285 9.0417 3.31618 2.79322
threshold=34.360000000000007 26.010000000000002 40.680000000000014 29.610000000000003 46.490000000000002 12.9 54.720000000000006 187.50000000000003 1.5000000000000002 21.540000000000003 148.50000000000003 10.700000000000001 44.100000000000001 14.240730540858101
decision_type=2 2 2 2 2 2 2 2 2 2 2 2 2 2
left_child=1 9 6 11 8 10 7 -2 -4 -1 -5 -3 -11 -6
right_child=2 3 4 5 13 -7 -8 -9 -10 12 -12 -13 -14 -15
leaf_value=-0.098513583093881599 0.026017689620475133 -0.029216182316886261 0.081393654629588127 -0.01289769934117794 0.097004461822838603 -0.030950796747499183 0.039749820120140125 -0.0027869989790699698 0.054298060825810984 -0.080488869740682492 0.014663814419880508 -0.051596745171330193 -0.065540864874016155 0.082431171409785745
leaf_weight=24 31 32 20 30 29 23 26 22 39 34 20 33 22 20
leaf_count=24 31 32 20 30 29 23 26 22 39 34 20 33 22 20
internal_value=-6.1269e-11 -0.0458072 0.053401 -0.0249502 0.0759931 -0.0110346 0.0225156 0.014061 0.063483 -0.0817856 -0.00187309 -0.0405786 -0.0746164 0.0910562
internal_weight=405 218 187 138 108 73 79 53 59 80 50 65 56 49
internal_count=405 218 187 138 108 73 79 53 59 80 50 65 56 49
is_linear=0
shrinkage=0.03


Tree=23
num_leaves=15
num_cat=0
split_feature=0 0 0 0 0 10 4 7 1 4 8 7 10 10
split_gain=1035.71 171.021 136.412 31.3761 21.2764 14.0385 12.034 12.1671 11.0366 10.3613 8.50733 5.85148 5.6099 4.40436
threshold=34.360000000000007 26.010000000000002 40.680000000000014 29.610000000000003 46.490000000000002 250.50000000000003 54.720000000000006 9.2380974565388296 30.450000000000006 64.510000000000034 10.700000000000001 15.543762827400384 154.50000000000003 190.50000000000003
decision_type=2 2 2 2 2 2 2 2 2 2 2 2 2 2
left_child=1 8 6 10 9 12 7 -2 -1 -4 -3 -6 -5 -10
right_child=2 3 4 5 11 -7 -8 -9 13 -11 -12 -13 -14 -15
leaf_value=-0.092630030783739964 0.03005540355392124 -0.028339697238989173 0.070924408365237085 -0.011186783770945938 0.097302643124546312 0.010712717900052666 0.038557326441200877 0.001053436726331711 -0.061380114895105357 0.044666906957115442 -0.05004884353415532 0.076353631088776241 -0.031322391004941892 -0.079784878004680981
leaf_weight=33 23 32 38 33 28 20 26 30 25 21 33 21 20 22
leaf_count=33 23 32 38 33 28 20 26 30 25 21 33 21 20 22
internal_value=3.99348e-11 -0.044433 0.0517989 -0.0242017 0.0737133 -0.0107035 0.0218401 0.0136392 -0.079332 0.0615785 -0.0393613 0.0883245 -0.0187851 -0.0699951
internal_weight=405 218 187 138 108 73 79 53 80 59 65 49 53 47
internal_count=405 218 187 138 108 73 79 53 80 59 65 49 53 47
is_linear=0
shrinkage=0.03


Tree=24
num_leaves=16
num_cat=0
split_feature=0 0 0 0 0 8 1 8 8 8 7 10 1 8 10
split_gain=974.956 181.036 122.49 30.1534 16.5638 12.0953 9.12271 9.10715 9.02276 8.96312 5.50566 5.12994 4.73505 4.26209 2.991
threshold=33.310000000000009 38.900000000000013 25.640000000000001 46.490000000000002 29.610000000000003 10.650000000000002 30.450000000000006 12.750000000000002 5.580000000000001 7.160000000000001 15.543762827400384 289.50000000000006 35.550000000000004 9.6700000000000035 190.50000000000003
decision_type=2 2 2 2 2 2 2 2 2 2 2 2 2 2 2
left_child=2 5 6 9 7 8 -1 12 -2 -3 -5 -11 -4 -6 -8
right_child=1 3 4 10 13 -7 14 -9 -10 11 -12 -13 -14 -15 -16
leaf_value=-0.089851128946651107 0.0049323968421667811 0.043769873671910979 -0.020691924946648736 0.094383563825062342 -0.0056905702182224816 -0.002681432800988356 -0.061844611912965773 -0.054661778587509285 0.031314992412392578 0.055294361829757686 0.074063022365527503 0.075678801722824568 -0.040015284705162045 -0.023569511290905731 -0.07755312055349349
leaf_weight=33 20 33 21 28 21 36 24 22 28 25 21 20 25 28 20
leaf_count=33 20 33 21 28 21 36 24 22 28 25 21 20 25 28 20
internal_value=-4.13921e-12 0.0446319 -0.048543 0.0672315 -0.0292044 0.0104635 -0.0779275 -0.0387863 0.0203222 0.0556454 0.0856748 0.0643541 -0.0311938 -0.0159071 -0.0689848
internal_weight=405 211 194 127 117 84 77 68 48 78 49 45 46 49 44
internal_count=405 211 194 127 117 84 77 68 48 78 49 45 46 49 44
is_linear=0
shrinkage=0.03


Tree=25
num_leaves=16
num_cat=0
split_feature=4 4 4 4 4 10 5 8 11 3 4 6 10 8 11
split_gain=894.752 185.667 103.654 20.3889 13.844 11.1831 9.14152 9.1372 13.5963 9.09909 12.7432 7.93891 9.15074 6.02062 4.67914
threshold=46.440000000000005 56.300000000000018 37.400000000000013 73.480000000000004 29.450000000000006 238.50000000000003 83.700000000000017 10.650000000000002 3.5000000000000004 8.0607647797950488 62.110000000000014 28.600000000000005 136.50000000000003 13.780000000000003 3.5000000000000004
decision_type=2 2 2 2 2 2 2 2 2 2 2 2 2 2 2
left_child=2 7 4 6 -1 11 9 8 -2 -3 -11 -4 -13 14 -6
right_child=1 3 5 -5 13 -7 -8 -9 -10 10 -12 12 -14 -15 -16
leaf_value=-0.091880453654697963 0.028990916123783045 0.047886016550271408 -0.047486388847231865 0.086540710265117296 -0.066721983804152549 -0.0060458013284951442 0.041041670878018653 -0.0021142845247921192 -0.0023562384657561776 0.0561348543015237 0.086449539158493266 -0.014893716587685048 -0.039117490670084951 -0.076773444103158034 -0.047923317771743641
leaf_weight=21 33 23 20 31 26 20 21 38 20 26 24 32 25 23 22
leaf_count=21 33 23 20 31 26 20 21 38 20 26 24 32 25 23 22
internal_value=-5.50515e-11 0.0417108 -0.0476695 0.0654425 -0.0704822 -0.0260328 0.0584846 0.00911245 0.0171618 0.0635024 0.0706859 -0.0312242 -0.0255182 -0.0641532 -0.0581059
internal_weight=405 216 189 125 92 97 94 91 53 73 50 77 57 71 48
internal_count=405 216 189 125 92 97 94 91 53 73 50 77 57 71 48
is_linear=0
shrinkage=0.03


Tree=26
num_leaves=17
num_cat=0
split_feature=4 4 4 4 4 8 3 10 5 6 10 10 8 8 7 11
split_gain=841.872 174.919 97.5284 17.012 13.0258 12.4146 11.4142 10.5222 8.69575 7.46972 8.60993 6.6668 6.05668 5.6648 4.9052 4.40261
threshold=46.440000000000005 56.940000000000005 37.400000000000013 73.480000000000004 29.450000000000006 10.650000000000002 10.616779126546714 238.50000000000003 83.700000000000017 28.600000000000005 136.50000000000003 85.500000000000014 9.8400000000000016 13.780000000000003 9.3084101692016485 3.5000000000000004
decision_type=2 2 2 2 2 2 2 2 2 2 2 2 2 2 2 2
left_child=2 5 4 8 -1 6 -2 9 11 -4 -11 -3 -13 15 -7 -6
right_child=1 3 7 -5 13 14 -8 -9 -10 10 -12 12 -14 -15 -16 -17
leaf_value=-0.089124040603637697 0.0096781800184524737 0.07593427930725738 -0.046061796851456158 0.083944488480206456 -0.064720323567207041 0.0082513673007488242 0.037807881250977518 -0.0058644277257844804 0.040712154082953929 -0.014446905185468494 -0.037943965890258551 0.044085169516503805 0.066438606418669222 -0.074470237908156017 -0.012759775713086128 -0.046485618230971422
leaf_weight=21 37 24 20 31 26 20 20 20 20 32 25 20 24 23 20 22
leaf_count=21 37 24 20 31 26 20 20 20 20 32 25 20 24 23 20 22
internal_value=1.15122e-10 0.0404595 -0.0462395 0.0648334 -0.0683677 0.0105575 0.0195483 -0.0252518 0.0581011 -0.0302875 -0.0247526 0.0632155 0.056278 -0.0622286 -0.0022542 -0.0563628
internal_weight=405 216 189 119 92 97 57 97 88 77 57 68 44 71 40 48
internal_count=405 216 189 119 92 97 57 97 88 77 57 68 44 71 40 48
is_linear=0
shrinkage=0.03


Tree=27
num_leaves=16
num_cat=0
split_feature=0 0 0 10 6 0 0 10 11 0 7 2 7 8 11
split_gain=816.337 134.85 107.054 22.217 19.8124 17.4241 12.9696 10.2462 9.93569 8.23579 10.5177 5.01666 5.01195 4.78371 4.68885
threshold=34.360000000000007 26.910000000000004 40.680000000000014 253.50000000000003 36.550000000000004 46.490000000000002 23.370000000000005 139.50000000000003 1.5000000000000002 38.600000000000001 9.2380974565388296 12.450000000000001 15.543762827400384 5.830000000000001 3.5000000000000004
decision_type=2 2 2 2 2 2 2 2 2 2 2 2 2 2 2
left_child=1 6 9 4 7 8 11 13 -4 10 -2 -1 -7 -3 -8
right_child=2 3 5 -5 -6 12 14 -9 -10 -11 -12 -13 -14 -15 -16
leaf_value=-0.085307274290493562 0.028227376604209774 -0.034241619173437356 0.071610637921839956 0.0070165029435884201 0.0015814049514010547 0.086932237903986659 -0.065035076379776 -0.044951199459610507 0.045603113999733561 0.033683079922199245 0.0014520896298270071 -0.066398181733877765 0.067544201612472529 -0.015031491025750125 -0.045173687900659509
leaf_weight=28 23 20 20 24 20 28 20 32 39 25 31 23 21 28 23
leaf_count=28 23 20 20 24 20 28 20 32 39 25 31 23 21 28 23
internal_value=-4.06678e-11 -0.0394476 0.0459871 -0.0189043 -0.0251252 0.0654006 -0.0665474 -0.0318019 0.0544192 0.0194471 0.0128564 -0.0767796 0.0786231 -0.0230357 -0.0544115
internal_weight=405 218 187 124 100 108 94 80 59 79 54 51 49 48 43
internal_count=405 218 187 124 100 108 94 80 59 79 54 51 49 48 43
is_linear=0
shrinkage=0.03


Tree=28
num_leaves=15
num_cat=0
split_feature=0 0 0 0 0 8 4 1 4 7 10 8 7 10
split_gain=768.092 127.028 100.727 24.0766 16.3944 12.7419 9.54562 8.807 8.61911 10.7872 8.57673 6.59365 4.71574 3.56187
threshold=34.360000000000007 26.010000000000002 40.680000000000014 29.610000000000003 46.490000000000002 12.9 64.510000000000034 30.450000000000006 54.720000000000006 9.2380974565388296 148.50000000000003 10.700000000000001 15.543762827400384 190.50000000000003
decision_type=2 2 2 2 2 2 2 2 2 2 2 2 2 2
left_child=1 7 8 11 6 10 -4 -1 9 -2 -5 -3 -6 -9
right_child=2 3 4 5 12 -7 -8 13 -10 -11 -12 -13 -14 -15
leaf_value=-0.080220488093116063 0.027380555419190586 -0.024404649543575942 0.061757116549109162 -0.010648119052872062 0.084324269496968821 -0.027483739174254562 0.036554368202175412 -0.052253460967540737 0.033011536569549485 7.2635686956346027e-05 0.014714343063533305 -0.043516772355545651 0.065517875637326917 -0.068804603381590418
leaf_weight=33 23 32 38 30 28 23 21 25 26 30 20 33 21 22
leaf_count=33 23 32 38 30 28 23 21 25 26 30 20 33 21 22
internal_value=3.36311e-12 -0.0382642 0.0446075 -0.0208282 0.0634386 -0.00900387 0.0527866 -0.0683414 0.0188637 0.0119232 -0.000503134 -0.0341077 0.0762644 -0.0600008
internal_weight=405 218 187 138 108 73 59 80 79 53 50 65 49 47
internal_count=405 218 187 138 108 73 59 80 79 53 50 65 49 47
is_linear=0
shrinkage=0.03


Tree=29
num_leaves=16
num_cat=0
split_feature=0 0 0 0 0 8 8 8 1 8 10 7 1 8 10
split_gain=723.054 133.624 91.2829 23.0478 12.862 10.0967 8.75045 8.12514 7.2685 7.14551 4.93212 4.43704 4.38639 3.78418 2.3106
threshold=33.310000000000009 38.900000000000013 25.640000000000001 46.490000000000002 29.610000000000003 10.650000000000002 7.160000000000001 5.580000000000001 30.450000000000006 12.750000000000002 289.50000000000006 15.543762827400384 35.550000000000004 9.6700000000000035 190.50000000000003
decision_type=2 2 2 2 2 2 2 2 2 2 2 2 2 2 2
left_child=2 5 8 6 9 7 -3 -2 -1 12 -8 -5 -4 -6 -10
right_child=1 3 4 11 13 -7 10 -9 14 -11 -12 -13 -14 -15 -16
leaf_value=-0.077813872965899381 0.0034840346672572195 0.035988864512606099 -0.016720318623951503 0.081794542499950953 -0.0037655408786875857 -0.0029290327802300453 0.047444080629944797 0.028519946438526469 -0.052912702783942223 -0.04761559821326624 0.067431625530123718 0.063552338864122121 -0.035318655315041546 -0.020612298083391836 -0.06671938888728618
leaf_weight=33 20 33 21 28 21 36 25 28 24 22 20 21 25 28 20
leaf_count=33 20 33 21 28 21 36 25 28 24 22 20 21 25 28 20
internal_value=-4.18405e-11 0.0384361 -0.0418042 0.0578521 -0.0251099 0.00908088 0.0477227 0.0180883 -0.0671708 -0.0335535 0.0563274 0.0739765 -0.0268281 -0.0133923 -0.0591885
internal_weight=405 211 194 127 117 84 78 48 77 68 45 49 46 49 44
internal_count=405 211 194 127 117 84 78 48 77 68 45 49 46 49 44
is_linear=0
shrinkage=0.03


Tree=30
num_leaves=14
num_cat=0
split_feature=4 4 4 4 4 5 1 2 4 7 3 8 1
split_gain=661.148 141.97 72.7102 15.3868 10.7697 8.64511 11.8563 8.49322 8.34746 7.80025 12.1353 4.9276 4.08196
threshold=46.110000000000007 56.300000000000018 37.400000000000013 73.480000000000004 29.450000000000006 83.700000000000017 53.650000000000013 16.800000000000001 43.260000000000012 8.9358253787804873 10.316200850974692 13.780000000000003 31.650000000000002
decision_type=2 2 2 2 2 2 2 2 2 2 2 2 2
left_child=2 9 4 5 -1 6 -3 -4 -9 -2 -11 12 -6
right_child=1 3 7 -5 11 -7 -8 8 -10 10 -12 -13 -14
leaf_value=-0.079424976621355323 0.018950715068289461 0.04350292258111662 -0.011056300622465855 0.074599247603647167 -0.059009210115129294 0.03326374374330044 0.067703830128369322 -0.038337969262839153 -0.015117504361339589 -0.011238674104891041 0.015880901515483856 -0.06638675979945971 -0.041451080206495058
leaf_weight=21 34 38 34 31 22 21 35 38 22 33 27 23 26
leaf_count=21 34 38 34 31 22 21 35 38 22 33 27 23 26
internal_value=-6.60808e-11 0.0353246 -0.0415919 0.0562709 -0.0605516 0.0502264 0.0551061 -0.0230356 -0.0298238 0.00747056 0.000965135 -0.0549694 -0.0494986
internal_weight=405 219 186 125 92 94 73 94 60 94 60 71 48
internal_count=405 219 186 125 92 94 73 94 60 94 60 71 48
is_linear=0
shrinkage=0.03


Tree=31
num_leaves=16
num_cat=0
split_feature=0 0 0 10 6 0 0 0 10 10 8 2 7 7 9
split_gain=641.731 106.334 84.2523 19.274 17.3101 13.8512 10.495 9.26863 8.84581 7.52679 4.90394 4.42812 4.29015 4.09396 4.01468
threshold=34.360000000000007 26.910000000000004 40.680000000000014 253.50000000000003 36.550000000000004 46.490000000000002 23.370000000000005 43.610000000000007 139.50000000000003 187.50000000000003 5.830000000000001 12.450000000000001 9.890867660671919 15.543762827400384 5.5000000000000009
decision_type=2 2 2 2 2 2 2 2 2 2 2 2 2 2 2
left_child=1 6 9 4 8 7 11 -4 10 12 -3 -1 -2 -7 -8
right_child=2 3 5 -5 -6 13 14 -9 -10 -11 -12 -13 -14 -15 -16
leaf_value=-0.076256153328078127 0.03412845712580273 -0.031968766358681025 0.060716235893113271 0.0074099931539967651 0.0024359626693767496 0.07729469663596579 -0.039575016330117764 0.036904277527524579 -0.040985809751437043 0.0060065316036343576 -0.012518731243908406 -0.05849083115225253 0.015996829643845557 0.05977194615772792 -0.057953178226947781
leaf_weight=28 23 20 28 24 20 28 23 31 32 32 28 23 24 21 20
leaf_count=28 23 20 28 24 20 28 23 31 32 32 28 23 24 21 20
internal_value=1.11992e-10 -0.0349754 0.0407735 -0.016733 -0.0225273 0.0579958 -0.0590399 0.0482049 -0.0287681 0.017229 -0.0206229 -0.0682443 0.0248698 0.0697849 -0.048123
internal_weight=405 218 187 124 100 108 94 59 80 79 48 51 47 49 43
internal_count=405 218 187 124 100 108 94 59 80 79 48 51 47 49 43
is_linear=0
shrinkage=0.03


Tree=32
num_leaves=17
num_cat=0
split_feature=0 0 0 0 0 9 2 3 1 1 9 4 9 10 5 2
split_gain=603.869 112.34 76.6401 19.3204 11.0193 7.18358 6.71704 13.6484 6.27732 6.04698 2.83896 2.81045 2.80331 1.94712 1.63786 1.55374
threshold=33.310000000000009 38.900000000000013 25.640000000000001 46.490000000000002 29.610000000000003 6.5000000000000009 23.150000000000002 10.376123249085138 30.450000000000006 35.050000000000004 9.5000000000000018 44.13000000000001 9.5000000000000018 190.50000000000003 63.20000000000001 16.800000000000001
decision_type=2 2 2 2 2 2 2 2 2 2 2 2 2 2 2 2
left_child=2 5 8 6 9 14 -3 -8 -1 -4 -5 -6 -7 -10 -2 -11
right_child=1 3 4 10 11 12 7 -9 13 15 -12 -13 -14 -15 -16 -17
leaf_value=-0.071337729042226614 0.022907096402985709 0.058646187275648118 -0.019698088330527146 0.061437751304058895 -0.0034094832208938896 -0.0079531878842548885 0.049042191532881634 0.018424675572663547 -0.048267756998538969 -0.031997790936380624 0.076029593305928359 -0.018027671639775408 0.0075655177831649781 -0.060942027568817135 0.011058555766940117 -0.043681421407631461
leaf_weight=33 21 20 27 28 20 22 38 20 24 20 21 29 20 20 21 21
leaf_count=33 21 20 27 28 20 22 38 20 24 20 21 29 20 20 21 21
internal_value=-5.92252e-11 0.0351257 -0.0382037 0.0529283 -0.0229069 0.00820975 0.0436541 0.0384844 -0.0614469 -0.0307223 0.0676914 -0.0120611 -0.000563328 -0.0540288 0.0169828 -0.0379821
internal_weight=405 211 194 127 117 84 78 58 77 68 49 49 42 44 42 41
internal_count=405 211 194 127 117 84 78 58 77 68 49 49 42 44 42 41
is_linear=0
shrinkage=0.03


Tree=33
num_leaves=16
num_cat=0
split_feature=0 0 0 10 6 11 6 0 10 10 2 11 6 5 6
split_gain=569.065 94.364 74.9619 17.8827 15.8133 15.4529 18.925 9.31049 8.34609 6.80145 4.13826 4.00163 3.46198 2.49536 2.24148
threshold=34.360000000000007 26.910000000000004 40.680000000000014 253.50000000000003 36.550000000000004 4.5000000000000009 51.650000000000006 23.370000000000005 139.50000000000003 187.50000000000003 12.250000000000002 3.5000000000000004 59.95000000000001 64.600000000000009 30.400000000000002
decision_type=2 2 2 2 2 2 2 2 2 2 2 2 2 2 2
left_child=1 7 9 4 8 6 -4 10 14 13 -1 -9 -8 -2 -3
right_child=2 3 5 -5 -6 -7 12 11 -10 -11 -12 -13 -14 -15 -16
leaf_value=-0.073338790684938426 0.031142058760992117 -0.013421769951685116 0.046224092518289878 0.007504554609768092 0.0025275672231218778 0.037152504888363184 0.085032141029834737 -0.055137075036764141 -0.039164505670778449 0.0055191828729584808 -0.056217848062515258 -0.036788811269013781 0.067380554761737585 0.017238042431955151 -0.0264327743683349
leaf_weight=24 21 26 36 24 20 32 20 20 32 32 27 23 20 26 22
leaf_count=24 21 26 36 24 20 32 20 20 32 32 27 23 20 26 22
internal_value=-5.7285e-11 -0.0329357 0.0383957 -0.0157507 -0.021332 0.0546408 0.0620042 -0.0556053 -0.0272969 0.0161872 -0.0642748 -0.0453229 0.0762063 0.0234505 -0.0193851
internal_weight=405 218 187 124 100 108 76 94 80 79 51 43 40 47 48
internal_count=405 218 187 124 100 108 76 94 80 79 51 43 40 47 48
is_linear=0
shrinkage=0.03


Tree=34
num_leaves=14
num_cat=0
split_feature=4 4 4 4 4 5 1 2 6 7 3 1 1
split_gain=519.366 113.163 57.0214 12.4782 10.113 8.35241 10.3951 7.65301 8.1965 6.70909 11.0134 5.70514 1.55675
threshold=46.110000000000007 56.300000000000018 35.43 73.480000000000004 41.910000000000004 83.700000000000017 53.650000000000013 19.350000000000005 25.000000000000004 8.9358253787804873 10.316200850974692 30.450000000000006 41.45000000000001
decision_type=2 2 2 2 2 2 2 2 2 2 2 2 2
left_child=2 9 11 5 7 6 -3 8 -4 -2 -11 -1 -6
right_child=1 3 4 -5 12 -7 -8 -9 -10 10 -12 -13 -14
leaf_value=-0.067315018393776627 0.017087603463407822 0.038497908793781933 -0.037783658422529696 0.066514848047687147 -0.0058318910482339564 0.027893156494413103 0.061158463086400709 -0.042850727085024118 -0.012638046390243938 -0.011218672042543239 0.014616987142297956 -0.050157847110484093 -0.017668586852028965
leaf_weight=33 34 38 20 31 20 21 35 28 28 33 27 37 20
leaf_count=33 34 38 20 31 20 21 35 28 28 33 27 37 20
internal_value=-5.58104e-11 0.0313087 -0.0368635 0.0500095 -0.0239601 0.0445662 0.0493626 -0.0303863 -0.0231154 0.00644065 0.000407375 -0.0582462 -0.0117502
internal_weight=405 219 186 125 116 94 73 76 48 94 60 70 40
internal_count=405 219 186 125 116 94 73 76 48 94 60 70 40
is_linear=0
shrinkage=0.03


Tree=35
num_leaves=15
num_cat=0
split_feature=0 0 0 10 11 0 3 0 10 8 10 7 2 11
split_gain=504.742 83.7888 66.4869 16.631 14.7502 10.2627 13.5788 8.26093 7.43559 8.17929 6.5045 3.94302 3.87898 3.75216
threshold=34.360000000000007 26.910000000000004 40.680000000000014 253.50000000000003 4.5000000000000009 46.490000000000002 10.376123249085138 23.370000000000005 157.50000000000003 7.830000000000001 187.50000000000003 9.890867660671919 12.450000000000001 3.5000000000000004
decision_type=2 2 2 2 2 2 2 2 2 2 2 2 2 2
left_child=1 7 10 8 5 6 -4 12 9 -3 11 -2 -1 -9
right_child=2 3 4 -5 -6 -7 -8 13 -10 -11 -12 -13 -14 -15
leaf_value=-0.068044884119715002 0.031224408988719404 -0.023233680015090047 0.065918338772925453 0.0076015173317864528 0.034373882696963842 0.071580980792641635 0.032586720806800508 -0.052197913795709608 -0.03111477993428707 -0.0015173545769519275 0.0048126893118023871 0.013841786133125424 -0.051417565650266152 -0.034430776834487913
leaf_weight=28 23 37 22 24 32 32 22 20 36 27 32 24 23 23
leaf_count=28 23 37 22 24 32 32 22 20 36 27 32 24 23 23
internal_value=-7.37987e-11 -0.0310185 0.0361606 -0.0148251 0.0514599 0.058654 0.0492525 -0.0523801 -0.0202075 -0.0140721 0.0152452 0.0223482 -0.0605463 -0.0426946
internal_weight=405 218 187 124 108 76 44 94 100 64 79 47 51 43
internal_count=405 218 187 124 108 76 44 94 100 64 79 47 51 43
is_linear=0
shrinkage=0.03


Tree=36
num_leaves=17
num_cat=0
split_feature=0 0 0 0 0 2 7 9 1 1 7 4 9 7 7 7
split_gain=475.821 89.3 60.2407 15.8994 9.07416 6.98133 25.0348 6.29992 5.9133 5.20693 3.75407 2.72778 2.46605 1.90326 1.69705 1.66194
threshold=33.310000000000009 38.900000000000013 25.640000000000001 46.490000000000002 29.610000000000003 23.150000000000002 10.200220049202825 6.5000000000000009 35.050000000000004 30.450000000000006 15.543762827400384 44.13000000000001 9.5000000000000018 8.8091935952626041 9.6084058639977261 9.7313154053739215
decision_type=2 2 2 2 2 2 2 2 2 2 2 2 2 2 2 2
left_child=2 7 9 5 8 -3 -7 15 -4 -1 -5 -6 -9 -11 -10 -2
right_child=1 3 4 10 11 6 -8 12 14 13 -12 -13 -14 -15 -16 -17
leaf_value=-0.063527283993634304 0.021365782245993614 0.053923381268978117 -0.016540862027969627 0.067636046909860206 -0.0019849103065207596 0.048776553149024647 0.0081561071002347902 -0.0079645346545360318 -0.040578016340732576 -0.053724960386753083 0.050856430615697584 -0.016386487728691307 0.0065907484889030461 -0.041233223219002996 -0.028367431774735451 0.0094304700834410542
leaf_weight=33 21 20 27 28 20 36 22 22 21 23 21 29 20 21 20 21
leaf_count=33 21 20 27 28 20 36 22 22 21 23 21 29 20 21 20 21
internal_value=1.40733e-11 0.0311799 -0.0339122 0.0470524 -0.0203504 0.0386392 0.0333688 0.00718234 -0.0274425 -0.0545191 0.0604448 -0.0105083 -0.00103345 -0.047763 -0.0346216 0.0153981
internal_weight=405 211 194 127 117 78 58 84 68 77 49 49 42 44 41 42
internal_count=405 211 194 127 117 78 58 84 68 77 49 49 42 44 41 42
is_linear=0
shrinkage=0.03


Tree=37
num_leaves=16
num_cat=0
split_feature=0 0 0 0 8 8 8 8 0 4 10 2 7 7 10
split_gain=447.7 84.0224 56.6804 14.9597 9.83302 8.07427 7.66079 7.47264 7.23206 4.78522 4.74278 4.65346 3.53221 2.83918 1.81187
threshold=33.310000000000009 38.900000000000013 25.640000000000001 46.490000000000002 14.530000000000003 10.650000000000002 7.160000000000001 5.580000000000001 29.610000000000003 29.450000000000006 289.50000000000006 17.750000000000004 15.543762827400384 8.7034474545469251 142.50000000000003
decision_type=2 2 2 2 2 2 2 2 2 2 2 2 2 2 2
left_child=2 5 9 6 8 7 -3 -2 11 -1 -8 -4 -5 -11 -10
right_child=1 3 4 12 -6 -7 10 -9 14 13 -12 -13 -14 -15 -16
leaf_value=-0.06509623765945434 0.0010162354297935962 0.026501099792393769 -0.014113328467522349 0.065606964890445971 -0.037322031175312791 -0.0037730863814552629 0.036820069536566732 0.025025836604514292 -0.012154366482049227 -0.053536165901592804 0.056420206225477151 -0.031738787820347801 0.049330737846238266 -0.039583151414990421 0.00061545107513666147
leaf_weight=21 20 33 28 28 23 36 25 28 20 35 20 26 21 21 20
leaf_count=21 20 33 28 28 23 36 25 28 20 35 20 26 21 21 20
internal_value=2.18688e-11 0.0302445 -0.0328948 0.0456408 -0.0197399 0.00696687 0.03748 0.0150218 -0.0154379 -0.0528835 0.0455312 -0.0225997 0.0586314 -0.0483038 -0.00576946
internal_weight=405 211 194 127 117 84 78 48 94 77 45 54 49 56 40
internal_count=405 211 194 127 117 84 78 48 94 77 45 54 49 56 40
is_linear=0
shrinkage=0.03


Tree=38
num_leaves=16
num_cat=0
split_feature=0 0 0 0 0 2 7 1 9 1 7 5 9 10 5
split_gain=421.241 79.0566 53.3306 14.0756 8.14621 6.58223 23.388 6.23437 5.82108 4.68182 3.32345 2.91207 2.15078 1.7544 1.57642
threshold=33.310000000000009 38.900000000000013 25.640000000000001 46.490000000000002 29.560000000000006 23.150000000000002 10.200220049202825 35.050000000000004 6.5000000000000009 30.450000000000006 15.543762827400384 54.900000000000013 9.5000000000000018 190.50000000000003 63.20000000000001
decision_type=2 2 2 2 2 2 2 2 2 2 2 2 2 2 2
left_child=2 8 9 5 7 -3 -7 -4 14 -1 -5 -6 -10 -11 -2
right_child=1 3 4 10 11 6 -8 -9 12 13 -12 -13 -14 -15 -16
leaf_value=-0.059838900457728987 0.020467342186186996 0.051196495816111562 -0.015205718134012487 0.063638755333210728 -0.0013172369599342346 0.046130446642637248 0.0068687677417289131 -0.034059585764219885 -0.0076124063201925976 -0.039422143921256064 0.047850815100329264 -0.015909884929424151 0.0059806547462940207 -0.051452842385508117 0.0088431509690625326
leaf_weight=33 21 20 27 28 20 36 22 38 22 24 21 32 20 20 21
leaf_count=33 21 20 27 28 20 36 22 38 22 24 21 32 20 20 21
internal_value=-1.43631e-10 0.0293372 -0.031908 0.0442716 -0.0191477 0.0363556 0.0312381 -0.026228 0.00675786 -0.051297 0.0568725 -0.0102973 -0.00113952 -0.0448906 0.0146552
internal_weight=405 211 194 127 117 78 58 65 84 77 49 52 42 44 42
internal_count=405 211 194 127 117 78 58 65 84 77 49 52 42 44 42
is_linear=0
shrinkage=0.03


Tree=39
num_leaves=15
num_cat=0
split_feature=0 0 0 2 6 11 6 10 0 10 6 7 9 2
split_gain=396.999 66.1591 52.2442 16.1185 17.4719 14.2561 14.7878 7.73984 6.54506 5.69102 3.68065 3.59185 3.49766 3.47364
threshold=34.360000000000007 26.910000000000004 40.680000000000014 14.250000000000002 37.600000000000001 4.5000000000000009 51.650000000000006 139.50000000000003 23.370000000000005 187.50000000000003 59.95000000000001 9.890867660671919 5.5000000000000009 12.250000000000002
decision_type=2 2 2 2 2 2 2 2 2 2 2 2 2 2
left_child=1 8 9 -3 7 6 -4 -5 13 11 -8 -2 -10 -1
right_child=2 3 5 4 -6 -7 10 -9 12 -11 -12 -13 -14 -15
leaf_value=-0.062064222693443298 0.028645156931294043 0.011544585172086954 0.038755190658072633 -0.015512345794301765 0.0034345600854318874 0.028834328348748384 0.074358704745769499 -0.034412694192276549 -0.029891323693420575 0.0037710592488292604 0.056158197160810233 0.012054648660123348 -0.04704532805085182 -0.04637825233240922
leaf_weight=24 23 20 36 39 26 32 20 39 23 32 20 24 20 27
leaf_count=24 23 20 36 39 26 32 20 39 23 32 20 24 20 27
internal_value=6.12603e-11 -0.0275094 0.0320698 -0.0131201 -0.0178632 0.0456317 0.0527043 -0.0249625 -0.0464911 0.0135294 0.0652585 0.0201734 -0.0378699 -0.0537599
internal_weight=405 218 187 124 104 108 76 78 94 79 40 47 43 51
internal_count=405 218 187 124 104 108 76 78 94 79 40 47 43 51
is_linear=0
shrinkage=0.03


Tree=40
num_leaves=16
num_cat=0
split_feature=0 0 0 2 6 0 9 2 7 4 9 7 3 11 9
split_gain=373.536 62.2491 49.5787 15.1659 16.4393 12.821 6.73097 6.48617 21.3707 6.40445 6.00585 3.09242 2.85909 2.43273 3.5138
threshold=34.360000000000007 26.910000000000004 38.900000000000013 14.250000000000002 37.600000000000001 46.490000000000002 6.5000000000000009 23.150000000000002 10.200220049202825 29.450000000000006 6.5000000000000009 15.543762827400384 7.6635826974437258 2.5000000000000004 5.5000000000000009
decision_type=2 2 2 2 2 2 2 2 2 2 2 2 2 2 2
left_child=1 9 10 -3 6 7 12 -4 -9 -1 -2 -7 -5 -11 -15
right_child=2 3 5 4 -6 11 -8 8 -10 13 -12 -13 -14 14 -16
leaf_value=-0.059696244171687535 0.017512435119424481 0.011198246899992227 0.048902409642934797 -0.025971342717798857 0.0033315233270136209 0.060278247952727328 -0.038273975703526628 0.043325788664321109 0.0057955038259652524 -0.047642189616273187 -0.0015127996634691954 0.045048950165510179 -0.012379396770149469 -0.028711122088134287 -0.045737238496541974
leaf_weight=21 32 20 20 26 26 28 22 36 22 29 28 21 30 24 20
leaf_count=21 32 20 20 26 26 28 22 36 22 29 28 21 30 24 20
internal_value=9.15456e-11 -0.0266841 0.0311077 -0.0127264 -0.0173274 0.0417252 -0.0242136 0.0341702 0.0290902 -0.0450963 0.00863399 0.0537514 -0.0186899 -0.0408964 -0.0364503
internal_weight=405 218 187 124 104 127 78 78 58 94 60 49 56 73 44
internal_count=405 218 187 124 104 127 78 78 58 94 60 49 56 73 44
is_linear=0
shrinkage=0.03


Tree=41
num_leaves=15
num_cat=0
split_feature=0 0 0 0 0 2 7 9 2 5 2 2 9 5
split_gain=351.641 66.2292 44.7247 12.0633 7.22816 6.10284 20.1077 5.11112 4.5355 4.16368 3.83568 3.16763 2.91576 2.52782
threshold=33.310000000000009 38.900000000000013 25.640000000000001 46.490000000000002 29.560000000000006 23.150000000000002 10.200220049202825 4.5000000000000009 18.950000000000003 38.000000000000007 25.550000000000004 12.000000000000002 9.5000000000000018 54.900000000000013
decision_type=2 2 2 2 2 2 2 2 2 2 2 2 2 2
left_child=2 7 9 5 8 -3 -7 -2 -4 -1 -9 -11 -5 -6
right_child=1 3 4 12 13 6 -8 10 -10 11 -12 -13 -14 -15
leaf_value=-0.057939144129102879 0.015337301761081272 0.047435337396338581 -0.017666576447395176 0.045801195214901648 -0.00076414952427148819 0.042026014905422925 0.0056216381710361349 0.0067933812641328374 -0.033842588668832406 -0.05165769789900098 -0.010057844717055559 -0.036838632662068389 0.060589086567716936 -0.014359981168308876
leaf_weight=22 33 20 39 28 20 36 22 31 26 21 20 34 21 32
leaf_count=22 33 20 39 28 20 36 22 31 26 21 20 34 21 32
internal_value=-5.124e-11 0.0268042 -0.0291531 0.0404734 -0.0174676 0.0331451 0.0282175 0.00613772 -0.024137 -0.0469089 0.000185057 -0.0424968 0.0521389 -0.00913082
internal_weight=405 211 194 127 117 78 58 84 65 77 51 55 49 52
internal_count=405 211 194 127 117 78 58 84 65 77 51 55 49 52
is_linear=0
shrinkage=0.03


Tree=42
num_leaves=15
num_cat=0
split_feature=0 0 0 2 6 0 10 10 8 4 0 8 0 7
split_gain=330.992 55.2109 43.774 14.2523 14.9774 11.3503 8.71093 6.92852 6.69952 5.72309 4.78442 4.21944 3.6512 2.92424
threshold=34.360000000000007 26.910000000000004 38.900000000000013 14.250000000000002 37.600000000000001 46.490000000000002 187.50000000000003 139.50000000000003 7.160000000000001 29.450000000000006 43.610000000000007 13.780000000000003 23.370000000000005 15.543762827400384
decision_type=2 2 2 2 2 2 2 2 2 2 2 2 2 2
left_child=1 9 6 -3 7 8 -2 -5 -4 -1 -10 12 -11 -7
right_child=2 3 5 4 -6 13 -8 -9 10 11 -12 -13 -14 -15
leaf_value=-0.056260140112468174 0.018161454078850937 0.011219258353114128 0.021883728747383098 -0.014065619783046152 0.003285147511901764 0.056921577771593415 -0.0049061794478732811 -0.031947958080384593 0.048830192498862737 -0.043525527253746983 0.029222478318427291 -0.0491227167326471 -0.026977405369281768 0.04211219021784407
leaf_weight=21 34 20 33 39 26 28 26 39 24 20 21 23 30 21
leaf_count=21 34 20 33 39 26 28 26 39 24 20 21 23 30 21
internal_value=-2.25415e-11 -0.0251186 0.0292826 -0.0119736 -0.0164338 0.0392592 0.00816548 -0.0230068 0.0321508 -0.0424587 0.0396799 -0.0384884 -0.0335967 0.0505747
internal_weight=405 218 187 124 104 127 60 78 78 94 45 73 50 49
internal_count=405 218 187 124 104 127 60 78 78 94 45 73 50 49
is_linear=0
shrinkage=0.03


Tree=43
num_leaves=16
num_cat=0
split_feature=6 6 3 10 3 6 3 9 2 8 10 8 6 7 3
split_gain=290.982 47.3099 44.7632 21.9801 17.7324 17.007 14.633 8.25326 9.97531 6.94592 6.86984 8.31839 5.50286 5.10772 3.02578
threshold=35.800000000000004 48.050000000000004 12.348805299335979 48.500000000000007 10.90969588622036 24.300000000000004 7.7873285153023017 8.5000000000000018 31.100000000000005 9.6700000000000035 193.50000000000003 7.6900000000000004 29.000000000000004 8.8091935952626041 6.3863118761663591
decision_type=2 2 2 2 2 2 2 2 2 2 2 2 2 2 2
left_child=2 4 5 -3 10 13 12 -5 -9 -8 11 -2 -7 -1 -14
right_child=1 3 -4 7 -6 6 9 8 -10 -11 -12 -13 14 -15 -16
leaf_value=-0.052437991893717222 -3.8655460812151426e-05 0.07002748594013973 0.013106744256801903 0.018589333167183211 0.029956589982305701 -0.04448780676857992 0.0019343902822583914 0.025800561524927615 0.054487891141325233 -0.021904714579947967 -0.0057046559778973459 0.025208959001956827 -0.019144293424487115 -0.035455103202446089 -0.034221701634966809
leaf_weight=28 24 20 24 21 38 22 22 20 24 22 32 23 25 37 23
leaf_count=28 24 20 24 21 38 22 22 20 24 22 32 23 25 37 23
internal_value=2.95983e-12 0.0254917 -0.0253661 0.0425253 0.0131169 -0.0305245 -0.023542 0.034063 0.0414482 -0.00998516 0.00501683 0.0123166 -0.0320634 -0.0427708 -0.0263689
internal_weight=405 202 203 85 117 179 114 65 44 44 79 47 70 65 48
internal_count=405 202 203 85 117 179 114 65 44 44 79 47 70 65 48
is_linear=0
shrinkage=0.03


Tree=44
num_leaves=15
num_cat=0
split_feature=4 4 4 4 2 8 5 1 7 1 4 1 1 11
split_gain=287.1 74.8436 16.4672 9.51265 7.80662 7.75857 6.99918 12.5259 6.7038 9.93743 6.44441 5.28064 3.70425 3.51271
threshold=54.540000000000013 41.910000000000004 35.43 73.480000000000004 22.950000000000003 12.600000000000003 65.15000000000002 45.45000000000001 10.421352973480708 52.900000000000006 48.220000000000006 35.150000000000013 30.450000000000006 2.5000000000000004
decision_type=2 2 2 2 2 2 2 2 2 2 2 2 2 2
left_child=1 2 12 4 -2 11 7 10 9 -6 13 -4 -1 -3
right_child=3 6 5 -5 8 -7 -8 -9 -10 -11 -12 -13 -14 -15
leaf_value=-0.050357203429395501 0.044978999665213952 0.0003813435950062491 -0.0041528483927249903 0.049945728086656135 0.021689036995172502 -0.036572799199819567 -0.014523718804121018 0.022329082642074512 0.01449890240561217 0.048596521573407304 0.010966916169439043 -0.023924998078615433 -0.03653228788762479 -0.015401022652164099
leaf_weight=33 27 22 20 31 30 25 26 23 28 21 21 31 37 30
leaf_count=33 27 22 20 31 30 25 26 23 28 21 21 31 37 30
internal_value=-7.51957e-11 -0.0180594 -0.0325516 0.0353279 0.0310528 -0.0228823 -0.00071626 0.00302326 0.0262933 0.0327686 -0.0030594 -0.0161712 -0.0430497 -0.00872387
internal_weight=405 268 146 137 106 76 122 96 79 51 73 51 70 52
internal_count=405 268 146 137 106 76 122 96 79 51 73 51 70 52
is_linear=0
shrinkage=0.03


Tree=45
num_leaves=16
num_cat=0
split_feature=0 0 0 3 3 11 0 8 9 8 8 8 4 2 7
split_gain=276.691 52.33 35.4084 11.0447 14.9688 9.7927 9.92103 8.02173 6.77439 15.5412 6.17253 6.86937 5.32748 3.74766 1.72947
threshold=33.310000000000009 38.900000000000013 25.640000000000001 16.202306925860039 13.18559055212212 4.5000000000000009 45.370000000000012 14.530000000000003 3.5000000000000004 9.1800000000000015 10.650000000000002 5.580000000000001 40.030000000000008 12.450000000000001 7.591139941633446
decision_type=2 2 2 2 2 2 2 2 2 2 2 2 2 2 2
left_child=2 10 13 4 5 6 -3 8 -4 -10 11 -2 -11 -1 -15
right_child=1 3 7 -5 -6 -7 -8 -9 9 12 -12 -13 -14 14 -16
leaf_value=-0.048540393400031169 -0.00097930040583014467 0.030149754523657837 -0.022787290335400029 0.015463889686390758 0.06119569145143032 0.015557068509981037 0.054359337866306305 -0.031343170605275944 0.015974770322442051 -0.027362018655985594 -0.0039840773120522503 0.022040760441616708 -0.0059685793058650398 -0.041531487509608271 -0.029055410787463189
leaf_weight=37 20 39 32 20 23 20 25 23 20 20 36 28 22 20 20
leaf_count=37 20 39 32 20 23 20 25 23 20 20 36 28 22 20 20
internal_value=-1.57807e-11 0.0237766 -0.0258602 0.0359271 0.039752 0.0338805 0.0396066 -0.0154627 -0.0115771 -0.00579119 0.00540629 0.0124491 -0.0161559 -0.0416589 -0.0352934
internal_weight=405 211 194 127 107 84 64 117 94 62 84 48 42 77 40
internal_count=405 211 194 127 107 84 64 117 94 62 84 48 42 77 40
is_linear=0
shrinkage=0.03


Tree=46
num_leaves=15
num_cat=0
split_feature=0 0 0 10 11 6 6 0 10 10 8 4 8 0
split_gain=260.509 43.9408 35.6209 12.5489 12.0892 10.5023 7.53629 5.73813 7.84361 5.48346 5.14471 4.75645 3.77956 3.00065
threshold=34.360000000000007 26.910000000000004 41.810000000000009 253.50000000000003 4.5000000000000009 36.550000000000004 51.650000000000006 38.900000000000013 187.50000000000003 139.50000000000003 5.830000000000001 29.450000000000006 13.780000000000003 23.370000000000005
decision_type=2 2 2 2 2 2 2 2 2 2 2 2 2 2
left_child=1 11 7 5 6 9 -4 8 -2 10 -3 -1 13 -13
right_child=2 3 4 -5 -6 -7 -8 -9 -10 -11 -12 12 -14 -15
leaf_value=-0.050335671646254403 0.01668694873504779 -0.025301986763253809 0.034015257524119477 0.0089234485337510699 0.023110739998519418 0.0042115198932588102 0.054744482926632226 0.022932410733774302 -0.0052021920698909797 -0.02971331584645668 -0.0053801898977586197 -0.038505374550819392 -0.044198871436326399 -0.023503741413354873
leaf_weight=21 34 20 27 24 30 20 38 32 26 32 28 20 23 30
leaf_count=21 34 20 27 24 30 20 38 32 26 32 28 20 23 30
internal_value=8.18184e-11 -0.0222842 0.0259784 -0.0105574 0.0388634 -0.0152328 0.0461339 0.0126732 0.00720165 -0.0200939 -0.0136809 -0.0377536 -0.0341342 -0.0295044
internal_weight=405 218 187 124 95 100 65 92 60 80 48 94 73 50
internal_count=405 218 187 124 95 100 65 92 60 80 48 94 73 50
is_linear=0
shrinkage=0.03


Tree=47
num_leaves=16
num_cat=0
split_feature=0 0 0 3 3 11 6 8 9 8 8 8 4 5 7
split_gain=245.184 46.2416 31.4063 10.2751 14.1016 8.82653 14.7391 7.25845 6.22474 14.2857 5.64293 6.45776 4.90388 3.26999 2.39965
threshold=33.310000000000009 38.900000000000013 25.640000000000001 16.202306925860039 13.18559055212212 4.5000000000000009 53.800000000000004 14.530000000000003 3.5000000000000004 9.1800000000000015 10.650000000000002 5.580000000000001 40.030000000000008 38.000000000000007 8.8091935952626041
decision_type=2 2 2 2 2 2 2 2 2 2 2 2 2 2 2
left_child=2 10 13 4 5 6 -3 8 -4 -10 11 -2 -11 -1 -15
right_child=1 3 7 -5 -6 -7 -8 -9 9 12 -12 -13 -14 14 -16
leaf_value=-0.0489974686097015 -0.001172606650739908 0.025703799612820145 -0.021600766087649388 0.014066425535827874 0.058306306114663246 0.014398104261606931 0.055212077128887177 -0.029657148265320322 0.015559525921940801 -0.025997369170188901 -0.0038651342193285619 0.021147109000012279 -0.0054720742035318497 -0.040624950283672662 -0.027921031007300253
leaf_weight=22 20 39 32 20 23 20 25 23 20 20 36 28 22 32 23
leaf_count=22 20 39 32 20 23 20 25 23 20 20 36 28 22 32 23
internal_value=-4.24959e-11 0.022382 -0.0243433 0.0338038 0.0374931 0.0317942 0.0372305 -0.0145511 -0.010855 -0.00530875 0.00511336 0.0118472 -0.015246 -0.0392224 -0.0353124
internal_weight=405 211 194 127 107 84 64 117 94 62 84 48 42 77 55
internal_count=405 211 194 127 107 84 64 117 94 62 84 48 42 77 55
is_linear=0
shrinkage=0.03


Tree=48
num_leaves=13
num_cat=0
split_feature=0 0 0 2 6 11 11 10 7 4 4 10
split_gain=230.818 39.0308 31.888 12.3324 11.5874 10.7163 6.92657 5.89573 5.41003 8.32944 4.3039 2.51005
threshold=34.360000000000007 26.910000000000004 41.810000000000009 14.250000000000002 37.600000000000001 4.5000000000000009 2.5000000000000004 139.50000000000003 9.2380974565388296 54.540000000000013 29.450000000000006 157.50000000000003
decision_type=2 2 2 2 2 2 2 2 2 2 2 2
left_child=1 10 8 -3 7 6 -4 -5 -2 -10 -1 -12
right_child=2 3 5 4 -6 -7 -8 -9 9 -11 11 -13
leaf_value=-0.047523958086967466 0.020345187618468815 0.011650549471378327 0.034970309726289797 -0.011606130044047648 0.00327179328753398 0.021813158124685286 0.054747158320886745 -0.028101911117824223 -0.0060467344025770817 0.017743487393913359 -0.026918374328659133 -0.038070355844410028
leaf_weight=21 39 20 37 39 26 30 28 39 27 26 39 34
leaf_count=21 39 20 37 39 26 30 28 39 27 26 39 34
internal_value=-2.6353e-11 -0.0209759 0.0244532 -0.00992368 -0.0140726 0.0366444 0.0434896 -0.019854 0.0118645 0.00562394 -0.0355554 -0.0321124
internal_weight=405 218 187 124 104 95 65 78 92 53 94 73
internal_count=405 218 187 124 104 95 65 78 92 53 94 73
is_linear=0
shrinkage=0.03


Tree=49
num_leaves=14
num_cat=0
split_feature=4 4 6 4 3 5 1 6 10 9 2 6 2
split_gain=212.189 56.7292 12.2499 11.6821 10.3924 6.66966 10.4903 9.11222 5.73595 12.7253 5.07662 7.14745 3.19351
threshold=54.540000000000013 41.910000000000004 41.20000000000001 35.43 7.9991903975789329 65.15000000000002 45.45000000000001 35.800000000000004 30.500000000000004 9.5000000000000018 19.350000000000005 25.000000000000004 12.450000000000001
decision_type=2 2 2 2 2 2 2 2 2 2 2 2 2
left_child=1 3 -2 12 -4 6 7 -3 -6 -10 11 -5 -1
right_child=2 5 4 10 8 -7 -8 -9 9 -11 -12 -13 -14
leaf_value=-0.043392753405230383 0.0098612856805663212 -0.013694289161768906 0.018398088373651263 -0.027774127028882503 0.053510064750909803 -0.013904936709083044 0.02089161639628203 0.0075539506398714512 0.020236327072669719 0.046624016970592111 -0.030150362386235169 -0.00429276236465999 -0.030577224471739359
leaf_weight=35 22 34 28 20 20 26 23 39 29 38 28 28 35
leaf_count=35 22 34 28 20 20 26 23 39 29 38 28 28 35
internal_value=-2.15325e-11 -0.0155256 0.0303713 -0.0281427 0.0342949 -0.000426417 0.00322401 -0.00234249 0.0394111 0.0352025 -0.0199986 -0.0140767 -0.036985
internal_weight=405 268 137 146 115 122 96 73 87 67 76 48 70
internal_count=405 268 137 146 115 122 96 73 87 67 76 48 70
is_linear=0
shrinkage=0.03


Tree=50
num_leaves=14
num_cat=0
split_feature=0 0 0 2 6 11 6 9 7 4 7 3 2
split_gain=204.799 34.6558 28.3229 12.8733 11.3013 9.99884 6.62431 5.93076 4.85836 7.29424 3.18 2.28779 2.26213
threshold=34.360000000000007 26.010000000000002 41.810000000000009 13.950000000000001 37.600000000000001 4.5000000000000009 51.650000000000006 6.5000000000000009 9.2380974565388296 54.540000000000013 8.8091935952626041 7.7873285153023017 14.850000000000003
decision_type=2 2 2 2 2 2 2 2 2 2 2 2 2
left_child=1 10 8 -3 7 6 -4 11 -2 -10 12 -5 -1
right_child=2 3 5 4 -6 -7 -8 -9 9 -11 -12 -13 -14
leaf_value=-0.045311501890420915 0.019206319527270702 0.010976539190326417 0.029773651899562943 -0.020059758289850182 0.0029102228596233405 0.020197135828435419 0.04920820611872171 -0.03196071612127125 -0.005665576151675648 0.016597273326120696 -0.027746601337566974 -0.0088682998464472834 -0.032286141436547039
leaf_weight=30 39 21 27 35 26 30 38 25 27 26 30 31 20
leaf_count=30 39 21 27 35 26 30 38 25 27 26 30 31 20
internal_value=-6.42958e-11 -0.0197583 0.0230338 -0.0106511 -0.014533 0.0345233 0.0411354 -0.0195168 0.0111696 0.00525582 -0.0354683 -0.0148032 -0.0401014
internal_weight=405 218 187 138 117 95 65 91 92 53 80 66 50
internal_count=405 218 187 138 117 95 65 91 92 53 80 66 50
is_linear=0
shrinkage=0.03


Tree=51
num_leaves=16
num_cat=0
split_feature=0 4 0 3 3 11 6 10 3 10 9 3 7 7 2
split_gain=192.707 36.4893 24.8716 9.67035 13.8341 11.5952 10.9754 5.18968 8.25169 4.6523 7.39873 4.00863 7.3347 2.99206 2.12844
threshold=33.310000000000009 56.300000000000018 26.010000000000002 16.202306925860039 13.18559055212212 4.5000000000000009 53.800000000000004 229.50000000000003 9.5070687829638327 157.50000000000003 3.5000000000000004 10.316200850974692 8.9358253787804873 8.8091935952626041 14.850000000000003
decision_type=2 2 2 2 2 2 2 2 2 2 2 2 2 2 2
left_child=2 11 13 4 5 6 -3 8 9 10 -4 12 -2 14 -1
right_child=1 3 7 -5 -6 -7 -8 -9 -10 -11 -12 -13 -14 -15 -16
leaf_value=-0.043952155858278268 0.010756559121454585 0.024097270888049856 -0.017978673921898006 0.011071714204328601 0.054393533286841017 0.0082029055673629031 0.049828245306015012 -0.00050605401098728175 -0.032942744974046943 -0.023250738724367694 0.0053409824643284084 0.013882542519733823 -0.010769863224455287 -0.026914203595370053 -0.031317557084374129
leaf_weight=30 29 37 24 20 23 20 25 25 20 20 25 29 28 30 20
leaf_count=30 29 37 24 20 23 20 25 25 20 20 25 29 28 30 20
internal_value=7.84984e-11 0.0198428 -0.0215816 0.0301908 0.0338325 0.0280654 0.0344727 -0.0125832 -0.0159757 -0.0110577 -0.00608089 0.00480207 0.000182176 -0.0344043 -0.0388983
internal_weight=405 211 194 125 105 82 62 114 89 69 49 86 57 80 50
internal_count=405 211 194 125 105 82 62 114 89 69 49 86 57 80 50
is_linear=0
shrinkage=0.03


Tree=52
num_leaves=15
num_cat=0
split_feature=0 0 0 2 11 11 10 7 4 4 8 9 0 0
split_gain=181.458 30.9992 25.3717 11.0918 8.77948 6.42365 4.54355 5.92236 4.08978 3.71796 3.23921 3.10984 2.93974 2.41491
threshold=34.360000000000007 26.910000000000004 41.810000000000009 14.250000000000002 4.5000000000000009 2.5000000000000004 187.50000000000003 9.2380974565388296 45.210000000000015 29.450000000000006 13.780000000000003 6.5000000000000009 29.070000000000004 23.370000000000005
decision_type=2 2 2 2 2 2 2 2 2 2 2 2 2 2
left_child=1 9 6 -3 5 -4 7 -2 11 -1 13 12 -5 -11
right_child=2 3 4 8 -6 -7 -8 -9 -10 10 -12 -13 -14 -15
leaf_value=-0.042715518942901071 0.02748391967428767 0.011711678266525269 0.030547586251553648 -0.0055763620289508257 0.019131684035062789 0.049592936358281541 0.0021373385939902315 0.0076530482992529869 -0.0048430337600017847 -0.03218020069599152 -0.037708970204643581 -0.026730184342179979 -0.020946119991796356 -0.018722179107367991
leaf_weight=21 23 20 37 24 30 28 36 33 38 20 23 21 21 30
leaf_count=21 23 20 37 24 30 28 36 33 38 20 23 21 21 30
internal_value=-7.592e-11 -0.0185983 0.0216815 -0.00874868 0.0325559 0.0387517 0.0104524 0.0157979 -0.0126834 -0.0315915 -0.0283914 -0.0171975 -0.0127489 -0.0241054
internal_weight=405 218 187 124 95 65 92 56 104 94 73 66 45 50
internal_count=405 218 187 124 95 65 92 56 104 94 73 66 45 50
is_linear=0
shrinkage=0.03


Tree=53
num_leaves=16
num_cat=0
split_feature=0 0 0 0 8 0 8 10 8 8 11 4 5 10 8
split_gain=170.793 32.7231 22.0295 7.38396 6.07054 5.16262 5.07334 5.92222 10.1419 5.02445 5.66412 3.14415 3.0134 2.85255 2.27482
threshold=33.310000000000009 38.900000000000013 26.010000000000002 46.490000000000002 7.160000000000001 43.610000000000007 14.530000000000003 88.500000000000014 9.6700000000000035 10.650000000000002 2.5000000000000004 41.370000000000012 38.000000000000007 274.50000000000006 13.780000000000003
decision_type=2 2 2 2 2 2 2 2 2 2 2 2 2 2 2
left_child=2 9 12 4 -3 -6 7 -4 -9 10 -2 -10 -1 -5 -14
right_child=1 3 6 13 5 -7 -8 8 11 -11 -12 -13 14 -15 -16
leaf_value=-0.041839138015427373 0.020392501536011697 0.012782122886485673 -0.019176431884698104 0.031146859305777722 0.03922738117165863 0.01885943851300648 -0.024790680818259716 0.014247636973857879 -0.020327719632536174 -0.0043184562472742983 -0.00023630627005806438 -0.0035058956220746038 -0.024323394398230152 0.045773578179734091 -0.036685653882367268
leaf_weight=22 25 33 32 28 24 21 22 20 20 36 23 20 37 21 21
leaf_count=22 25 33 32 28 24 21 22 20 20 36 23 20 37 21 21
internal_value=-1.00643e-10 0.0186805 -0.0203175 0.0282888 0.0225553 0.0297223 -0.0118488 -0.00875397 -0.00319533 0.00415373 0.0105079 -0.0119168 -0.0323853 0.0374155 -0.0287994
internal_weight=405 211 194 127 78 45 114 92 60 84 48 40 80 49 58
internal_count=405 211 194 127 78 45 114 92 60 84 48 40 80 49 58
is_linear=0
shrinkage=0.03


Tree=54
num_leaves=15
num_cat=0
split_feature=4 4 6 10 9 8 6 3 8 8 6 2 2 3
split_gain=157.483 43.3563 10.183 9.14363 13.1475 10.2155 8.20353 6.45851 4.95351 11.8 6.50918 4.33458 4.03849 3.57516
threshold=54.540000000000013 41.910000000000004 41.20000000000001 44.500000000000007 8.5000000000000018 8.5300000000000029 28.600000000000005 9.1056225085616536 8.3000000000000007 5.0100000000000007 38.70000000000001 12.000000000000002 18.950000000000003 6.4770279753490749
decision_type=2 2 2 2 2 2 2 2 2 2 2 2 2 2
left_child=1 6 -2 -4 -5 -6 7 11 9 -3 -10 -1 -8 -13
right_child=2 8 3 4 5 -7 12 -9 10 -11 -12 13 -14 -15
leaf_value=-0.045308721790259535 0.0074650771319019526 -0.011976209596863815 0.045014020469453596 0.010086344603914766 0.01693499012477696 0.043812105988019275 -0.0053450732614146543 -0.01801242318470031 -0.014108712609756636 0.016044982434005328 0.0054782508772153122 -0.036935879883170125 -0.023359548779470579 -0.020353887849910691
leaf_weight=22 22 21 27 33 20 35 24 32 37 38 26 25 21 22
leaf_count=22 22 21 27 33 20 35 24 32 37 38 26 25 21 22
internal_value=-3.19237e-11 -0.0133753 0.0261648 0.0297422 0.0250565 0.0340386 -0.0244055 -0.0291522 -0.000175237 0.00607134 -0.0060252 -0.0343185 -0.0137518 -0.0291741
internal_weight=405 268 137 115 88 55 146 101 122 59 63 69 45 47
internal_count=405 268 137 115 88 55 146 101 122 59 63 69 45 47
is_linear=0
shrinkage=0.03


Tree=55
num_leaves=14
num_cat=0
split_feature=0 0 0 2 6 11 11 10 9 4 4 8 0
split_gain=151.684 25.8858 21.4024 10.1507 8.63185 8.22886 5.84114 4.80854 4.31895 4.00268 3.18512 2.85969 2.08474
threshold=34.360000000000007 26.910000000000004 41.810000000000009 14.250000000000002 37.600000000000001 4.5000000000000009 2.5000000000000004 139.50000000000003 4.5000000000000009 54.720000000000006 29.450000000000006 13.780000000000003 23.370000000000005
decision_type=2 2 2 2 2 2 2 2 2 2 2 2 2
left_child=1 10 8 -3 7 6 -4 -5 -2 -10 -1 12 -12
right_child=2 3 5 4 -6 -7 -8 -9 9 -11 11 -13 -14
leaf_value=-0.039173556566238402 0.017087161388391482 0.011569601811468599 0.027985793059515589 -0.0093088030102304545 0.003202288027566213 0.016814284943044187 0.046147093623876569 -0.024206203381316019 -0.0032848701532930133 0.013349650956730803 -0.029390972351655362 -0.034670278935328772 -0.016886746659874916
leaf_weight=21 39 20 37 39 26 30 28 39 30 23 20 23 30
leaf_count=21 39 20 37 39 26 30 28 39 30 23 20 23 30
internal_value=-1.0348e-13 -0.0170042 0.0198231 -0.0080035 -0.0117676 0.0298108 0.0358091 -0.0167575 0.00950973 0.00393388 -0.0288775 -0.0259156 -0.0218884
internal_weight=405 218 187 124 104 95 65 78 92 53 94 73 50
internal_count=405 218 187 124 104 95 65 78 92 53 94 73 50
is_linear=0
shrinkage=0.03


Tree=56
num_leaves=16
num_cat=0
split_feature=0 4 0 3 3 10 3 8 8 0 5 8 3 5 7
split_gain=142.723 27.2345 18.3372 8.95883 12.6654 4.65265 7.93822 4.32511 7.43883 4.18953 3.84341 3.5849 3.32713 2.63153 2.00166
threshold=33.310000000000009 56.300000000000018 26.010000000000002 16.202306925860039 13.18559055212212 229.50000000000003 9.5070687829638327 12.600000000000003 7.830000000000001 46.490000000000002 67.15000000000002 8.0500000000000025 10.376123249085138 38.000000000000007 8.8091935952626041
decision_type=2 2 2 2 2 2 2 2 2 2 2 2 2 2 2
left_child=2 10 13 4 9 6 7 8 -4 12 11 -2 -3 -1 -15
right_child=1 3 5 -5 -6 -7 -8 -9 -10 -11 -12 -13 -14 14 -16
leaf_value=-0.038417691775936291 0.015537050159583831 0.025263115157046028 -0.016864329404805017 0.0076142348907887935 0.049195065044838442 0.0005886795222759247 -0.030700352895772085 -0.020991503143217415 0.0065575140334952339 0.034864303696414696 -0.0070752868907792222 0.0013639010799427827 0.010530837137590756 -0.031255735186859965 -0.020049254687932821
leaf_weight=22 29 37 23 20 23 25 20 20 26 23 21 36 22 32 26
leaf_count=22 29 37 23 20 23 25 20 20 26 23 21 36 22 32 26
internal_value=3.55627e-11 0.0170766 -0.018573 0.0260165 0.0295217 -0.0108465 -0.0140587 -0.00923499 -0.00443641 0.0240036 0.00408249 0.00768731 0.0197697 -0.0295832 -0.0262321
internal_weight=405 211 194 125 105 114 89 69 49 82 86 65 59 80 58
internal_count=405 211 194 125 105 114 89 69 49 82 86 65 59 80 58
is_linear=0
shrinkage=0.03


Tree=57
num_leaves=15
num_cat=0
split_feature=0 0 0 2 6 11 6 9 10 4 4 0 8 0
split_gain=134.665 23.0179 19.1246 9.58829 7.8635 7.62367 5.51107 4.51195 4.00256 3.90885 2.87005 2.68718 2.63008 1.86553
threshold=34.360000000000007 26.910000000000004 41.810000000000009 14.250000000000002 37.600000000000001 4.5000000000000009 51.650000000000006 6.5000000000000009 52.500000000000007 54.720000000000006 29.450000000000006 29.070000000000004 13.780000000000003 23.370000000000005
decision_type=2 2 2 2 2 2 2 2 2 2 2 2 2 2
left_child=1 10 8 -3 7 6 -4 11 -2 -10 -1 -5 13 -12
right_child=2 3 5 4 -6 -7 -8 -9 9 -11 12 -13 -14 -15
leaf_value=-0.036991707150425233 0.018637713568492066 0.011488772481679916 0.0235295608970854 -0.0038446180871687828 0.0030953733193186611 0.015609712585806847 0.041256022065093642 -0.027467046061700039 -0.0017070758385428536 0.013092597718511161 -0.027641591280698777 -0.017124149202718399 -0.032802407955345898 -0.01581302389129996
leaf_weight=21 27 20 27 24 26 30 38 22 36 29 20 32 23 30
leaf_count=21 27 20 27 24 26 30 38 22 36 29 20 32 23 30
internal_value=-2.76982e-11 -0.0160219 0.0186779 -0.00753438 -0.0111927 0.0281191 0.0338927 -0.0159554 0.00892879 0.00489586 -0.0272181 -0.0114329 -0.0244065 -0.0205445
internal_weight=405 218 187 124 104 95 65 78 92 65 94 56 73 50
internal_count=405 218 187 124 104 95 65 78 92 65 94 56 73 50
is_linear=0
shrinkage=0.03


Tree=58
num_leaves=16
num_cat=0
split_feature=4 4 2 4 5 3 3 1 4 8 9 3 3 3 2
split_gain=123.965 35.1698 7.10567 7.39702 6.50152 7.97359 6.45263 6.07792 5.89714 5.06721 6.16375 11.8526 4.86304 2.65117 2.10116
threshold=54.540000000000013 41.910000000000004 22.950000000000003 73.480000000000004 65.700000000000017 10.326567198008901 10.326567198008901 41.850000000000001 32.790000000000006 14.380000000000003 3.5000000000000004 7.8681174848524913 8.0607647797950488 8.256449383852237 12.250000000000002
decision_type=2 2 2 2 2 2 2 2 2 2 2 2 2 2 2
left_child=1 8 -2 6 5 7 12 -3 14 10 -10 -12 -4 -9 -1
right_child=2 4 3 -5 -6 -7 -8 13 9 -11 11 -13 -14 -15 -16
leaf_value=-0.036127298502967906 0.0366942963350032 -0.010166308918169565 0.012108928598463535 0.032433287501335145 -0.013972623739391564 0.02034830120578408 0.0036772494323166279 0.013949066031491384 -0.027448219444070544 -0.02981508944345557 -0.022165096598780819 0.0062139199831737916 0.030820926690101624 -0.00095322236418724068 -0.023679324252449944
leaf_weight=26 28 35 25 30 24 20 29 22 21 23 27 26 25 21 23
leaf_count=26 28 35 25 30 24 20 29 22 21 23 27 26 25 21 23
internal_value=-2.36108e-11 -0.0118669 0.0232141 0.0197512 2.18363e-05 0.00344905 0.0149353 -0.00088409 -0.0218013 -0.017516 -0.0136934 -0.00824331 0.0214649 0.0066712 -0.0302844
internal_weight=405 268 137 109 122 98 79 78 146 97 74 53 50 43 49
internal_count=405 268 137 109 122 98 79 78 146 97 74 53 50 43 49
is_linear=0
shrinkage=0.03


Tree=59
num_leaves=16
num_cat=0
split_feature=0 0 0 3 2 3 6 6 11 7 4 6 3 2 3
split_gain=119.64 20.6565 17.2455 8.65193 8.75967 8.27007 7.67104 6.07141 5.50302 4.05177 4.89505 3.28075 3.04847 3.65159 3.1258
threshold=34.360000000000007 29.560000000000006 41.810000000000009 15.381693489279206 34.350000000000009 9.5685389983435449 28.600000000000005 36.550000000000004 2.5000000000000004 9.2380974565388296 54.540000000000013 31.150000000000002 9.1056225085616536 12.000000000000002 6.4770279753490749
decision_type=2 2 2 2 2 2 2 2 2 2 2 2 2 2 2
left_child=1 6 9 4 8 7 12 -3 -4 -2 -11 -8 13 -1 -15
right_child=2 5 3 -5 -6 -7 11 -9 -10 10 -12 -13 -14 14 -16
leaf_value=-0.039974635889415036 0.015686690426216676 -0.019557480107133204 0.029524201311171054 0.010552206755332324 0.019653555145186765 0.011655830436944962 -0.0027137672049658635 0.0011484378933906555 0.051512361850057323 -0.0060000272095203392 0.012237628737034704 -0.01948300224329744 -0.01856184843807451 -0.032423241099715228 -0.016918313256041571
leaf_weight=22 39 26 20 23 31 25 21 25 21 27 26 21 31 25 22
leaf_count=22 39 26 20 23 31 25 21 25 21 27 26 21 31 25 22
internal_value=-3.49073e-11 -0.0151017 0.0176052 0.0265706 0.0316876 -0.00247879 -0.0218576 -0.00940752 0.0407864 0.00834738 0.00294675 -0.0110984 -0.0263764 -0.0298873 -0.0251656
internal_weight=405 218 187 95 72 76 142 51 41 92 53 42 100 69 47
internal_count=405 218 187 95 72 76 142 51 41 92 53 42 100 69 47
is_linear=0
shrinkage=0.03


Tree=60
num_leaves=16
num_cat=0
split_feature=0 0 0 3 11 3 2 3 9 5 9 7 3 7 3
split_gain=112.569 19.4357 16.2263 8.1406 8.36213 7.78131 5.52653 5.08214 4.05047 4.0391 6.32989 3.94119 3.63647 1.96228 1.42794
threshold=34.360000000000007 29.560000000000006 41.810000000000009 15.381693489279206 4.5000000000000009 9.5685389983435449 12.450000000000001 7.8681174848524913 6.5000000000000009 70.750000000000014 4.5000000000000009 9.0756672839064603 8.8928877078437711 8.8091935952626041 5.2712834804910935
decision_type=2 2 2 2 2 2 2 2 2 2 2 2 2 2 2
left_child=1 6 9 4 11 8 12 14 -3 10 -2 -4 -1 -12 -8
right_child=2 5 3 -5 -6 -7 7 -9 -10 -11 13 -13 -14 -15 -16
leaf_value=-0.036401413228096709 0.021934808347374199 -0.0011543030209011501 0.026630430590361357 0.010235640562098958 0.014251501031219959 0.011306155639886855 -0.015960884069403013 -0.0056047081302564869 -0.018092660401016473 -0.0038297677785158156 0.010074906029145826 0.043606877488782628 -0.020102605514905669 -0.0029088523539248855 -0.024935869766542541
leaf_weight=28 30 27 20 23 20 25 27 26 24 20 22 32 22 20 39
leaf_count=28 30 27 20 23 20 25 27 26 24 20 22 32 22 20 39
internal_value=-2.13514e-11 -0.0146486 0.017077 0.0257735 0.0307369 -0.00240442 -0.0212018 -0.0168388 -0.00912529 0.00809695 0.0114099 0.0370775 -0.0292299 0.00389216 -0.0212643
internal_weight=405 218 187 95 72 76 142 92 51 92 72 52 50 42 66
internal_count=405 218 187 95 72 76 142 92 51 92 72 52 50 42 66
is_linear=0
shrinkage=0.03


Tree=61
num_leaves=16
num_cat=0
split_feature=6 0 0 6 11 6 6 2 6 11 5 11 10 4 0
split_gain=106.063 28.5376 12.7213 10.8337 9.41081 7.05704 5.90706 3.11867 3.054 3.04763 2.40009 2.16609 1.77444 1.32802 1.22492
threshold=41.20000000000001 29.560000000000006 41.810000000000009 29.350000000000005 4.5000000000000009 28.600000000000005 35.800000000000004 20.750000000000004 31.150000000000002 1.5000000000000002 38.000000000000007 3.5000000000000004 187.50000000000003 46.110000000000007 24.970000000000002
decision_type=2 2 2 2 2 2 2 2 2 2 2 2 2 2 2
left_child=1 5 12 -3 9 10 13 -8 -7 -4 -1 14 -2 -5 -12
right_child=2 3 4 6 -6 8 7 -9 -10 -11 11 -13 -14 -15 -16
leaf_value=-0.0336513026939197 0.014437184836114605 0.018962378853133746 0.025620845102239401 -0.018977269392460583 0.012487488348896686 -0.0021564908325672149 0.010689295572893959 -0.0040147904317606896 -0.018335855166826929 0.039276140045962839 -0.022307820764298623 -0.016437727259472013 0.0039174916171294981 -0.0081756178076778131 -0.032183185156434778
leaf_weight=22 31 21 24 20 26 21 21 34 21 38 26 32 27 21 20
leaf_count=22 31 21 24 20 26 21 21 34 21 38 26 32 27 21 20
internal_value=-2.28324e-11 -0.0115266 0.0204479 -0.000555992 0.0276371 -0.0205658 -0.00482564 0.0015995 -0.0102462 0.0339902 -0.0249 -0.0224317 0.00954009 -0.0134447 -0.0266015
internal_weight=405 259 146 117 88 142 96 55 42 62 100 78 58 41 46
internal_count=405 259 146 117 88 142 96 55 42 62 100 78 58 41 46
is_linear=0
shrinkage=0.03


Tree=62
num_leaves=15
num_cat=0
split_feature=0 0 0 2 3 2 6 10 5 10 3 2 7 3
split_gain=99.7949 17.192 14.2453 8.47399 7.40841 8.16399 6.70812 3.99993 3.77738 7.97164 2.10404 4.44571 1.91977 1.34992
threshold=34.360000000000007 26.910000000000004 41.810000000000009 14.250000000000002 15.381693489279206 33.250000000000007 37.600000000000001 139.50000000000003 70.750000000000014 187.50000000000003 8.8928877078437711 12.000000000000002 9.2380974565388296 6.4770279753490749
decision_type=2 2 2 2 2 2 2 2 2 2 2 2 2 2
left_child=1 10 8 -3 5 -4 7 -5 9 12 11 -1 -2 -13
right_child=2 3 4 6 -6 -7 -8 -9 -10 -11 -12 13 -14 -15
leaf_value=-0.037483614470277517 0.02555444424705846 0.011426392380148172 0.0393487803108458 -0.0075017167685123599 0.0094045955622973649 0.019137033315727841 0.0033002864110928316 -0.021088919845911172 -0.0038690045177936553 -0.0012865879073546364 -0.014835132066160441 -0.025051960480632258 0.012873273444446649 -0.015263173106525625
leaf_weight=21 21 20 35 39 23 37 26 39 20 29 20 32 22 21
leaf_count=21 21 20 35 39 23 37 26 39 20 29 20 32 22 21
internal_value=-6.65723e-12 -0.0137924 0.0160789 -0.00645725 0.0242272 0.0289622 -0.00989642 -0.0142953 0.00766483 0.0108687 -0.0234686 -0.025802 0.0190664 -0.0211734
internal_weight=405 218 187 124 95 72 104 78 92 72 94 74 43 53
internal_count=405 218 187 124 95 72 104 78 92 72 94 74 43 53
is_linear=0
shrinkage=0.03


Tree=63
num_leaves=17
num_cat=0
split_feature=6 0 2 6 10 6 6 9 2 10 6 6 3 2 3 3
split_gain=94.272 25.476 12.4522 20.529 17.3428 10.0491 6.48053 5.97213 6.03036 5.42131 8.25174 2.81132 2.46471 3.01406 2.7651 0.783965
threshold=41.20000000000001 29.560000000000006 22.950000000000003 48.050000000000004 48.500000000000007 29.350000000000005 28.600000000000005 8.5000000000000018 31.100000000000005 64.500000000000014 36.550000000000004 31.150000000000002 9.1056225085616536 12.000000000000002 6.4770279753490749 7.6635826974437258
decision_type=2 2 2 2 2 2 2 2 2 2 2 2 2 2 2 2
left_child=1 6 -2 15 -5 -3 12 -6 -9 -7 -11 -8 13 -1 -15 -4
right_child=2 5 3 4 7 9 11 8 -10 10 -12 -13 -14 14 -16 -17
leaf_value=-0.035882471400228412 0.04065321639712368 0.018296673159514155 0.0021640186496078967 0.048456286350265144 0.003347402885556221 0.0052366293492642317 -0.0017568805068731307 0.010626072054379619 0.032930888775736092 -0.021160695265978573 0.0005786666680466045 -0.017280086739254848 -0.016534389673221492 -0.029254195538163181 -0.014671292590316047 -0.0062357912175357334
leaf_weight=22 21 21 20 20 21 33 21 20 24 30 33 21 31 25 22 20
leaf_count=22 21 21 20 20 21 33 21 20 24 30 33 21 31 25 22 20
internal_value=2.70256e-11 -0.0108671 0.0192778 0.0156868 0.0240269 -0.000501589 -0.0194076 0.0165101 0.0227923 -0.00461371 -0.00977341 -0.00951848 -0.023561 -0.0267179 -0.0224282 -0.00203589
internal_weight=405 259 146 125 85 117 142 65 44 96 63 42 100 69 47 40
internal_count=405 259 146 125 85 117 142 65 44 96 63 42 100 69 47 40
is_linear=0
shrinkage=0.03


Tree=64
num_leaves=15
num_cat=0
split_feature=6 0 1 6 6 10 9 10 6 6 3 8 1 1
split_gain=88.7005 23.9704 11.4426 9.45519 6.09753 5.19604 15.3013 5.10091 7.76407 2.64517 2.31905 2.20652 1.30479 0.695352
threshold=41.20000000000001 29.560000000000006 53.300000000000004 29.350000000000005 28.600000000000005 44.500000000000007 9.5000000000000018 64.500000000000014 36.550000000000004 31.150000000000002 9.1056225085616536 10.650000000000002 29.100000000000005 31.850000000000005
decision_type=2 2 2 2 2 2 2 2 2 2 2 2 2 2
left_child=1 4 11 -3 10 -4 -7 -5 -9 -6 12 -2 -1 -14
right_child=2 3 5 7 9 6 -8 8 -10 -11 -12 -13 13 -15
leaf_value=-0.031946218186481433 0.015269949166950854 0.017747772325362478 0.038155819578096266 0.0050795304842970587 -0.0017041742375918795 0.0028394516330698259 0.035134651313625996 -0.020525874454528092 0.00056130700490691443 -0.016761684006612217 -0.016038357887056567 0.0044571289760725842 -0.019366442749033805 -0.026666107537748757
leaf_weight=22 33 21 24 33 21 23 31 30 33 21 31 35 23 24
leaf_count=22 33 21 24 33 21 23 31 30 33 21 31 35 23 24
internal_value=6.24848e-11 -0.010541 0.0186995 -0.000486542 -0.0188254 0.0265413 0.0213793 -0.0044753 -0.00948021 -0.00923293 -0.0228542 0.00970453 -0.0259164 -0.0230939
internal_weight=405 259 146 117 142 78 54 96 63 42 100 68 69 47
internal_count=405 259 146 117 142 78 54 96 63 42 100 68 69 47
is_linear=0
shrinkage=0.03


Tree=65
num_leaves=16
num_cat=0
split_feature=0 0 0 7 3 7 2 4 7 10 10 2 3 3 3
split_gain=83.4526 14.4369 12.2759 7.46096 6.5511 4.96725 4.62901 10.8249 7.42894 4.95314 4.56385 4.5625 4.38096 2.81553 1.56164
threshold=34.360000000000007 29.560000000000006 45.370000000000012 15.829048172753668 9.5685389983435449 9.3984923154765756 22.200000000000006 54.540000000000013 10.76196994257945 121.50000000000001 163.50000000000003 12.450000000000001 7.8681174848524913 8.8928877078437711 5.2712834804910935
decision_type=2 2 2 2 2 2 2 2 2 2 2 2 2 2 2
left_child=1 11 6 5 10 -4 7 -2 9 -8 -3 13 14 -1 -13
right_child=2 4 3 -5 -6 -7 8 -9 -10 -11 -12 12 -14 -15 -16
leaf_value=-0.031865262144378251 0.0018534192256629467 0.0016752491794202638 0.021569747686386108 0.011024347431957722 0.010520308989286423 0.042012264326862662 0.022904544353485105 0.033066262476146219 -0.0090257832198403758 0.0044599654402975976 -0.016360284074076584 -0.012859068750921224 -0.0038659794678768287 -0.017523705793375317 -0.022244830227528625
leaf_weight=28 20 23 20 22 25 23 20 20 24 38 28 27 26 22 39
leaf_count=28 20 23 20 22 25 23 20 20 24 38 28 27 26 22 39
internal_value=5.00845e-11 -0.0126126 0.0147035 0.025234 -0.00205986 0.0325041 0.00909299 0.0174598 0.00501159 0.0108202 -0.00822661 -0.0182606 -0.0142963 -0.025555 -0.0184052
internal_weight=405 218 187 65 76 43 122 40 82 58 51 142 92 50 66
internal_count=405 218 187 65 76 43 122 40 82 58 51 142 92 50 66
is_linear=0
shrinkage=0.03


Tree=66
num_leaves=17
num_cat=0
split_feature=6 0 2 6 10 6 6 9 2 10 6 6 3 2 3 3
split_gain=79.2082 20.9874 11.5276 18.2464 15.6026 8.68482 5.60801 5.28211 5.22924 4.58816 7.24677 2.46245 2.05293 2.67072 2.59633 0.795295
threshold=41.20000000000001 29.560000000000006 22.950000000000003 48.050000000000004 48.500000000000007 29.350000000000005 28.600000000000005 8.5000000000000018 31.100000000000005 64.500000000000014 36.550000000000004 31.150000000000002 9.1056225085616536 12.000000000000002 6.4770279753490749 7.6635826974437258
decision_type=2 2 2 2 2 2 2 2 2 2 2 2 2 2 2 2
left_child=1 6 -2 15 -5 -3 12 -6 -9 -7 -11 -8 13 -1 -15 -4
right_child=2 5 3 4 7 9 11 8 -10 10 -12 -13 -14 14 -16 -17
leaf_value=-0.033084444254636761 0.038237115783350803 0.016922745515725441 0.0017372299991548061 0.045249637685716146 0.0025696007055895668 0.0046861060979691421 -0.0012493810270513806 0.0095273898923769595 0.030297856219112868 -0.019793820085935294 0.00057876559821042148 -0.015777521317026446 -0.01516366804078702 -0.027034043703228237 -0.012903174818493426 -0.0067230599820613853
leaf_weight=22 21 21 20 20 21 33 21 20 24 30 33 21 31 25 22 20
leaf_count=22 21 21 20 20 21 33 21 20 24 30 33 21 31 25 22 20
internal_value=-9.93411e-12 -0.00996106 0.0176706 0.0142155 0.0220782 -0.000552959 -0.0177128 0.0149486 0.0208567 -0.00437577 -0.00912247 -0.00851345 -0.0215765 -0.0244577 -0.0204196 -0.00249291
internal_weight=405 259 146 125 85 117 142 65 44 96 63 42 100 69 47 40
internal_count=405 259 146 125 85 117 142 65 44 96 63 42 100 69 47 40
is_linear=0
shrinkage=0.03


Tree=67
num_leaves=17
num_cat=0
split_feature=6 0 2 6 9 6 6 9 6 2 6 7 1 0 3 3
split_gain=74.527 19.747 10.8463 17.1681 10.9284 8.17155 5.27658 4.38666 4.28163 2.77918 2.31692 1.93591 3.25499 2.60344 1.25892 0.748293
threshold=41.20000000000001 29.560000000000006 22.950000000000003 48.050000000000004 2.5000000000000004 29.350000000000005 28.600000000000005 9.5000000000000018 35.800000000000004 20.750000000000004 31.150000000000002 6.7947241116732977 36.250000000000007 23.170000000000005 9.1662930124161317 7.6635826974437258
decision_type=2 2 2 2 2 2 2 2 2 2 2 2 2 2 2 2
left_child=1 6 -2 15 -5 -3 11 -6 14 -10 -8 -1 13 -13 -7 -4
right_child=2 5 3 4 7 8 10 -9 9 -11 -12 12 -14 -15 -16 -17
leaf_value=-0.028159002099931236 0.037090002383504593 0.016415063352989298 0.0016851130127906798 0.036763763277392301 0.0041176628321409224 -0.016712720860336306 -0.0012118996999093462 0.020973996938290922 0.0098064835795334399 -0.004074234218500992 -0.015304195146475519 -0.020513611881062387 -0.028541257381439207 -0.0072572094923816621 -0.0061958346292376515 -0.0065213684197515248
leaf_weight=25 21 21 20 28 24 21 21 33 21 34 21 30 21 24 20 20
leaf_count=25 21 21 20 28 24 21 21 33 21 34 21 30 21 24 20 20
